<?xml version="1.0"?>
<opencv_storage>
<opencv_ml_svm>
  <format>3</format>
  <svmType>C_SVC</svmType>
  <kernel>
    <type>LINEAR</type></kernel>
  <C>1.</C>
  <term_criteria><iterations>20000</iterations></term_criteria>
  <var_count>625</var_count>
  <class_count>2</class_count>
  <class_labels type_id="opencv-matrix">
    <rows>2</rows>
    <cols>1</cols>
    <dt>i</dt>
    <data>
      0 1</data></class_labels>
  <sv_total>1</sv_total>
  <support_vectors>
    <_>
      2.15925742e-04 1.33646550e-04 1.55808681e-04 1.69853578e-04
      5.13152445e-05 1.01829231e-04 -1.85108016e-04 -1.07316388e-04
      -1.06437117e-04 4.53559041e-05 1.85805751e-04 1.11286106e-04
      1.89481667e-04 3.55977936e-05 4.81113857e-05 6.69288202e-05
      -1.72645377e-04 -1.37157069e-04 -1.62189943e-04 -1.33510330e-04
      -1.76650719e-04 1.03498111e-04 1.17326686e-04 -1.14318163e-05
      6.33809614e-05 1.39646159e-04 1.94380700e-04 7.42752745e-05
      1.56052876e-04 -3.91308095e-05 -9.50252579e-05 1.18745520e-05
      -1.17966938e-05 1.67677965e-04 1.77595371e-04 3.73697345e-04
      3.72590468e-04 1.71815147e-04 1.80112693e-04 1.42672914e-04
      5.63248032e-05 -1.38837699e-04 -5.56778359e-05 -1.64389821e-05
      -1.63764867e-04 -1.62822136e-04 5.65925329e-05 5.65925329e-05
      6.33809614e-05 6.33809614e-05 2.21054564e-04 2.88787269e-04
      3.47892725e-04 1.58036783e-04 2.22797462e-05 2.22797462e-05
      1.00071382e-04 1.26278639e-04 2.42297945e-04 1.24429585e-04
      2.79459753e-04 1.68791346e-04 6.68556968e-05 1.55299611e-04
      5.19115893e-05 1.02748694e-04 1.24540611e-05 -1.08078159e-04
      -1.05821935e-04 -5.83705187e-05 -8.82021632e-05 2.05523524e-04
      1.44789359e-04 1.44789359e-04 6.33809614e-05 2.64231756e-04
      1.66477286e-04 2.32785060e-05 2.22797462e-05 2.22797462e-05
      1.95270804e-05 -5.50726181e-05 1.24051585e-04 -3.57250901e-05
      1.02066024e-05 2.99175008e-04 1.10189649e-05 -2.62095546e-05
      -7.81635208e-06 -8.09355552e-05 6.84651604e-05 -1.60361509e-04
      -1.82859018e-04 7.52456253e-05 5.77221108e-05 5.94452613e-05
      1.75937639e-05 -4.31403896e-05 2.17800130e-04 2.17800130e-04
      -7.41424665e-05 2.51454931e-05 -6.69516812e-05 1.07266453e-06
      -3.94057934e-05 -1.65073416e-05 1.47577603e-05 1.18791322e-04
      4.68193321e-06 -1.14451206e-04 4.96377070e-05 -1.31785928e-04
      -5.13131345e-05 4.77346221e-05 6.59020152e-05 4.25041208e-06
      -7.96639142e-06 -1.10787048e-04 6.12823642e-05 7.41673648e-05
      -1.71021733e-04 4.35069378e-05 -1.72272175e-05 3.00380761e-05
      3.00380761e-05 1.93945132e-04 7.28944588e-06 1.36762919e-05
      8.84890687e-05 -2.90495359e-06 -6.49866633e-05 -1.39586366e-04
      1.41553464e-04 -1.55660964e-04 -2.41640460e-04 1.14693292e-04
      -1.42391262e-04 -2.81829183e-04 8.07082033e-05 5.72714744e-05
      -2.52348313e-04 3.99865385e-05 -9.69863395e-05 -2.38522284e-06
      -1.29314198e-04 8.16600186e-06 1.77915570e-06 3.00380761e-05
      3.00380761e-05 3.00380761e-05 2.61686393e-04 -1.24990504e-04
      1.36762919e-05 2.04647222e-05 -8.02868817e-05 -9.70119145e-05
      -9.92493515e-05 1.17078225e-05 -1.81667841e-04 1.89794901e-05
      3.48597496e-05 3.17620215e-05 1.87957085e-05 5.89619731e-06
      -3.07300419e-04 -1.94310851e-04 2.29022102e-04 -2.35317959e-04
      -3.96664873e-05 5.05699863e-05 3.01310138e-05 9.07722278e-05
      3.00380761e-05 3.00380761e-05 2.28944537e-05 3.59837868e-04
      -7.80855698e-05 5.09243982e-05 -6.74587136e-05 -1.13106471e-04
      -1.23043079e-04 -1.22780242e-04 -6.51785740e-05 -5.54458275e-05
      -1.04392057e-04 4.85919882e-05 -1.60256997e-04 -4.70209270e-05
      -5.92451288e-05 -3.11907235e-04 -3.75584023e-05 1.17424686e-04
      1.89447208e-04 -8.08742334e-05 -1.37193885e-04 -5.12773877e-05
      -5.13703235e-05 -5.13703235e-05 1.82756994e-04 1.91351632e-04
      3.33831471e-04 7.02681646e-05 -2.14602900e-04 -9.47035660e-05
      -7.02836260e-05 -8.11388600e-05 -1.06327039e-04 -1.59528441e-04
      -1.22570287e-04 -1.20036580e-04 -7.73751963e-05 -1.07942382e-04
      -7.93193249e-05 -1.18949356e-04 -2.01671923e-04 2.69698976e-05
      -9.04620902e-05 -8.62155866e-05 3.29806149e-04 -1.05614617e-05
      -9.17345897e-05 4.95346030e-05 2.02253534e-04 2.02253534e-04
      2.17348366e-04 2.79767730e-04 1.71173087e-04 -1.40379954e-04
      -9.47035660e-05 -2.50437530e-04 2.08539659e-05 -3.09329953e-05
      -2.90686330e-05 -1.06496118e-04 -6.39083155e-05 1.03906641e-04
      1.79590555e-04 -3.43361316e-05 -1.30563581e-04 -1.64313766e-04
      3.78190452e-05 -1.56566020e-04 -6.18872509e-05 1.74992761e-04
      -1.23031947e-04 -9.17345897e-05 1.47622282e-04 1.47622282e-04
      1.47622282e-04 1.94126464e-04 1.48790932e-04 5.27899792e-05
      -6.63454848e-05 -1.53000349e-06 2.96747548e-05 6.29126807e-05
      3.79850135e-05 3.60504091e-05 3.14354329e-05 -1.07149062e-04
      2.22393952e-04 3.02836397e-05 2.22936669e-05 -1.55783389e-04
      -2.16006636e-04 -2.99980689e-04 -1.20216646e-04 4.18778727e-05
      3.55587290e-05 -1.20404882e-04 -4.53832326e-05 1.47622282e-04
      1.47622282e-04 2.53487087e-04 1.94126464e-04 1.26695042e-04
      2.38394223e-05 6.94115588e-05 7.94797816e-05 8.18206609e-05
      1.77223439e-04 1.98450012e-04 -1.30377899e-04 5.27407428e-06
      -9.90788540e-05 3.53465875e-05 7.88490797e-05 -4.86130957e-05
      -2.43507267e-04 -1.13385759e-04 -2.62816873e-04 -7.38717354e-05
      5.54635844e-05 1.02094171e-04 2.09903737e-04 -4.53832326e-05
      1.43153899e-04 1.47622282e-04 2.53487087e-04 1.94126464e-04
      3.92397051e-04 2.84768001e-04 1.83142911e-04 1.82489195e-04
      2.91346747e-04 4.63124306e-05 1.13092981e-04 5.87836694e-05
      2.01324132e-04 -6.67219879e-08 -1.45213882e-04 -4.38019651e-06
      -1.58490933e-04 -6.33979143e-05 -1.41365366e-04 -3.05185909e-04
      -9.78176686e-05 8.86698308e-06 8.34605453e-05 1.91559418e-04
      -1.72319327e-04 -3.51329581e-05 4.22489684e-05 3.04943533e-04
      3.26048845e-04 8.35431056e-05 4.98395239e-04 3.42650252e-04
      2.00028862e-05 2.30094622e-04 1.39322234e-04 -4.00973368e-05
      7.26492144e-05 2.57026724e-04 -1.26144427e-04 -5.86921306e-05
      2.61137993e-05 3.07531649e-04 -8.50618671e-05 -9.98659234e-05
      -1.53039029e-04 1.89318198e-05 2.25859349e-05 9.58237215e-05
      -2.11627867e-05 -2.42443202e-04 -6.11641226e-05 3.54605363e-05
      1.92290288e-04 3.26048845e-04 1.09057328e-04 3.25007888e-04
      1.66463346e-04 9.54502830e-05 1.74935209e-04 1.83466356e-04
      1.57435192e-04 2.91797496e-05 1.69118575e-04 -2.09548976e-04
      -1.01233541e-04 -9.35518547e-05 1.59506570e-04 -5.03615884e-05
      -3.28782800e-04 -2.61002511e-04 -3.45941342e-04 -2.00649301e-05
      -1.02715778e-04 -3.69247100e-05 -5.85934977e-05 -1.15403971e-04
      9.04429107e-05 1.03738261e-04 2.44640454e-04 1.09057328e-04
      1.05719839e-04 -6.60957157e-05 8.87449496e-05 3.40252911e-04
      2.84217967e-04 2.61249224e-04 1.01124488e-05 -1.26656319e-04
      -1.09112167e-04 -8.41289730e-05 1.25112376e-04 1.69883089e-04
      2.39865731e-05 -4.71046842e-05 -3.45547945e-04 -3.32557276e-04
      1.31320063e-04 -1.57088376e-04 -2.19614929e-04 -7.54026260e-05
      -1.89888771e-04 -3.45957487e-05 1.10881891e-04 1.43735524e-04
      2.01880859e-04 -5.63283284e-05 -5.53449718e-05 -1.00963807e-05
      -4.54000874e-05 1.45359096e-04 -1.40749005e-04 -4.70700907e-05
      -9.67259330e-05 -2.51225749e-04 -9.03741602e-05 2.03242525e-04
      6.97384021e-05 -5.11772450e-05 -1.10886958e-05 1.44827965e-04
      -6.62714228e-05 1.04528066e-04 -9.06413115e-05 -2.23701107e-04
      -2.32911516e-05 -2.50445883e-04 -1.44521138e-04 -1.09155044e-04
      3.52073897e-04 2.46452139e-04 8.40274224e-05 -9.10454764e-05
      -1.00963807e-05 1.01058824e-04 2.37432527e-04 -5.27641969e-05
      -7.44059580e-05 -1.79028921e-05 -2.37207598e-04 -1.76800982e-04
      -3.90403147e-05 -1.18942815e-04 4.82213327e-05 2.26181990e-04
      -2.97330334e-05 1.04775376e-04 -4.47016064e-05 -1.99485949e-04
      2.90427506e-05 2.41602629e-05 -2.82460183e-04 -1.06070765e-04
      7.02869802e-05 5.38389431e-04 9.58636738e-05 -2.75666607e-05
      -2.75666607e-05 1.89400482e-04 2.62395741e-04 1.68276558e-04
      -7.49979081e-05 -9.35772332e-05 -8.52916273e-05 -2.83944624e-04
      -2.43978415e-04 -1.66171187e-04 -2.87455943e-04 -1.88607766e-04
      8.81917586e-05 2.57799256e-04 1.22260142e-04 -1.12189271e-04
      -2.42548282e-04 2.90427506e-05 4.25954495e-05 -9.61446349e-05
      2.34155341e-05 2.40897090e-04 6.81233709e-04 4.64899640e-04
      1.09251640e-04 -1.04948587e-04 2.29509620e-04 2.60282599e-04
      -8.20171699e-05 -5.20347639e-05 -1.66697617e-04 -1.25248160e-04
      -3.74126772e-04 -1.13320537e-04 -1.29283377e-04 4.46491576e-05
      -8.42401787e-05 2.43847899e-04 -2.78192620e-05 6.57511991e-05
      -1.19345423e-04 -2.23605166e-05 5.27840311e-05 3.90214525e-04
      -5.22222872e-05 2.15979133e-04 2.21553884e-04 2.76818493e-04
      4.39111143e-04 4.74384695e-04 1.89734579e-04 -4.58844552e-05
      1.55719481e-05 -1.38172007e-04 -3.63304571e-04 -2.85024202e-04
      -3.35358171e-04 -6.78159049e-05 -9.04231129e-05 -1.52025852e-04
      6.27787376e-05 -1.35155919e-04 -1.78476374e-04 -3.10299132e-04
      -3.34971264e-04 -2.47230346e-04 8.17142281e-05 3.58908233e-04
      4.88755468e-04 2.51166872e-04 1.55990027e-04 1.72435291e-04
      1.98973343e-04 3.55530123e-04 2.97121005e-04 1.82763222e-04
      -1.60067342e-04 1.95466328e-05 6.04156230e-06 -2.12302577e-04
      -8.39655404e-05 5.96015088e-05 1.61866265e-05 1.08601125e-04
      -9.39648744e-05 4.35414440e-05 7.95107644e-06 6.89209846e-05
      -1.40078453e-04 -6.93082475e-05 -1.65164267e-04 -6.10618590e-05
      2.61590962e-04 2.14718762e-04 2.25478027e-04 -2.79925043e-05
      2.69898719e-05 1.51264481e-04 3.02624743e-04 2.25566415e-04
      8.24978997e-05 3.62109364e-04 4.45831611e-05 4.95132772e-05
      -1.01051395e-04 2.43625054e-05 -9.22470135e-05 -1.13464021e-05
      6.68477005e-05 1.09786037e-04 -7.53670975e-08 -2.93677094e-05
      2.75420229e-04 -1.73089866e-04 1.19690310e-04 -6.95180497e-05
      -2.54121678e-05 1.85204975e-04 2.20120796e-06 1.46176666e-04
      1.31612915e-05 1.31612915e-05 1.37435898e-04 1.72878179e-04
      1.00174817e-04 4.46559316e-05 3.40679326e-05 2.63606256e-04
      -1.48668478e-05 -1.67194448e-04 9.08652291e-05 -1.31784444e-04
      -3.52160714e-05 1.17144164e-05 -2.38001798e-04 2.91803317e-05
      1.16654073e-05 -3.86464353e-06 6.71603993e-05 3.59804166e-04
      -5.65547489e-05 8.43599482e-05 6.88499713e-05 4.51755259e-05
      1.55810369e-04 9.05432171e-05 1.44525897e-04 1.67895574e-04
      1.44890408e-04 1.66329628e-04 2.42169572e-05 3.47335270e-04
      2.46578595e-04 -8.22048023e-05 1.43646801e-04 2.51427671e-04
      -1.08112188e-04 -2.23160139e-04 -5.41717091e-05 -1.66306854e-04
      -1.66306854e-04 -8.60311338e-05 -2.78266729e-04 -1.17056334e-05
      -6.69633846e-06 -1.35225477e-04 -1.74536690e-05 3.01317050e-05
      2.02858409e-05 1.09278917e-04 8.28467964e-05 1.83751734e-04
      2.69521788e-05</_></support_vectors>
  <uncompressed_sv_total>64</uncompressed_sv_total>
  <uncompressed_support_vectors>
    <_>
      0. 0. 0. 0. 0. 0. 0. 0. 0. 255. 255. 255. 0. 0. 0. 0. 0. 0. 0. 0.
      0. 0. 0. 0. 0. 0. 0. 0. 0. 0. 0. 0. 0. 0. 0. 0. 0. 0. 0. 0. 0. 0.
      0. 0. 0. 0. 0. 0. 0. 0. 0. 0. 0. 0. 0. 0. 0. 0. 0. 0. 0. 0. 0. 0.
      0. 0. 0. 0. 0. 0. 0. 0. 0. 0. 0. 0. 0. 0. 0. 0. 0. 0. 0. 0. 0. 0.
      0. 0. 0. 0. 0. 0. 0. 0. 0. 0. 0. 0. 0. 0. 0. 0. 0. 0. 0. 0. 0. 0.
      0. 0. 0. 0. 0. 0. 0. 0. 0. 0. 0. 0. 0. 0. 0. 0. 0. 0. 0. 0. 0. 0.
      0. 0. 0. 0. 0. 0. 0. 0. 0. 0. 0. 0. 0. 0. 0. 0. 0. 0. 0. 0. 0. 0.
      0. 0. 0. 0. 0. 0. 0. 0. 0. 0. 0. 0. 0. 0. 0. 0. 0. 0. 0. 0. 0. 0.
      0. 0. 0. 0. 0. 0. 0. 0. 0. 0. 0. 0. 0. 0. 0. 0. 0. 0. 0. 0. 0. 0.
      0. 0. 0. 0. 0. 0. 0. 0. 0. 0. 0. 0. 0. 0. 0. 0. 0. 0. 0. 0. 0. 0.
      0. 0. 0. 0. 0. 0. 0. 0. 0. 0. 0. 0. 0. 0. 0. 0. 0. 0. 0. 0. 0. 0.
      0. 0. 0. 0. 0. 0. 0. 0. 0. 0. 0. 0. 0. 0. 0. 0. 0. 0. 0. 0. 0. 0.
      0. 0. 0. 0. 0. 0. 0. 0. 0. 0. 0. 0. 0. 0. 0. 0. 0. 0. 0. 0. 0. 0.
      0. 0. 0. 0. 0. 0. 0. 0. 0. 0. 0. 0. 0. 0. 0. 0. 0. 0. 0. 0. 0. 0.
      0. 0. 0. 0. 0. 0. 0. 0. 0. 0. 0. 0. 0. 0. 0. 0. 0. 0. 0. 0. 0. 0.
      0. 0. 0. 0. 0. 0. 0. 0. 255. 255. 255. 255. 0. 0. 0. 0. 0. 0. 0.
      0. 0. 0. 0. 0. 0. 0. 0. 0. 0. 0. 0. 0. 255. 255. 255. 255. 255.
      255. 255. 0. 0. 0. 0. 0. 0. 0. 0. 0. 0. 0. 0. 0. 0. 0. 0. 0. 0.
      255. 255. 255. 255. 255. 255. 255. 255. 255. 0. 0. 0. 0. 0. 0. 0.
      0. 0. 0. 0. 0. 0. 0. 0. 0. 255. 255. 255. 255. 255. 255. 255. 255.
      255. 0. 0. 0. 0. 0. 0. 0. 0. 0. 0. 0. 0. 0. 0. 0. 0. 255. 255.
      255. 255. 255. 255. 255. 255. 255. 255. 0. 0. 0. 0. 0. 255. 0. 0.
      0. 0. 0. 0. 0. 0. 0. 255. 255. 255. 255. 255. 255. 255. 255. 255.
      255. 255. 0. 0. 0. 0. 255. 255. 0. 0. 0. 0. 0. 0. 0. 0. 0. 255.
      255. 255. 255. 255. 255. 255. 255. 255. 255. 0. 0. 0. 0. 255. 255.
      255. 255. 0. 0. 0. 0. 0. 0. 0. 0. 255. 255. 255. 255. 255. 255.
      255. 255. 255. 0. 0. 0. 0. 255. 255. 255. 255. 255. 0. 0. 0. 0. 0.
      0. 0. 0. 255. 255. 255. 255. 255. 255. 255. 255. 0. 0. 0. 0. 255.
      255. 255. 255. 255. 255. 0. 0. 0. 0. 0. 0. 0. 0. 0. 0. 255. 255.
      255. 255. 255. 255. 0. 0. 0. 255. 255. 255. 255. 255. 255. 0. 0.
      0. 0. 0. 0. 0. 0. 0. 0. 0. 0. 0. 0. 0. 0. 0. 0. 0. 255. 255. 255.
      255. 255. 255. 255. 0. 0. 0. 0. 0. 0. 0. 0. 0. 0. 0. 0. 0. 0. 0.
      0. 0. 0.</_>
    <_>
      255. 255. 255. 255. 255. 255. 0. 0. 0. 0. 0. 0. 0. 0. 0. 0. 0. 0.
      0. 0. 0. 255. 255. 255. 255. 255. 255. 255. 255. 0. 0. 0. 0. 0. 0.
      0. 0. 0. 0. 0. 0. 0. 0. 0. 0. 0. 255. 255. 255. 255. 255. 255.
      255. 0. 0. 0. 0. 0. 0. 0. 0. 0. 0. 0. 0. 0. 0. 0. 0. 0. 0. 255.
      255. 255. 255. 255. 0. 0. 0. 0. 0. 0. 0. 0. 0. 0. 0. 0. 0. 0. 0.
      0. 0. 0. 0. 0. 0. 0. 255. 255. 0. 0. 0. 0. 0. 0. 0. 0. 0. 0. 0. 0.
      0. 0. 0. 0. 0. 0. 0. 0. 0. 0. 0. 0. 0. 0. 0. 0. 0. 0. 0. 0. 0. 0.
      0. 0. 0. 0. 0. 0. 0. 0. 0. 0. 0. 0. 0. 0. 0. 0. 0. 0. 0. 0. 0. 0.
      0. 0. 0. 0. 0. 0. 0. 0. 0. 0. 0. 0. 0. 0. 0. 0. 0. 0. 0. 0. 0. 0.
      0. 0. 0. 0. 0. 0. 0. 0. 0. 0. 0. 0. 0. 0. 0. 0. 0. 0. 0. 0. 0. 0.
      0. 0. 0. 0. 0. 0. 0. 0. 0. 0. 0. 0. 0. 0. 0. 0. 0. 0. 0. 0. 0. 0.
      0. 0. 0. 0. 0. 0. 0. 0. 0. 0. 0. 0. 0. 0. 0. 0. 0. 0. 0. 0. 0. 0.
      0. 0. 0. 0. 0. 0. 0. 0. 0. 0. 0. 0. 0. 0. 0. 0. 0. 0. 0. 0. 0. 0.
      0. 0. 0. 0. 0. 0. 0. 0. 0. 0. 0. 0. 0. 0. 0. 0. 0. 0. 0. 0. 0. 0.
      0. 0. 0. 0. 0. 0. 0. 0. 0. 0. 0. 0. 0. 0. 0. 0. 0. 0. 0. 0. 0. 0.
      0. 0. 0. 0. 0. 0. 0. 0. 0. 0. 0. 0. 0. 0. 0. 0. 0. 0. 0. 0. 0. 0.
      0. 0. 0. 0. 0. 0. 0. 0. 0. 0. 0. 0. 0. 0. 0. 0. 0. 0. 0. 0. 0. 0.
      0. 0. 0. 0. 0. 0. 0. 0. 0. 0. 0. 0. 0. 0. 0. 0. 0. 0. 0. 0. 0. 0.
      0. 0. 0. 0. 0. 0. 0. 0. 0. 0. 0. 0. 0. 0. 0. 0. 0. 0. 0. 0. 0. 0.
      0. 0. 0. 0. 0. 0. 0. 0. 0. 0. 0. 0. 0. 0. 0. 0. 0. 0. 0. 0. 0. 0.
      0. 0. 0. 0. 0. 0. 0. 0. 0. 0. 0. 0. 0. 0. 0. 0. 0. 0. 0. 0. 0. 0.
      0. 0. 0. 0. 0. 0. 0. 0. 0. 0. 0. 0. 0. 0. 0. 0. 0. 0. 0. 0. 0. 0.
      0. 0. 0. 0. 0. 0. 0. 0. 0. 0. 0. 0. 0. 0. 0. 0. 0. 0. 0. 0. 0. 0.
      0. 0. 0. 0. 0. 0. 0. 0. 0. 0. 0. 0. 0. 0. 0. 0. 0. 0. 0. 0. 0. 0.
      0. 0. 0. 0. 0. 0. 0. 0. 0. 0. 0. 0. 0. 0. 0. 0. 0. 0. 0. 0. 0. 0.
      0. 0. 0. 0. 0. 0. 0. 0. 0. 0. 0. 0. 0. 0. 0. 0. 0. 0. 0. 0. 0. 0.
      0. 0. 0. 0. 0. 0. 0. 0. 0. 0. 0. 0. 0. 0. 0. 0. 0. 0. 0. 0. 0. 0.
      0. 0. 0. 0. 0. 0. 0. 0. 0. 0. 0. 0. 0. 0. 0. 0. 0. 0. 0. 0. 0. 0.
      0. 0. 0. 0. 0. 0. 0. 0. 0. 0. 0. 0. 0. 0. 0. 0. 0. 0. 0. 0. 0. 0.
      0. 0. 0. 0. 0. 0. 0.</_>
    <_>
      0. 0. 0. 0. 0. 0. 0. 0. 0. 0. 0. 0. 0. 0. 0. 255. 255. 0. 0. 0. 0.
      0. 0. 0. 0. 0. 0. 0. 0. 0. 0. 0. 0. 0. 0. 0. 0. 0. 0. 0. 255. 255.
      0. 0. 0. 0. 0. 0. 0. 0. 0. 0. 0. 0. 0. 0. 0. 0. 0. 0. 0. 0. 0. 0.
      0. 255. 255. 255. 0. 0. 0. 0. 0. 0. 0. 0. 0. 0. 0. 0. 0. 0. 0. 0.
      0. 0. 0. 0. 0. 0. 255. 255. 255. 255. 255. 255. 0. 0. 0. 0. 0. 0.
      0. 0. 0. 0. 0. 0. 0. 0. 0. 0. 0. 0. 0. 255. 255. 255. 255. 255.
      255. 255. 255. 255. 255. 0. 0. 0. 0. 0. 0. 0. 0. 0. 0. 0. 0. 0. 0.
      0. 255. 255. 255. 255. 255. 255. 255. 255. 255. 255. 0. 0. 0. 0.
      0. 0. 0. 0. 0. 0. 0. 0. 0. 0. 255. 255. 255. 255. 255. 255. 255.
      255. 255. 255. 255. 0. 0. 0. 0. 0. 0. 0. 0. 0. 0. 0. 0. 0. 0. 255.
      255. 255. 255. 255. 255. 255. 255. 255. 255. 255. 0. 0. 0. 0. 0.
      0. 0. 0. 0. 0. 0. 0. 0. 0. 255. 255. 255. 255. 255. 255. 255. 255.
      255. 255. 255. 0. 0. 0. 0. 0. 0. 0. 0. 0. 0. 0. 0. 0. 0. 255. 255.
      255. 255. 255. 255. 255. 255. 255. 255. 255. 0. 0. 0. 0. 0. 0. 0.
      0. 0. 0. 0. 0. 0. 0. 255. 255. 255. 255. 255. 255. 255. 255. 255.
      255. 255. 0. 0. 0. 0. 0. 0. 0. 0. 0. 0. 0. 0. 0. 0. 255. 255. 255.
      255. 255. 255. 255. 255. 255. 255. 255. 0. 0. 0. 0. 0. 0. 0. 0. 0.
      0. 0. 0. 0. 0. 255. 255. 255. 255. 255. 255. 255. 255. 255. 255.
      255. 0. 0. 0. 0. 0. 0. 0. 0. 0. 0. 0. 0. 0. 0. 255. 255. 255. 255.
      255. 255. 255. 255. 255. 255. 255. 0. 0. 0. 0. 0. 0. 0. 0. 0. 0.
      0. 0. 0. 0. 0. 255. 255. 255. 255. 255. 255. 255. 255. 255. 255.
      0. 0. 0. 0. 0. 0. 0. 0. 0. 0. 0. 0. 0. 0. 0. 255. 255. 255. 255.
      255. 255. 255. 255. 255. 255. 0. 0. 0. 0. 0. 0. 0. 0. 0. 0. 0. 0.
      0. 0. 0. 0. 255. 255. 255. 255. 255. 255. 255. 255. 255. 0. 0. 0.
      0. 0. 0. 0. 0. 0. 0. 0. 0. 0. 0. 0. 0. 0. 255. 255. 255. 255. 255.
      255. 255. 255. 0. 0. 0. 0. 0. 0. 0. 0. 0. 0. 0. 0. 0. 0. 0. 0. 0.
      0. 0. 255. 255. 255. 255. 255. 255. 0. 0. 0. 0. 0. 0. 0. 0. 0. 0.
      0. 0. 0. 0. 0. 0. 0. 0. 0. 0. 0. 255. 255. 255. 255. 0. 0. 0. 0.
      0. 0. 0. 0. 0. 0. 0. 0. 0. 0. 0. 0. 0. 0. 0. 0. 255. 255. 255.
      255. 255. 0. 0. 0. 0. 0. 0. 0. 0. 0. 0. 0. 0. 0. 0. 0. 0. 0. 0. 0.
      255. 255. 255. 255. 255. 255. 0. 0. 0. 0. 0. 0. 0. 0. 0. 0. 0. 0.
      0. 0. 0. 0. 0. 0. 255. 255. 255. 255. 255. 255. 255. 0. 0. 0. 0.
      0. 0. 0. 0. 0. 0. 0. 0. 0. 0. 0. 0. 0. 255. 255. 255. 255. 255.
      255. 255. 255. 0. 0. 0. 0. 0. 0. 0. 0. 0. 0. 0. 0. 0. 0. 0. 0.
      255. 255. 255. 255. 255. 255. 255. 255. 255.</_>
    <_>
      0. 0. 0. 0. 0. 0. 0. 0. 0. 0. 0. 0. 0. 0. 0. 0. 0. 0. 0. 0. 0. 0.
      0. 0. 0. 0. 0. 0. 0. 0. 0. 0. 0. 0. 0. 0. 0. 0. 0. 0. 0. 0. 0. 0.
      0. 0. 0. 0. 0. 0. 0. 0. 0. 0. 0. 0. 0. 0. 0. 0. 0. 0. 0. 0. 0. 0.
      0. 0. 0. 0. 0. 0. 0. 0. 0. 0. 0. 0. 0. 0. 0. 0. 0. 0. 0. 0. 0. 0.
      0. 0. 0. 0. 0. 0. 0. 0. 0. 0. 0. 0. 0. 0. 0. 0. 0. 0. 0. 0. 0. 0.
      0. 0. 0. 0. 0. 0. 0. 0. 0. 0. 0. 0. 0. 0. 0. 0. 0. 0. 0. 0. 0. 0.
      0. 0. 0. 0. 0. 0. 0. 0. 0. 0. 0. 0. 0. 0. 0. 0. 0. 0. 0. 0. 0. 0.
      0. 0. 0. 0. 0. 0. 0. 0. 0. 0. 0. 0. 0. 0. 0. 0. 0. 0. 0. 0. 0. 0.
      0. 0. 0. 0. 0. 0. 0. 0. 0. 0. 0. 0. 0. 0. 0. 0. 0. 0. 0. 0. 0. 0.
      0. 0. 0. 0. 0. 0. 0. 0. 0. 0. 0. 0. 0. 0. 0. 0. 0. 0. 0. 0. 0. 0.
      0. 0. 0. 0. 0. 0. 0. 0. 0. 0. 0. 0. 0. 0. 0. 0. 0. 0. 0. 0. 0. 0.
      0. 0. 0. 0. 0. 0. 0. 0. 0. 0. 255. 255. 255. 255. 0. 0. 0. 0. 0.
      0. 0. 0. 0. 0. 0. 0. 0. 0. 0. 0. 0. 0. 0. 0. 0. 255. 255. 255.
      255. 255. 255. 0. 0. 0. 0. 0. 0. 0. 0. 0. 0. 0. 0. 0. 0. 0. 0. 0.
      0. 0. 255. 255. 255. 255. 255. 255. 255. 255. 0. 0. 0. 0. 0. 0. 0.
      0. 0. 0. 0. 0. 0. 0. 0. 0. 0. 255. 255. 255. 255. 255. 255. 255.
      255. 255. 0. 0. 0. 0. 0. 0. 0. 0. 0. 0. 0. 0. 0. 0. 0. 0. 255.
      255. 255. 255. 255. 255. 255. 255. 255. 255. 255. 0. 0. 0. 0. 0.
      0. 0. 0. 0. 0. 0. 0. 0. 0. 0. 255. 255. 255. 255. 255. 255. 255.
      255. 255. 255. 255. 0. 0. 0. 0. 0. 0. 0. 0. 0. 0. 0. 0. 0. 0. 255.
      255. 255. 255. 255. 255. 255. 255. 255. 255. 255. 255. 255. 0. 0.
      0. 0. 0. 0. 0. 0. 0. 0. 0. 0. 255. 255. 255. 255. 255. 255. 255.
      255. 255. 255. 255. 255. 255. 255. 0. 0. 0. 0. 0. 0. 0. 0. 0. 0.
      0. 0. 0. 255. 255. 255. 255. 255. 255. 255. 255. 255. 255. 255.
      255. 255. 0. 0. 0. 0. 0. 0. 0. 0. 0. 0. 0. 0. 0. 255. 255. 255.
      255. 255. 255. 255. 255. 255. 255. 255. 255. 255. 0. 0. 0. 0. 0.
      0. 255. 0. 0. 0. 0. 0. 0. 255. 255. 255. 255. 255. 255. 255. 255.
      255. 255. 255. 255. 255. 0. 0. 0. 0. 0. 255. 255. 0. 0. 0. 0. 0.
      0. 0. 255. 255. 255. 255. 255. 255. 255. 255. 255. 255. 255. 255.
      0. 0. 0. 0. 255. 255. 255. 0. 0. 0. 0. 0. 0. 0. 0. 255. 255. 255.
      255. 255. 255. 255. 0. 0. 0. 0. 0. 0. 0. 255. 255. 255. 0. 0. 0.
      0. 0. 0. 0. 0. 0. 0. 255. 255. 255. 255. 255. 0. 0. 0. 0. 0. 0. 0.
      255. 255. 255. 255. 0. 0. 0. 0. 0. 0. 0. 0. 0. 0. 0. 0. 0. 0. 0.
      0. 0. 0. 0. 0. 0.</_>
    <_>
      0. 0. 0. 0. 0. 0. 0. 0. 0. 0. 0. 0. 0. 0. 0. 0. 0. 0. 0. 0. 0. 0.
      0. 0. 0. 0. 0. 0. 0. 0. 0. 0. 0. 0. 0. 0. 255. 255. 255. 255. 0.
      0. 0. 0. 0. 0. 0. 0. 0. 0. 0. 0. 0. 0. 0. 0. 0. 0. 0. 255. 255.
      255. 255. 255. 255. 0. 0. 0. 0. 0. 0. 0. 0. 0. 0. 0. 0. 0. 0. 0.
      0. 0. 255. 255. 255. 255. 255. 255. 255. 255. 0. 0. 0. 0. 0. 0. 0.
      0. 0. 0. 0. 0. 0. 0. 0. 0. 255. 255. 255. 255. 255. 255. 255. 255.
      255. 0. 0. 0. 0. 0. 0. 0. 0. 0. 0. 0. 0. 0. 0. 0. 255. 255. 255.
      255. 255. 255. 255. 255. 255. 255. 0. 0. 0. 0. 0. 0. 0. 0. 0. 0.
      255. 0. 0. 0. 0. 0. 255. 255. 255. 255. 255. 255. 255. 255. 255.
      0. 0. 0. 0. 0. 0. 0. 0. 0. 0. 255. 0. 0. 0. 0. 0. 255. 255. 255.
      255. 255. 255. 255. 255. 255. 0. 0. 0. 0. 0. 0. 0. 0. 0. 255. 255.
      255. 0. 0. 0. 0. 0. 0. 0. 255. 255. 255. 255. 255. 255. 0. 0. 0.
      0. 0. 0. 0. 0. 0. 255. 255. 255. 0. 0. 0. 0. 0. 0. 0. 0. 255. 255.
      255. 255. 255. 0. 0. 0. 0. 0. 0. 0. 0. 0. 255. 255. 255. 0. 0. 0.
      0. 0. 0. 0. 0. 255. 255. 255. 255. 255. 255. 0. 0. 0. 0. 0. 0. 0.
      255. 255. 255. 255. 0. 0. 0. 0. 0. 0. 0. 0. 255. 255. 255. 255.
      255. 255. 0. 0. 0. 0. 0. 0. 0. 255. 255. 255. 255. 0. 0. 0. 0. 0.
      0. 0. 0. 255. 255. 255. 255. 255. 255. 0. 0. 0. 0. 0. 0. 0. 255.
      255. 255. 255. 0. 0. 0. 0. 0. 0. 0. 0. 255. 255. 255. 255. 255.
      255. 0. 0. 0. 0. 0. 0. 0. 0. 255. 255. 0. 0. 0. 0. 0. 0. 0. 0. 0.
      255. 255. 255. 255. 255. 0. 0. 0. 0. 0. 0. 0. 0. 0. 255. 255. 0.
      0. 0. 0. 0. 0. 0. 0. 0. 255. 255. 255. 255. 255. 0. 0. 0. 0. 0. 0.
      0. 0. 0. 255. 255. 0. 0. 0. 0. 0. 0. 0. 0. 0. 255. 255. 255. 255.
      255. 0. 0. 0. 0. 0. 0. 0. 0. 0. 255. 255. 0. 0. 0. 0. 0. 0. 0. 0.
      0. 255. 255. 255. 255. 255. 0. 0. 0. 0. 0. 0. 0. 0. 0. 255. 0. 0.
      0. 0. 0. 0. 0. 0. 0. 0. 255. 255. 255. 255. 255. 0. 0. 0. 0. 0. 0.
      0. 0. 0. 255. 0. 0. 0. 0. 0. 0. 0. 0. 0. 0. 255. 255. 255. 255.
      255. 0. 0. 0. 0. 0. 0. 0. 0. 0. 0. 0. 0. 0. 0. 0. 0. 0. 0. 0. 0.
      255. 255. 255. 255. 255. 0. 0. 0. 0. 0. 0. 0. 0. 0. 0. 0. 0. 0. 0.
      0. 0. 0. 0. 0. 0. 255. 255. 255. 255. 255. 0. 0. 0. 0. 0. 0. 0. 0.
      0. 0. 0. 0. 0. 0. 0. 0. 0. 0. 0. 0. 255. 255. 255. 255. 255. 0. 0.
      0. 0. 0. 0. 0. 0. 0. 0. 0. 0. 0. 0. 0. 0. 0. 0. 0. 0. 255. 255.
      255. 255. 255. 0. 0. 0. 0. 0. 0. 0. 0. 0. 0. 0. 0. 0. 0. 0. 0. 0.
      0. 0. 0. 255. 255. 255. 255. 0. 0. 0. 0. 0. 0. 0. 0. 0. 0. 0.</_>
    <_>
      0. 0. 0. 255. 0. 255. 255. 255. 0. 0. 0. 0. 0. 0. 0. 0. 0. 255. 0.
      0. 0. 0. 0. 0. 0. 0. 0. 0. 255. 0. 255. 255. 255. 0. 0. 0. 0. 0.
      0. 0. 0. 0. 255. 255. 0. 0. 0. 0. 0. 0. 0. 0. 255. 255. 255. 255.
      255. 255. 0. 0. 0. 0. 0. 0. 0. 0. 0. 255. 255. 255. 0. 0. 0. 0. 0.
      0. 0. 255. 255. 255. 255. 255. 255. 0. 0. 0. 0. 0. 0. 0. 0. 255.
      255. 255. 255. 255. 0. 0. 0. 0. 0. 0. 255. 255. 255. 255. 255.
      255. 0. 0. 0. 0. 0. 0. 0. 0. 255. 255. 255. 255. 255. 0. 0. 0. 0.
      0. 0. 255. 255. 255. 255. 255. 255. 0. 0. 0. 0. 0. 0. 0. 0. 255.
      255. 255. 255. 255. 0. 0. 0. 0. 0. 0. 255. 255. 255. 255. 255.
      255. 255. 0. 0. 0. 0. 0. 0. 0. 255. 255. 255. 255. 255. 0. 0. 0.
      0. 0. 0. 255. 255. 255. 255. 255. 255. 255. 0. 0. 0. 0. 0. 0. 0.
      255. 255. 255. 255. 255. 0. 0. 0. 0. 0. 0. 255. 255. 255. 255.
      255. 255. 255. 0. 0. 0. 0. 0. 0. 255. 255. 255. 255. 255. 255. 0.
      0. 0. 0. 0. 0. 255. 255. 255. 255. 255. 255. 255. 0. 0. 0. 0. 0.
      0. 255. 255. 255. 255. 255. 255. 0. 0. 0. 0. 0. 0. 255. 255. 255.
      255. 255. 255. 255. 255. 0. 0. 0. 0. 255. 255. 255. 255. 255. 255.
      255. 0. 0. 0. 0. 0. 0. 255. 255. 255. 255. 255. 255. 255. 255.
      255. 255. 255. 255. 255. 255. 255. 255. 255. 255. 255. 255. 0. 0.
      0. 0. 0. 0. 255. 255. 255. 255. 255. 255. 255. 255. 255. 255. 255.
      255. 255. 255. 255. 255. 255. 255. 255. 255. 255. 255. 0. 0. 0.
      255. 255. 255. 255. 255. 255. 255. 255. 255. 255. 255. 255. 255.
      255. 255. 255. 255. 255. 255. 255. 255. 255. 0. 0. 0. 255. 255.
      255. 255. 255. 255. 255. 255. 255. 255. 255. 255. 255. 255. 255.
      255. 255. 255. 255. 255. 255. 255. 0. 0. 0. 0. 255. 255. 255. 255.
      255. 255. 255. 255. 255. 255. 255. 255. 255. 255. 255. 255. 255.
      255. 255. 255. 255. 0. 0. 0. 0. 0. 0. 0. 0. 0. 0. 255. 255. 255.
      255. 255. 255. 255. 255. 255. 255. 255. 255. 255. 255. 255. 0. 0.
      0. 0. 0. 0. 0. 0. 0. 0. 0. 255. 255. 255. 255. 255. 255. 255. 255.
      255. 255. 255. 255. 255. 255. 0. 0. 0. 0. 0. 0. 0. 0. 0. 0. 0. 0.
      255. 255. 255. 255. 255. 255. 255. 255. 255. 255. 255. 255. 255.
      0. 0. 0. 0. 0. 0. 0. 0. 0. 0. 0. 0. 0. 255. 255. 255. 255. 255.
      255. 255. 255. 255. 255. 255. 255. 0. 0. 0. 0. 0. 0. 0. 0. 0. 0.
      0. 0. 0. 0. 0. 0. 0. 255. 255. 255. 255. 255. 255. 255. 255. 0. 0.
      0. 0. 0. 0. 0. 0. 0. 0. 0. 0. 0. 0. 0. 0. 0. 0. 255. 255. 255.
      255. 255. 255. 255. 0. 0. 0. 0. 0. 0. 0. 0. 0. 0. 0. 0. 0. 0. 0.
      0. 0. 255. 255. 255. 255. 255. 255. 255. 255. 0. 0. 0. 0. 0. 0. 0.
      0. 0. 0. 0. 0. 0. 0. 0. 0. 255. 255. 255. 255. 255. 255. 255. 255.
      255. 0. 0. 0. 0. 0. 0. 0. 0. 0. 0. 0. 0. 0. 0. 0. 0. 255. 255.
      255. 255. 255. 255. 255. 255. 255.</_>
    <_>
      0. 0. 0. 0. 0. 0. 0. 0. 0. 255. 255. 255. 255. 255. 255. 0. 0. 0.
      0. 0. 0. 0. 0. 0. 0. 0. 0. 0. 0. 0. 0. 0. 0. 255. 255. 255. 255.
      255. 255. 255. 255. 0. 0. 0. 0. 0. 0. 0. 0. 0. 0. 0. 0. 0. 0. 0.
      0. 255. 255. 255. 255. 255. 255. 255. 255. 255. 255. 0. 0. 0. 0.
      0. 0. 0. 0. 0. 0. 0. 0. 0. 0. 0. 255. 255. 255. 255. 255. 255.
      255. 255. 255. 255. 0. 0. 0. 0. 0. 0. 0. 0. 0. 0. 0. 0. 0. 0. 0.
      255. 255. 255. 255. 255. 255. 255. 255. 255. 255. 0. 0. 0. 0. 0.
      0. 0. 0. 0. 0. 0. 0. 0. 0. 0. 255. 255. 255. 255. 255. 255. 255.
      255. 255. 255. 0. 0. 0. 0. 0. 0. 0. 0. 255. 0. 0. 0. 0. 0. 0. 255.
      255. 255. 255. 255. 255. 255. 255. 255. 255. 0. 0. 0. 0. 0. 0. 0.
      0. 255. 0. 0. 0. 0. 0. 0. 0. 255. 255. 255. 255. 255. 255. 255.
      255. 255. 0. 0. 0. 0. 0. 0. 0. 255. 255. 255. 0. 0. 0. 0. 0. 0. 0.
      255. 255. 255. 255. 255. 255. 255. 255. 255. 0. 0. 0. 0. 0. 0.
      255. 255. 255. 0. 0. 0. 0. 0. 0. 0. 255. 255. 255. 255. 255. 255.
      255. 255. 255. 0. 0. 0. 0. 0. 0. 255. 255. 255. 255. 0. 0. 0. 0.
      0. 0. 0. 255. 255. 255. 255. 255. 255. 255. 255. 0. 0. 0. 0. 0. 0.
      255. 255. 255. 255. 0. 0. 0. 0. 0. 0. 0. 255. 255. 255. 255. 255.
      255. 255. 255. 0. 0. 0. 0. 0. 0. 255. 255. 255. 255. 0. 0. 0. 0.
      0. 0. 0. 255. 255. 255. 255. 255. 255. 255. 255. 0. 0. 0. 0. 0. 0.
      255. 255. 255. 255. 0. 0. 0. 0. 0. 0. 0. 255. 255. 255. 255. 255.
      255. 255. 255. 0. 0. 0. 0. 0. 0. 255. 255. 255. 255. 0. 0. 0. 0.
      0. 0. 0. 255. 255. 255. 255. 255. 255. 255. 255. 0. 0. 0. 0. 0. 0.
      255. 255. 255. 255. 0. 0. 0. 0. 0. 0. 0. 255. 255. 255. 255. 255.
      255. 255. 255. 0. 0. 0. 0. 0. 0. 255. 255. 255. 255. 0. 0. 0. 0.
      0. 0. 0. 255. 255. 255. 255. 255. 255. 255. 255. 0. 0. 0. 0. 0. 0.
      255. 255. 255. 0. 0. 0. 0. 0. 0. 0. 0. 255. 255. 255. 255. 255.
      255. 255. 255. 0. 0. 0. 0. 0. 0. 255. 255. 0. 0. 0. 0. 0. 0. 0. 0.
      0. 255. 255. 255. 255. 255. 255. 255. 255. 0. 0. 0. 0. 0. 0. 0. 0.
      0. 0. 0. 0. 0. 0. 0. 0. 0. 255. 255. 255. 255. 255. 255. 255. 255.
      0. 0. 0. 0. 0. 0. 0. 0. 0. 0. 0. 0. 0. 0. 0. 0. 0. 0. 255. 255.
      255. 255. 255. 255. 0. 0. 0. 0. 0. 0. 0. 0. 0. 0. 0. 0. 0. 0. 0.
      0. 0. 0. 0. 255. 255. 255. 255. 255. 255. 0. 0. 0. 0. 0. 0. 0. 0.
      0. 0. 0. 0. 0. 0. 0. 0. 0. 0. 0. 255. 255. 255. 255. 255. 255. 0.
      0. 0. 0. 0. 0. 0. 0. 0. 0. 0. 0. 0. 0. 0. 0. 0. 0. 0. 255. 255.
      255. 255. 255. 255. 0. 0. 0. 0. 0. 0. 0. 0. 0. 0. 0. 0. 0. 0. 0.
      0. 0. 0. 0. 0. 0. 255. 255. 255. 0. 0. 0. 0. 0. 0. 0. 0. 0.</_>
    <_>
      0. 0. 0. 0. 0. 0. 0. 255. 255. 255. 255. 255. 255. 255. 255. 255.
      0. 0. 0. 0. 255. 0. 0. 0. 255. 0. 0. 0. 0. 0. 0. 0. 255. 255. 0.
      255. 255. 255. 255. 0. 0. 0. 0. 0. 255. 255. 0. 0. 255. 255. 0. 0.
      0. 0. 0. 0. 255. 255. 0. 255. 255. 255. 255. 0. 0. 0. 0. 0. 255.
      255. 0. 255. 255. 255. 255. 0. 0. 0. 0. 0. 255. 255. 0. 255. 255.
      255. 0. 0. 0. 0. 0. 0. 255. 255. 255. 255. 255. 255. 255. 255. 0.
      0. 0. 0. 255. 255. 0. 255. 255. 255. 0. 0. 0. 0. 0. 0. 255. 255.
      255. 255. 255. 255. 255. 255. 255. 0. 0. 0. 255. 255. 255. 255.
      255. 255. 0. 0. 0. 0. 0. 0. 255. 255. 255. 255. 255. 255. 255.
      255. 255. 255. 0. 0. 0. 255. 255. 255. 255. 255. 0. 0. 0. 0. 0. 0.
      255. 255. 255. 255. 255. 255. 255. 255. 255. 255. 255. 0. 0. 255.
      255. 0. 255. 255. 0. 0. 0. 0. 0. 0. 0. 255. 255. 255. 255. 255.
      255. 255. 255. 255. 255. 255. 0. 255. 255. 0. 255. 255. 0. 0. 0.
      0. 0. 0. 0. 255. 255. 255. 255. 255. 255. 255. 255. 255. 255. 255.
      255. 255. 255. 0. 0. 0. 0. 0. 0. 0. 0. 255. 255. 255. 255. 255.
      255. 255. 255. 255. 255. 255. 255. 255. 255. 0. 255. 255. 0. 0. 0.
      0. 0. 0. 0. 255. 255. 255. 255. 255. 255. 255. 255. 255. 255. 255.
      255. 255. 255. 0. 0. 255. 0. 0. 0. 0. 255. 255. 255. 255. 255.
      255. 255. 255. 255. 255. 255. 255. 255. 255. 255. 255. 255. 255.
      0. 0. 255. 255. 0. 255. 255. 255. 255. 255. 255. 255. 255. 255.
      255. 255. 255. 255. 255. 255. 0. 255. 255. 255. 255. 0. 0. 255.
      255. 255. 255. 255. 255. 255. 255. 255. 255. 255. 255. 255. 255.
      255. 255. 255. 255. 255. 255. 255. 255. 0. 0. 0. 255. 255. 255.
      255. 255. 255. 255. 255. 255. 255. 255. 255. 255. 255. 255. 255.
      255. 255. 255. 255. 255. 0. 0. 0. 0. 255. 255. 255. 255. 255. 255.
      255. 255. 255. 255. 255. 255. 255. 0. 255. 255. 255. 255. 255.
      255. 0. 0. 0. 0. 0. 255. 255. 255. 255. 255. 255. 255. 255. 255.
      255. 255. 0. 0. 255. 255. 255. 255. 255. 0. 0. 0. 0. 0. 0. 0. 255.
      0. 0. 255. 255. 255. 255. 255. 255. 0. 0. 255. 255. 255. 255. 255.
      255. 0. 0. 0. 0. 0. 0. 0. 0. 0. 0. 0. 255. 255. 255. 255. 255. 0.
      0. 255. 255. 255. 255. 255. 255. 0. 0. 0. 0. 0. 0. 0. 0. 0. 0. 0.
      0. 255. 255. 255. 255. 0. 0. 255. 255. 255. 255. 255. 255. 0. 0.
      0. 0. 0. 0. 0. 0. 0. 0. 0. 0. 0. 0. 0. 0. 0. 255. 255. 255. 255.
      255. 255. 0. 0. 0. 0. 0. 0. 0. 0. 0. 0. 0. 0. 0. 0. 0. 0. 0. 0.
      255. 255. 255. 255. 255. 255. 0. 0. 0. 0. 0. 0. 0. 0. 0. 0. 0. 0.
      0. 0. 0. 0. 0. 0. 0. 255. 255. 255. 255. 255. 0. 0. 0. 0. 0. 0. 0.
      0. 0. 0. 0. 0. 0. 0. 0. 0. 0. 0. 0. 255. 255. 255. 255. 0. 0. 0.
      0. 0. 0. 0. 0. 0. 0. 0. 0. 0. 0. 0. 0. 0. 0. 0. 0. 255. 255. 255.
      255. 0. 0. 0. 0. 0. 0. 0. 0. 0. 0. 0. 0. 0. 0. 0. 0. 0.</_>
    <_>
      255. 255. 255. 255. 255. 255. 255. 255. 255. 255. 255. 255. 255.
      255. 255. 0. 0. 0. 0. 0. 0. 0. 0. 0. 0. 0. 255. 255. 255. 255.
      255. 255. 255. 255. 255. 255. 255. 255. 255. 255. 0. 0. 0. 0. 0.
      0. 0. 0. 0. 0. 0. 0. 255. 255. 255. 255. 255. 255. 255. 255. 255.
      255. 255. 255. 255. 0. 0. 0. 0. 0. 0. 0. 0. 0. 0. 0. 0. 0. 255.
      255. 255. 255. 255. 255. 255. 255. 255. 255. 255. 255. 255. 0. 0.
      0. 0. 0. 0. 0. 0. 0. 0. 0. 0. 0. 0. 255. 255. 255. 255. 255. 255.
      255. 255. 255. 255. 255. 0. 0. 0. 0. 0. 0. 0. 0. 0. 0. 0. 0. 0. 0.
      0. 0. 255. 255. 255. 255. 255. 255. 255. 255. 255. 0. 0. 0. 0. 0.
      0. 0. 0. 0. 0. 0. 0. 0. 0. 0. 0. 0. 255. 255. 255. 255. 255. 255.
      255. 255. 0. 0. 0. 0. 0. 0. 0. 0. 0. 0. 0. 0. 0. 0. 0. 0. 0. 255.
      255. 255. 255. 255. 255. 255. 0. 0. 0. 0. 0. 0. 0. 0. 0. 0. 0. 0.
      0. 0. 0. 0. 0. 255. 255. 255. 255. 255. 255. 255. 255. 0. 0. 0. 0.
      0. 0. 0. 0. 0. 0. 0. 0. 0. 0. 0. 0. 255. 255. 255. 255. 255. 255.
      255. 255. 255. 0. 0. 0. 0. 0. 0. 0. 0. 0. 0. 0. 0. 0. 0. 0. 255.
      255. 255. 255. 255. 255. 255. 255. 255. 255. 0. 0. 0. 0. 0. 0. 0.
      0. 0. 0. 0. 0. 0. 0. 0. 255. 255. 255. 255. 255. 255. 255. 255.
      255. 255. 0. 0. 0. 0. 0. 0. 0. 0. 0. 0. 0. 0. 0. 0. 255. 255. 255.
      255. 255. 255. 255. 255. 255. 255. 255. 0. 0. 0. 0. 0. 0. 0. 0. 0.
      0. 0. 0. 0. 0. 255. 255. 255. 255. 255. 255. 255. 255. 255. 255.
      0. 0. 0. 0. 0. 0. 0. 0. 0. 0. 0. 0. 0. 0. 255. 255. 255. 255. 255.
      255. 255. 255. 255. 255. 255. 0. 0. 0. 0. 0. 0. 0. 0. 0. 0. 0. 0.
      0. 0. 255. 255. 255. 255. 255. 255. 255. 255. 255. 255. 255. 0. 0.
      0. 0. 0. 0. 0. 0. 0. 0. 0. 0. 0. 255. 255. 255. 255. 255. 255.
      255. 255. 255. 255. 255. 255. 0. 0. 0. 0. 0. 0. 0. 0. 0. 0. 0. 0.
      0. 255. 255. 255. 255. 255. 255. 255. 255. 255. 255. 255. 0. 0. 0.
      0. 0. 0. 0. 0. 0. 0. 0. 0. 0. 255. 255. 255. 255. 255. 255. 255.
      255. 255. 255. 255. 255. 0. 0. 0. 0. 0. 0. 0. 0. 0. 0. 0. 0. 255.
      255. 255. 255. 255. 255. 255. 255. 255. 255. 255. 255. 255. 255.
      0. 0. 0. 0. 0. 0. 0. 0. 0. 0. 0. 255. 255. 255. 255. 255. 255.
      255. 255. 255. 255. 255. 255. 255. 255. 0. 0. 0. 0. 0. 0. 0. 0. 0.
      0. 0. 255. 255. 255. 255. 255. 255. 255. 255. 255. 255. 255. 255.
      255. 255. 0. 0. 0. 0. 0. 0. 0. 0. 0. 0. 0. 255. 255. 255. 255.
      255. 255. 255. 255. 255. 255. 255. 255. 255. 255. 0. 0. 0. 0. 0.
      0. 0. 0. 0. 0. 0. 255. 255. 255. 255. 255. 255. 255. 255. 255.
      255. 255. 255. 255. 255. 255. 0. 0. 0. 0. 0. 0. 0. 0. 0. 0. 255.
      255. 255. 255. 255. 255. 255. 255. 255. 255. 255. 255. 255. 255.
      255. 0. 0. 0. 0. 0. 0. 0. 0. 0. 0.</_>
    <_>
      0. 0. 0. 0. 0. 0. 0. 0. 0. 0. 255. 255. 255. 255. 255. 255. 0. 0.
      0. 0. 0. 0. 0. 0. 0. 0. 0. 0. 0. 0. 0. 0. 0. 0. 0. 255. 255. 255.
      255. 255. 255. 0. 0. 0. 0. 0. 0. 0. 0. 0. 0. 0. 0. 0. 0. 0. 0. 0.
      0. 0. 255. 255. 255. 255. 255. 255. 0. 0. 0. 0. 0. 0. 0. 0. 0. 0.
      0. 0. 0. 0. 0. 0. 0. 0. 0. 255. 255. 255. 255. 255. 255. 0. 0. 0.
      0. 0. 0. 0. 0. 0. 0. 0. 0. 0. 0. 0. 0. 0. 0. 0. 255. 255. 255.
      255. 255. 255. 255. 0. 0. 0. 0. 0. 0. 0. 0. 0. 0. 0. 0. 0. 0. 0.
      0. 0. 0. 255. 255. 255. 255. 255. 255. 255. 0. 0. 0. 0. 0. 0. 0.
      0. 0. 0. 0. 0. 0. 0. 0. 0. 0. 0. 255. 255. 255. 255. 255. 255.
      255. 0. 0. 0. 0. 0. 0. 0. 0. 0. 0. 0. 0. 0. 0. 0. 0. 0. 0. 255.
      255. 255. 255. 255. 255. 255. 0. 0. 0. 0. 0. 0. 0. 0. 0. 0. 0. 0.
      0. 0. 0. 0. 0. 0. 0. 255. 255. 255. 255. 255. 255. 0. 0. 0. 0. 0.
      0. 0. 0. 0. 0. 0. 0. 0. 0. 0. 0. 0. 0. 0. 255. 255. 255. 255. 255.
      255. 0. 0. 0. 0. 0. 0. 0. 0. 0. 0. 0. 0. 0. 0. 0. 0. 0. 0. 0. 255.
      255. 255. 255. 255. 255. 255. 0. 0. 0. 0. 0. 0. 0. 0. 0. 0. 0. 0.
      0. 0. 0. 0. 0. 0. 255. 255. 255. 255. 255. 255. 255. 0. 0. 0. 0.
      0. 0. 0. 0. 0. 0. 0. 0. 0. 0. 0. 0. 0. 0. 255. 255. 255. 255. 255.
      255. 255. 0. 0. 0. 0. 0. 0. 0. 0. 0. 0. 0. 0. 0. 0. 0. 0. 0. 0.
      255. 255. 255. 255. 255. 255. 255. 0. 0. 0. 0. 0. 0. 0. 0. 0. 0.
      0. 0. 0. 0. 0. 0. 0. 0. 255. 255. 255. 255. 255. 255. 255. 0. 0.
      0. 0. 0. 0. 0. 0. 0. 0. 0. 0. 0. 0. 0. 0. 0. 0. 255. 255. 255.
      255. 255. 255. 255. 0. 0. 0. 0. 0. 0. 0. 0. 0. 0. 0. 0. 0. 0. 0.
      0. 0. 0. 255. 255. 255. 255. 255. 255. 255. 0. 0. 0. 0. 0. 0. 0.
      0. 0. 0. 0. 0. 0. 0. 0. 0. 0. 0. 255. 255. 255. 255. 255. 255.
      255. 0. 0. 0. 0. 0. 255. 255. 0. 0. 0. 0. 0. 0. 0. 0. 0. 0. 0.
      255. 255. 255. 255. 255. 255. 0. 0. 0. 0. 255. 255. 255. 255. 0.
      0. 0. 0. 0. 0. 0. 0. 0. 0. 255. 255. 255. 255. 255. 255. 255. 0.
      0. 255. 255. 255. 255. 255. 255. 0. 0. 0. 0. 0. 0. 0. 0. 0. 255.
      255. 255. 255. 255. 255. 0. 0. 0. 255. 255. 255. 255. 255. 255.
      255. 0. 0. 0. 0. 0. 0. 0. 0. 255. 255. 255. 255. 255. 255. 255. 0.
      0. 0. 255. 255. 255. 255. 255. 255. 255. 0. 0. 0. 0. 0. 0. 0. 255.
      255. 255. 255. 255. 255. 255. 255. 0. 0. 0. 255. 255. 255. 255.
      255. 255. 255. 0. 0. 0. 0. 0. 0. 0. 255. 255. 255. 255. 255. 255.
      255. 255. 0. 0. 0. 255. 255. 255. 255. 255. 255. 255. 0. 0. 0. 0.
      0. 0. 255. 255. 255. 255. 255. 255. 255. 255. 255. 255. 0. 0. 255.
      255. 255. 255. 255. 255. 255.</_>
    <_>
      0. 0. 0. 0. 0. 0. 0. 0. 0. 0. 0. 0. 0. 0. 0. 0. 0. 0. 0. 0. 0. 0.
      0. 0. 0. 0. 0. 0. 0. 0. 0. 0. 0. 0. 0. 0. 0. 0. 0. 0. 0. 0. 0. 0.
      0. 0. 0. 0. 0. 0. 0. 0. 0. 0. 0. 0. 0. 0. 0. 0. 0. 0. 0. 0. 0. 0.
      0. 0. 0. 0. 0. 0. 0. 0. 0. 0. 0. 0. 0. 0. 0. 0. 0. 0. 0. 0. 0. 0.
      0. 0. 0. 0. 0. 0. 0. 0. 0. 0. 0. 0. 0. 0. 0. 0. 0. 0. 0. 255. 255.
      255. 0. 0. 0. 0. 0. 0. 0. 0. 0. 0. 0. 0. 0. 0. 0. 0. 0. 0. 0. 0.
      0. 0. 255. 255. 255. 255. 0. 0. 0. 0. 0. 0. 0. 0. 0. 0. 0. 0. 0.
      0. 0. 0. 0. 0. 0. 0. 0. 255. 255. 255. 255. 255. 255. 255. 255.
      255. 255. 255. 0. 0. 0. 0. 0. 0. 0. 0. 0. 0. 0. 0. 0. 255. 255.
      255. 255. 255. 255. 255. 255. 255. 255. 255. 255. 255. 255. 0. 0.
      0. 0. 255. 255. 0. 0. 0. 0. 0. 255. 255. 255. 255. 255. 255. 255.
      255. 255. 255. 255. 255. 255. 255. 255. 255. 255. 255. 255. 255.
      255. 0. 0. 0. 0. 255. 255. 255. 255. 255. 255. 255. 255. 255. 255.
      255. 255. 255. 255. 255. 255. 255. 255. 255. 255. 255. 0. 0. 0. 0.
      255. 255. 255. 255. 255. 255. 255. 255. 255. 255. 255. 255. 255.
      255. 255. 255. 255. 255. 255. 255. 255. 0. 0. 0. 0. 255. 255. 255.
      255. 255. 255. 255. 255. 255. 255. 255. 255. 255. 255. 255. 255.
      255. 255. 255. 255. 255. 0. 0. 0. 0. 0. 255. 255. 255. 255. 255.
      255. 255. 255. 255. 255. 255. 0. 0. 0. 0. 0. 0. 255. 255. 255. 0.
      0. 0. 0. 0. 255. 255. 255. 255. 255. 255. 255. 255. 255. 255. 0.
      0. 0. 0. 0. 0. 0. 255. 255. 255. 0. 0. 0. 0. 0. 0. 0. 0. 255. 255.
      255. 255. 255. 255. 0. 0. 0. 0. 0. 0. 0. 0. 255. 255. 0. 0. 0. 0.
      0. 0. 0. 0. 0. 0. 255. 255. 255. 255. 255. 0. 0. 0. 0. 0. 0. 0. 0.
      0. 255. 0. 0. 0. 0. 0. 0. 0. 0. 0. 0. 255. 255. 255. 255. 255. 0.
      0. 0. 0. 0. 0. 0. 0. 0. 0. 0. 0. 0. 0. 0. 0. 0. 0. 0. 0. 255. 255.
      255. 255. 0. 0. 0. 0. 0. 0. 0. 0. 0. 0. 0. 0. 0. 0. 0. 0. 0. 0. 0.
      0. 255. 255. 255. 255. 255. 0. 0. 0. 0. 0. 0. 0. 0. 0. 0. 0. 0. 0.
      0. 0. 0. 0. 0. 0. 0. 255. 255. 255. 255. 255. 0. 0. 0. 0. 0. 0. 0.
      0. 0. 0. 0. 255. 255. 0. 0. 0. 0. 0. 0. 255. 255. 255. 255. 255.
      255. 0. 0. 0. 0. 0. 0. 0. 0. 0. 255. 0. 255. 255. 255. 0. 0. 0.
      255. 255. 255. 255. 255. 255. 255. 255. 0. 0. 0. 0. 0. 0. 0. 0. 0.
      255. 0. 255. 255. 255. 255. 255. 255. 255. 255. 255. 255. 255.
      255. 255. 255. 0. 0. 0. 0. 0. 0. 0. 0. 0. 255. 0. 255. 255. 255.
      255. 255. 255. 255. 255. 255. 255. 255. 255. 255. 0. 0. 0. 0. 0.
      0. 0. 0. 0. 255. 255. 0. 255. 255. 255. 255. 255. 255. 255. 255.
      255. 255. 255. 255. 255. 255. 0. 0. 0. 0. 0. 0. 0. 0. 255. 255.</_>
    <_>
      0. 0. 255. 255. 255. 255. 255. 255. 255. 255. 255. 255. 255. 0. 0.
      0. 0. 0. 0. 0. 255. 255. 255. 255. 255. 0. 0. 255. 255. 255. 255.
      255. 255. 255. 255. 255. 255. 255. 0. 0. 0. 0. 0. 0. 0. 255. 255.
      255. 255. 255. 0. 0. 255. 255. 255. 255. 255. 255. 255. 255. 255.
      255. 255. 0. 0. 0. 0. 0. 0. 0. 255. 255. 255. 255. 255. 0. 255.
      255. 255. 255. 255. 255. 255. 255. 255. 255. 255. 255. 0. 0. 0. 0.
      0. 0. 0. 255. 255. 255. 255. 255. 255. 255. 255. 255. 255. 255.
      255. 255. 255. 255. 255. 255. 255. 255. 255. 0. 0. 0. 0. 0. 255.
      255. 255. 0. 0. 255. 255. 255. 255. 255. 255. 255. 255. 255. 255.
      255. 255. 255. 255. 255. 255. 0. 0. 0. 0. 255. 255. 0. 0. 0. 255.
      255. 255. 255. 255. 255. 255. 255. 255. 255. 255. 255. 255. 255.
      255. 255. 0. 0. 0. 0. 0. 0. 0. 0. 0. 255. 255. 255. 255. 255. 255.
      255. 255. 255. 255. 255. 255. 255. 255. 255. 0. 0. 0. 0. 0. 0. 0.
      0. 0. 0. 255. 255. 255. 255. 255. 255. 255. 0. 255. 255. 255. 255.
      255. 255. 0. 0. 0. 0. 0. 0. 0. 0. 0. 0. 0. 255. 255. 255. 255.
      255. 255. 255. 0. 0. 255. 255. 255. 255. 0. 0. 0. 0. 0. 0. 0. 0.
      0. 0. 0. 0. 0. 255. 255. 255. 255. 255. 255. 0. 0. 0. 255. 255. 0.
      0. 0. 0. 0. 0. 0. 0. 0. 0. 0. 0. 0. 0. 0. 255. 255. 255. 0. 0. 0.
      0. 0. 0. 0. 0. 0. 0. 0. 0. 0. 0. 0. 0. 0. 0. 0. 0. 0. 0. 0. 0. 0.
      0. 0. 0. 0. 0. 0. 0. 0. 0. 0. 0. 0. 0. 0. 0. 0. 0. 0. 0. 0. 0. 0.
      0. 0. 0. 0. 0. 0. 0. 0. 0. 0. 0. 0. 0. 0. 0. 0. 0. 0. 0. 0. 0. 0.
      0. 0. 0. 0. 0. 0. 0. 0. 0. 0. 0. 0. 0. 0. 0. 0. 0. 0. 0. 0. 0. 0.
      0. 0. 0. 0. 0. 0. 0. 0. 0. 0. 0. 0. 0. 0. 0. 0. 0. 0. 0. 0. 0. 0.
      0. 0. 0. 0. 0. 0. 0. 0. 0. 0. 0. 0. 0. 0. 0. 0. 0. 0. 0. 0. 0. 0.
      0. 0. 0. 0. 0. 0. 0. 0. 0. 0. 255. 0. 0. 0. 0. 0. 0. 0. 0. 0. 0.
      0. 0. 0. 0. 0. 0. 0. 0. 0. 0. 0. 0. 0. 0. 255. 0. 0. 0. 0. 0. 0.
      0. 0. 0. 0. 0. 0. 0. 0. 0. 0. 0. 0. 0. 0. 0. 0. 0. 0. 255. 0. 0.
      0. 0. 0. 0. 0. 0. 0. 0. 0. 0. 0. 0. 0. 0. 255. 255. 0. 0. 0. 0. 0.
      0. 255. 0. 0. 0. 0. 0. 0. 0. 0. 0. 0. 0. 255. 255. 255. 255. 255.
      255. 255. 255. 0. 0. 0. 0. 0. 255. 0. 0. 0. 0. 0. 0. 0. 255. 255.
      255. 255. 255. 255. 255. 255. 255. 255. 255. 255. 0. 0. 0. 0. 0.
      255. 0. 0. 0. 0. 0. 0. 255. 255. 255. 255. 255. 255. 255. 255.
      255. 255. 255. 255. 255. 255. 0. 0. 0. 0. 255. 0. 0. 0. 0. 0. 0.
      255. 255. 255. 255. 255. 255. 255. 255. 255. 255. 255. 255. 255.
      255. 0. 0. 0. 0. 0. 0. 0. 0. 0. 0. 255. 255. 255. 255. 255. 255.
      255. 255. 255. 255. 255. 255. 255. 255. 255. 0. 0. 0. 0.</_>
    <_>
      0. 0. 0. 0. 0. 0. 0. 0. 0. 0. 0. 0. 0. 0. 0. 0. 0. 0. 0. 0. 0. 0.
      0. 0. 0. 0. 0. 0. 0. 0. 0. 0. 0. 0. 0. 0. 0. 0. 0. 0. 0. 0. 0. 0.
      0. 0. 0. 0. 0. 0. 0. 0. 0. 0. 0. 0. 0. 0. 0. 0. 0. 0. 0. 0. 0. 0.
      0. 0. 0. 0. 0. 0. 0. 0. 0. 0. 0. 0. 0. 0. 0. 0. 0. 0. 0. 0. 0. 0.
      0. 0. 0. 0. 0. 0. 0. 0. 0. 0. 0. 0. 0. 0. 0. 0. 0. 0. 0. 0. 0. 0.
      0. 0. 0. 255. 255. 255. 255. 255. 255. 255. 255. 255. 255. 255.
      255. 0. 0. 0. 0. 0. 0. 0. 0. 0. 0. 0. 0. 255. 255. 255. 255. 255.
      255. 255. 255. 255. 255. 255. 255. 255. 255. 0. 0. 0. 0. 0. 0. 0.
      0. 0. 0. 255. 255. 255. 255. 255. 255. 255. 255. 255. 255. 255.
      255. 255. 255. 255. 255. 0. 0. 0. 0. 0. 0. 0. 0. 0. 255. 255. 255.
      255. 255. 255. 255. 255. 255. 255. 255. 255. 255. 255. 255. 255.
      0. 0. 0. 0. 0. 0. 0. 0. 255. 255. 255. 255. 255. 255. 255. 255.
      255. 255. 255. 255. 255. 255. 255. 255. 255. 255. 0. 0. 0. 0. 0.
      0. 0. 255. 255. 255. 255. 255. 255. 255. 255. 255. 255. 255. 255.
      255. 255. 255. 255. 255. 255. 255. 0. 0. 0. 0. 0. 0. 255. 255.
      255. 255. 255. 255. 255. 255. 255. 255. 255. 255. 255. 255. 255.
      255. 255. 255. 0. 0. 0. 0. 0. 0. 0. 255. 255. 255. 255. 255. 255.
      255. 255. 255. 255. 255. 255. 255. 255. 255. 255. 255. 255. 0. 0.
      0. 0. 0. 0. 0. 255. 255. 255. 255. 255. 255. 255. 255. 255. 255.
      255. 255. 255. 255. 255. 255. 255. 255. 0. 0. 0. 0. 0. 0. 0. 0. 0.
      255. 255. 255. 255. 255. 255. 255. 255. 255. 255. 255. 255. 255.
      255. 255. 0. 0. 0. 0. 0. 0. 0. 0. 0. 0. 0. 255. 255. 255. 255.
      255. 255. 255. 255. 255. 255. 255. 255. 255. 255. 0. 0. 0. 0. 0.
      0. 0. 0. 0. 0. 0. 0. 255. 255. 255. 255. 255. 255. 255. 255. 255.
      255. 255. 0. 0. 0. 0. 0. 0. 0. 0. 0. 0. 0. 0. 0. 0. 0. 0. 255.
      255. 255. 255. 255. 255. 255. 255. 255. 0. 0. 0. 0. 0. 0. 0. 0. 0.
      0. 0. 0. 0. 0. 0. 0. 0. 0. 255. 255. 255. 255. 255. 255. 255. 0.
      0. 0. 0. 0. 0. 0. 0. 0. 0. 0. 0. 0. 0. 0. 0. 0. 0. 0. 255. 255.
      255. 255. 255. 255. 0. 0. 0. 0. 0. 0. 0. 0. 0. 0. 0. 0. 0. 0. 0.
      0. 0. 0. 0. 0. 0. 255. 255. 255. 255. 0. 0. 0. 0. 0. 0. 0. 0. 0.
      0. 0. 0. 0. 0. 0. 0. 0. 0. 0. 0. 0. 0. 0. 255. 255. 0. 0. 0. 0. 0.
      0. 0. 0. 0. 0. 0. 0. 0. 0. 0. 0. 0. 0. 0. 0. 0. 0. 0. 0. 0. 0. 0.
      0. 0. 0. 0. 0. 0. 0. 0. 0. 0. 0. 0. 0. 0. 0. 0. 0. 0. 0. 0. 0. 0.
      0. 0. 0. 0. 0. 0. 0. 0. 0. 0. 0. 0. 0. 0. 0. 0. 0. 0. 0. 0. 0. 0.
      0. 0. 0. 0. 0. 0. 0. 0. 0. 0. 0. 0. 0. 0. 0. 0. 0. 0. 0. 0. 0. 0.
      0. 0. 0. 0. 0. 0. 0.</_>
    <_>
      0. 0. 0. 0. 0. 0. 0. 0. 0. 0. 0. 0. 0. 0. 0. 0. 0. 255. 255. 0. 0.
      0. 0. 0. 0. 0. 0. 0. 0. 0. 0. 0. 0. 0. 0. 0. 0. 0. 0. 0. 0. 255.
      255. 255. 255. 0. 0. 0. 0. 0. 0. 0. 0. 0. 0. 0. 0. 0. 0. 0. 0. 0.
      0. 0. 0. 255. 255. 255. 255. 255. 0. 0. 0. 0. 0. 0. 0. 0. 0. 0. 0.
      0. 0. 0. 0. 0. 0. 0. 0. 0. 255. 255. 255. 255. 255. 0. 0. 0. 0. 0.
      0. 0. 0. 0. 0. 0. 0. 0. 0. 0. 0. 0. 0. 0. 255. 255. 255. 255. 255.
      255. 0. 0. 0. 0. 0. 255. 0. 0. 0. 0. 0. 0. 0. 0. 0. 0. 0. 0. 255.
      255. 255. 255. 255. 255. 255. 0. 0. 0. 0. 0. 255. 255. 0. 0. 0. 0.
      0. 0. 0. 0. 0. 0. 0. 255. 255. 255. 255. 255. 255. 255. 0. 0. 0.
      0. 0. 255. 255. 0. 0. 0. 0. 0. 0. 0. 0. 0. 0. 255. 255. 255. 255.
      255. 255. 255. 255. 0. 0. 0. 0. 255. 255. 255. 0. 0. 0. 0. 0. 0.
      0. 0. 0. 255. 255. 255. 255. 255. 255. 255. 255. 255. 0. 0. 0. 0.
      255. 255. 255. 255. 0. 0. 0. 0. 0. 0. 0. 0. 255. 255. 255. 255.
      255. 255. 255. 255. 255. 0. 0. 0. 0. 255. 255. 255. 255. 0. 0. 0.
      0. 0. 0. 0. 255. 255. 255. 255. 255. 255. 255. 255. 255. 255. 0.
      0. 0. 0. 255. 255. 255. 255. 0. 0. 0. 0. 0. 255. 255. 255. 255.
      255. 255. 255. 255. 255. 255. 255. 255. 0. 0. 0. 0. 255. 255. 255.
      255. 0. 0. 0. 0. 255. 255. 255. 255. 255. 255. 255. 255. 255. 255.
      255. 255. 255. 0. 0. 0. 255. 255. 255. 255. 255. 0. 0. 0. 255.
      255. 255. 255. 255. 255. 255. 255. 255. 255. 255. 255. 255. 255.
      0. 0. 0. 255. 255. 255. 255. 255. 0. 0. 255. 255. 255. 255. 255.
      255. 255. 255. 255. 255. 255. 255. 255. 255. 255. 0. 0. 0. 255.
      255. 255. 255. 255. 255. 255. 255. 255. 255. 255. 255. 255. 255.
      255. 255. 255. 255. 255. 255. 255. 255. 255. 0. 0. 255. 255. 255.
      255. 255. 255. 255. 255. 255. 255. 255. 255. 255. 255. 255. 255.
      255. 255. 255. 255. 255. 255. 255. 0. 0. 255. 255. 255. 255. 255.
      255. 255. 255. 255. 255. 255. 255. 255. 255. 255. 255. 255. 255.
      255. 255. 255. 255. 255. 0. 0. 0. 255. 255. 255. 255. 255. 255.
      255. 255. 255. 255. 255. 255. 255. 255. 255. 255. 255. 255. 255.
      255. 255. 255. 0. 0. 0. 255. 255. 255. 255. 255. 255. 255. 255.
      255. 255. 255. 255. 255. 255. 255. 255. 255. 255. 255. 255. 255.
      0. 0. 0. 0. 0. 255. 255. 255. 255. 255. 255. 255. 255. 255. 255.
      255. 255. 255. 255. 255. 255. 255. 255. 255. 255. 0. 0. 0. 0. 0.
      255. 255. 255. 255. 255. 255. 255. 255. 255. 255. 255. 255. 255.
      255. 255. 255. 255. 255. 255. 255. 0. 0. 0. 0. 0. 255. 255. 255.
      255. 255. 255. 255. 255. 255. 255. 255. 255. 255. 255. 255. 255.
      255. 255. 255. 255. 0. 0. 0. 0. 0. 255. 255. 255. 255. 255. 255.
      255. 255. 255. 255. 255. 255. 255. 255. 255. 255. 255. 255. 255.
      0. 0. 0. 0. 0. 0. 0. 0. 0. 255. 255. 255. 255. 0. 0. 0. 0. 255.
      255. 255. 255. 255. 255. 255. 255. 0. 0. 0. 0. 0. 0.</_>
    <_>
      0. 0. 0. 0. 0. 0. 0. 0. 0. 0. 0. 0. 0. 0. 0. 0. 0. 0. 0. 0. 0. 0.
      0. 0. 0. 0. 0. 0. 0. 0. 0. 0. 0. 0. 0. 0. 0. 0. 0. 0. 0. 0. 0. 0.
      0. 0. 0. 0. 0. 0. 0. 0. 0. 0. 0. 0. 0. 0. 0. 0. 0. 0. 0. 0. 0. 0.
      0. 0. 0. 0. 0. 0. 0. 0. 0. 0. 0. 0. 0. 0. 0. 0. 0. 0. 0. 0. 0. 0.
      0. 0. 0. 0. 0. 0. 0. 0. 0. 0. 0. 0. 0. 0. 0. 0. 0. 0. 0. 0. 0. 0.
      0. 0. 0. 0. 0. 0. 0. 0. 0. 0. 0. 0. 0. 0. 0. 0. 0. 0. 0. 0. 0. 0.
      0. 0. 0. 0. 0. 0. 0. 0. 0. 0. 0. 0. 0. 0. 0. 0. 0. 0. 0. 0. 0. 0.
      0. 0. 0. 0. 0. 0. 0. 0. 0. 0. 0. 0. 255. 0. 0. 0. 0. 0. 0. 0. 0.
      0. 0. 0. 0. 0. 0. 0. 0. 0. 0. 0. 0. 0. 0. 0. 255. 255. 255. 0. 0.
      0. 0. 0. 0. 0. 0. 0. 0. 0. 0. 0. 0. 0. 0. 0. 0. 0. 0. 0. 0. 255.
      255. 255. 255. 0. 0. 0. 0. 0. 0. 0. 0. 0. 0. 0. 0. 0. 0. 0. 0. 0.
      0. 0. 0. 0. 255. 255. 255. 255. 0. 0. 0. 0. 0. 0. 0. 0. 0. 0. 0.
      0. 0. 0. 0. 0. 0. 0. 0. 0. 0. 0. 255. 255. 255. 0. 0. 0. 0. 0. 0.
      0. 0. 0. 0. 0. 0. 0. 0. 0. 0. 0. 0. 0. 0. 0. 0. 255. 255. 255.
      255. 0. 0. 0. 0. 0. 255. 0. 0. 0. 0. 0. 0. 0. 0. 0. 0. 0. 0. 0. 0.
      0. 255. 255. 255. 255. 0. 0. 0. 0. 0. 0. 0. 0. 0. 0. 0. 0. 0. 0.
      0. 0. 0. 255. 0. 0. 0. 255. 255. 255. 255. 0. 0. 0. 0. 0. 0. 0. 0.
      0. 0. 0. 0. 0. 0. 0. 0. 0. 255. 0. 0. 0. 0. 255. 255. 255. 255. 0.
      0. 0. 0. 0. 0. 0. 0. 0. 0. 0. 0. 0. 0. 0. 0. 0. 0. 0. 0. 0. 255.
      255. 255. 255. 0. 0. 0. 0. 0. 0. 0. 0. 0. 0. 0. 0. 0. 0. 0. 0. 0.
      0. 0. 0. 0. 255. 255. 255. 255. 0. 0. 0. 0. 0. 0. 0. 0. 0. 0. 0.
      0. 0. 0. 0. 0. 0. 0. 0. 0. 0. 255. 255. 255. 255. 0. 0. 0. 0. 0.
      0. 0. 255. 255. 0. 0. 0. 0. 0. 0. 0. 0. 0. 0. 0. 0. 0. 255. 255.
      255. 0. 0. 0. 0. 0. 0. 0. 255. 255. 0. 0. 0. 0. 0. 0. 0. 255. 0.
      0. 0. 0. 0. 255. 255. 255. 0. 0. 0. 0. 0. 0. 0. 0. 0. 0. 0. 0. 0.
      0. 0. 0. 255. 0. 0. 0. 0. 0. 0. 255. 255. 0. 0. 0. 0. 0. 0. 0. 0.
      0. 0. 0. 0. 0. 0. 0. 0. 255. 0. 0. 0. 0. 0. 0. 0. 0. 0. 0. 0. 0.
      0. 0. 0. 255. 0. 0. 0. 0. 0. 0. 0. 0. 0. 0. 0. 0. 0. 0. 0. 0. 0.
      0. 0. 0. 0. 0. 0. 0. 0. 0. 0. 0. 0. 0. 0. 0. 0. 0. 0. 0. 0. 0. 0.
      0. 0. 0. 0. 0. 0. 0. 0. 0. 0. 255. 0. 0. 0. 0. 0. 0. 0. 0. 0. 0.
      0. 0. 0. 0. 0. 0. 0. 0. 0. 0. 0.</_>
    <_>
      0. 0. 0. 0. 0. 0. 0. 0. 0. 0. 0. 0. 255. 255. 255. 255. 255. 255.
      255. 255. 255. 255. 255. 0. 0. 255. 255. 0. 0. 255. 255. 255. 255.
      255. 255. 255. 255. 255. 255. 255. 255. 255. 255. 255. 255. 255.
      0. 0. 0. 0. 255. 255. 255. 255. 255. 255. 255. 255. 255. 255. 255.
      255. 255. 255. 255. 255. 255. 255. 255. 255. 255. 255. 0. 0. 0.
      255. 255. 255. 255. 255. 255. 255. 255. 255. 255. 255. 255. 255.
      255. 255. 255. 255. 255. 255. 255. 255. 255. 0. 0. 0. 255. 255.
      255. 255. 255. 255. 255. 255. 255. 255. 255. 255. 255. 255. 255.
      255. 255. 255. 255. 255. 255. 255. 0. 0. 0. 255. 255. 255. 255.
      255. 255. 255. 255. 255. 255. 255. 255. 255. 255. 255. 255. 255.
      255. 255. 255. 255. 255. 0. 0. 0. 255. 255. 255. 255. 255. 255.
      255. 255. 255. 255. 255. 255. 255. 255. 255. 255. 255. 255. 255.
      255. 255. 255. 0. 0. 0. 255. 255. 255. 255. 255. 255. 255. 255.
      255. 255. 255. 255. 255. 255. 255. 255. 255. 255. 255. 255. 255.
      0. 0. 0. 0. 255. 255. 255. 255. 255. 255. 255. 255. 255. 255. 255.
      255. 255. 255. 255. 255. 255. 255. 255. 255. 0. 0. 0. 0. 0. 255.
      255. 255. 255. 255. 255. 255. 255. 255. 255. 255. 255. 255. 255.
      255. 255. 255. 0. 0. 0. 0. 0. 0. 0. 0. 255. 255. 255. 255. 255.
      255. 255. 255. 255. 255. 255. 255. 255. 255. 0. 0. 0. 0. 0. 0. 0.
      0. 0. 0. 0. 255. 255. 255. 255. 255. 255. 255. 255. 255. 255. 255.
      255. 255. 0. 0. 0. 0. 0. 0. 0. 0. 0. 0. 0. 0. 255. 255. 255. 255.
      255. 255. 255. 255. 255. 255. 255. 0. 0. 0. 0. 0. 0. 0. 0. 0. 0.
      0. 0. 0. 0. 255. 255. 255. 255. 255. 0. 0. 0. 0. 0. 0. 0. 0. 0. 0.
      0. 0. 0. 0. 0. 0. 0. 0. 0. 0. 0. 0. 0. 0. 0. 0. 0. 0. 0. 0. 0. 0.
      0. 0. 0. 0. 0. 0. 0. 0. 0. 0. 0. 0. 0. 0. 0. 0. 0. 0. 0. 0. 0. 0.
      0. 0. 0. 0. 0. 0. 0. 0. 0. 0. 0. 0. 0. 0. 0. 0. 0. 0. 0. 0. 0. 0.
      0. 0. 0. 0. 0. 0. 0. 0. 0. 0. 0. 0. 0. 0. 0. 0. 0. 0. 0. 0. 0. 0.
      0. 0. 0. 0. 0. 0. 0. 0. 0. 0. 0. 0. 0. 0. 0. 0. 0. 0. 0. 0. 0. 0.
      0. 0. 0. 0. 0. 0. 0. 0. 0. 0. 0. 0. 0. 0. 0. 0. 0. 0. 0. 0. 0. 0.
      0. 0. 0. 0. 0. 0. 0. 0. 0. 0. 0. 0. 0. 0. 0. 0. 0. 0. 0. 0. 0. 0.
      0. 0. 0. 0. 0. 0. 0. 0. 0. 0. 0. 0. 0. 0. 0. 0. 0. 0. 0. 0. 0. 0.
      0. 0. 0. 0. 0. 0. 0. 0. 0. 0. 0. 0. 0. 0. 0. 0. 0. 0. 0. 0. 0. 0.
      0. 0. 0. 0. 0. 0. 0. 0. 0. 0. 0. 0. 0. 0. 0. 0. 0. 0. 0. 0. 0. 0.
      0. 0. 0. 0. 0. 0. 0. 0. 0. 0. 0. 0. 0. 0. 0. 0. 0. 0. 0. 0. 0. 0.
      0. 0. 0. 0. 0. 0. 0. 0. 0. 0. 0. 0. 0. 0. 0. 0. 0. 0. 0. 0. 0. 0.
      0. 0. 0. 0. 0. 0. 0. 0. 0. 0. 0. 0. 0. 0. 0. 0. 0. 0. 0. 0. 0.</_>
    <_>
      0. 0. 0. 0. 0. 0. 0. 255. 255. 255. 255. 255. 255. 255. 255. 255.
      0. 0. 0. 0. 0. 0. 0. 0. 0. 0. 0. 0. 0. 0. 0. 255. 255. 255. 255.
      255. 255. 255. 255. 255. 255. 255. 0. 0. 0. 0. 0. 0. 0. 0. 0. 0.
      0. 0. 0. 0. 255. 255. 255. 255. 255. 255. 255. 255. 255. 255. 255.
      255. 0. 0. 0. 0. 0. 0. 0. 0. 0. 0. 0. 0. 0. 0. 0. 0. 255. 255.
      255. 255. 255. 255. 255. 255. 255. 255. 0. 0. 0. 0. 0. 0. 0. 0. 0.
      0. 0. 0. 0. 0. 0. 0. 255. 255. 255. 255. 255. 255. 255. 255. 255.
      0. 0. 0. 0. 0. 0. 0. 0. 0. 0. 0. 0. 0. 0. 0. 0. 255. 255. 255.
      255. 255. 255. 255. 255. 255. 0. 0. 0. 0. 0. 0. 0. 0. 0. 0. 0. 0.
      0. 0. 0. 0. 0. 255. 255. 255. 255. 255. 255. 255. 255. 0. 0. 0. 0.
      0. 0. 255. 0. 0. 0. 0. 0. 0. 0. 0. 0. 0. 255. 255. 255. 255. 255.
      255. 255. 255. 0. 0. 0. 0. 0. 0. 255. 0. 0. 0. 0. 0. 0. 0. 0. 0.
      255. 255. 255. 255. 255. 255. 255. 255. 255. 0. 0. 0. 0. 0. 0.
      255. 0. 0. 0. 0. 0. 0. 0. 0. 255. 255. 255. 255. 255. 255. 255.
      255. 255. 255. 0. 0. 0. 0. 0. 255. 255. 0. 0. 0. 0. 0. 0. 0. 255.
      255. 255. 255. 255. 255. 255. 255. 255. 255. 255. 0. 0. 0. 0. 0.
      255. 255. 0. 0. 0. 0. 0. 0. 0. 255. 255. 255. 255. 255. 255. 255.
      255. 255. 255. 255. 0. 0. 0. 0. 0. 255. 255. 0. 0. 0. 0. 0. 0. 0.
      255. 255. 255. 255. 255. 255. 255. 255. 255. 255. 255. 0. 0. 0. 0.
      0. 255. 255. 255. 0. 0. 0. 0. 0. 0. 255. 255. 255. 255. 255. 255.
      255. 255. 255. 255. 255. 0. 0. 0. 0. 0. 255. 255. 255. 0. 0. 0. 0.
      0. 0. 255. 255. 255. 255. 255. 255. 255. 255. 255. 255. 255. 0. 0.
      0. 0. 0. 255. 255. 255. 0. 0. 0. 0. 0. 0. 0. 255. 255. 255. 255.
      255. 255. 255. 255. 255. 255. 0. 0. 0. 0. 0. 255. 255. 0. 0. 0. 0.
      0. 0. 0. 0. 0. 0. 255. 255. 255. 255. 255. 255. 255. 255. 255. 0.
      0. 0. 0. 255. 255. 0. 0. 0. 0. 0. 0. 0. 0. 0. 0. 0. 0. 255. 255.
      255. 255. 255. 255. 255. 0. 0. 0. 0. 255. 0. 0. 0. 0. 0. 0. 0. 0.
      0. 0. 0. 0. 0. 255. 255. 255. 255. 255. 255. 255. 0. 0. 0. 0. 255.
      0. 0. 0. 0. 0. 0. 0. 0. 0. 0. 0. 0. 0. 255. 255. 255. 255. 255.
      255. 255. 255. 0. 0. 0. 0. 0. 0. 0. 0. 0. 0. 0. 0. 0. 0. 0. 0. 0.
      255. 255. 255. 255. 255. 255. 255. 0. 0. 0. 0. 0. 0. 0. 0. 0. 0.
      0. 0. 255. 255. 255. 255. 0. 0. 255. 255. 255. 255. 255. 255. 255.
      0. 0. 0. 0. 0. 0. 0. 0. 0. 0. 0. 255. 255. 255. 255. 255. 255.
      255. 255. 255. 255. 255. 255. 255. 255. 0. 0. 0. 0. 0. 0. 0. 0. 0.
      0. 0. 0. 255. 255. 255. 255. 255. 255. 255. 255. 255. 255. 255.
      255. 255. 0. 0. 0. 0. 0. 0. 0. 0. 0. 0. 0. 0. 255. 255. 255. 255.
      255. 255. 255. 255. 255. 255. 255. 255. 255. 0. 0. 0. 0. 0.</_>
    <_>
      0. 0. 0. 0. 0. 0. 0. 0. 0. 255. 255. 255. 255. 255. 0. 0. 0. 0. 0.
      0. 0. 0. 0. 0. 0. 0. 0. 0. 0. 0. 0. 0. 0. 0. 255. 255. 255. 255.
      255. 0. 0. 0. 0. 0. 0. 0. 0. 0. 0. 0. 0. 0. 0. 0. 0. 0. 0. 0. 0.
      0. 255. 255. 255. 255. 0. 0. 0. 0. 0. 0. 0. 0. 0. 0. 0. 0. 0. 0.
      0. 0. 0. 0. 0. 0. 0. 255. 255. 255. 255. 0. 0. 0. 0. 0. 0. 0. 0.
      0. 0. 0. 0. 0. 0. 0. 0. 0. 0. 0. 0. 0. 255. 255. 255. 255. 255. 0.
      0. 0. 0. 0. 0. 0. 0. 0. 0. 0. 0. 0. 0. 0. 0. 0. 0. 0. 0. 255. 255.
      255. 255. 255. 0. 0. 0. 0. 0. 0. 0. 0. 0. 0. 0. 0. 0. 0. 0. 0. 0.
      0. 0. 0. 255. 255. 255. 255. 255. 0. 0. 0. 0. 0. 0. 0. 0. 0. 0. 0.
      0. 0. 0. 0. 0. 0. 0. 0. 0. 255. 255. 255. 255. 255. 0. 0. 0. 0. 0.
      0. 0. 0. 0. 0. 0. 0. 0. 0. 0. 0. 0. 0. 0. 0. 255. 255. 255. 255.
      255. 0. 0. 0. 0. 0. 0. 0. 0. 0. 0. 0. 0. 0. 0. 0. 0. 0. 0. 0. 0.
      255. 255. 255. 255. 255. 0. 0. 0. 0. 0. 0. 0. 0. 0. 0. 0. 0. 0. 0.
      0. 0. 0. 0. 0. 0. 255. 255. 255. 255. 255. 0. 0. 0. 0. 0. 0. 0. 0.
      0. 0. 0. 0. 0. 0. 0. 0. 0. 0. 0. 0. 255. 255. 255. 255. 255. 255.
      0. 0. 0. 0. 0. 0. 0. 0. 0. 0. 0. 0. 0. 0. 0. 0. 0. 0. 0. 255. 255.
      255. 255. 255. 255. 0. 0. 0. 0. 0. 0. 0. 0. 0. 0. 0. 0. 0. 0. 0.
      0. 0. 0. 0. 255. 255. 255. 255. 255. 255. 0. 0. 0. 0. 0. 0. 0. 0.
      0. 0. 0. 0. 0. 0. 0. 0. 0. 0. 0. 255. 255. 255. 255. 255. 255. 0.
      0. 0. 0. 0. 0. 0. 0. 0. 0. 0. 0. 0. 0. 0. 0. 0. 0. 0. 255. 255.
      255. 255. 255. 255. 0. 0. 0. 0. 0. 0. 0. 0. 0. 0. 0. 0. 0. 0. 0.
      0. 0. 0. 0. 255. 255. 255. 255. 255. 255. 0. 0. 0. 0. 0. 0. 0. 0.
      0. 0. 0. 0. 0. 0. 0. 0. 0. 0. 0. 255. 255. 255. 255. 255. 255. 0.
      0. 0. 0. 0. 0. 0. 0. 0. 0. 0. 0. 0. 0. 0. 0. 0. 0. 0. 0. 255. 255.
      255. 255. 255. 0. 0. 0. 0. 0. 0. 255. 255. 255. 0. 0. 0. 0. 0. 0.
      0. 0. 0. 0. 0. 255. 255. 255. 255. 255. 0. 0. 0. 0. 255. 255. 255.
      255. 255. 0. 0. 0. 0. 0. 0. 0. 0. 0. 0. 255. 255. 255. 255. 255.
      0. 0. 0. 255. 255. 255. 255. 255. 255. 255. 0. 0. 0. 0. 0. 0. 0.
      0. 255. 255. 255. 255. 255. 255. 0. 0. 0. 255. 255. 255. 255. 255.
      255. 255. 255. 0. 0. 0. 0. 0. 0. 255. 255. 255. 255. 255. 255.
      255. 0. 0. 0. 255. 255. 255. 255. 255. 255. 255. 255. 255. 0. 0.
      0. 0. 0. 255. 255. 255. 255. 255. 255. 255. 255. 0. 0. 0. 255.
      255. 255. 255. 255. 255. 255. 255. 255. 0. 0. 0. 0. 255. 255. 255.
      255. 255. 255. 255. 255. 255. 0. 0. 0. 255. 255. 255. 255. 255.
      255. 255. 255. 255.</_>
    <_>
      0. 0. 0. 0. 0. 0. 0. 0. 0. 0. 0. 0. 0. 0. 0. 0. 0. 0. 0. 0. 0. 0.
      0. 0. 0. 0. 0. 0. 0. 0. 0. 0. 0. 0. 0. 0. 0. 0. 0. 0. 0. 0. 0. 0.
      0. 0. 0. 0. 0. 0. 0. 0. 0. 0. 0. 0. 0. 0. 0. 0. 0. 0. 0. 0. 0. 0.
      0. 0. 0. 0. 0. 0. 0. 0. 0. 0. 0. 0. 0. 0. 0. 0. 0. 0. 0. 0. 0. 0.
      0. 0. 0. 0. 0. 0. 0. 0. 0. 0. 0. 0. 0. 0. 0. 0. 0. 0. 0. 0. 0. 0.
      0. 0. 0. 0. 0. 0. 0. 0. 0. 0. 0. 0. 0. 0. 0. 0. 0. 0. 0. 0. 0. 0.
      0. 0. 0. 0. 0. 0. 0. 0. 0. 0. 0. 0. 0. 0. 0. 0. 0. 0. 0. 0. 0. 0.
      0. 0. 0. 0. 0. 0. 0. 0. 0. 0. 0. 0. 0. 0. 0. 0. 0. 0. 0. 0. 0. 0.
      0. 0. 0. 0. 0. 0. 0. 0. 0. 0. 0. 0. 0. 0. 0. 0. 0. 0. 0. 0. 0. 0.
      0. 0. 0. 0. 0. 0. 0. 0. 0. 0. 0. 0. 0. 0. 0. 0. 0. 0. 0. 0. 0. 0.
      0. 0. 0. 0. 0. 0. 0. 0. 0. 0. 0. 0. 0. 0. 0. 0. 0. 0. 0. 0. 0. 0.
      0. 0. 0. 0. 0. 0. 0. 0. 0. 0. 0. 0. 0. 0. 0. 0. 0. 0. 0. 0. 0. 0.
      0. 0. 0. 0. 0. 0. 0. 0. 0. 0. 0. 0. 0. 0. 0. 0. 0. 0. 0. 0. 0. 0.
      0. 0. 0. 0. 0. 0. 0. 0. 0. 0. 0. 0. 0. 0. 0. 0. 0. 0. 0. 0. 0. 0.
      0. 0. 0. 0. 0. 0. 0. 0. 0. 0. 0. 0. 0. 0. 0. 0. 0. 0. 0. 0. 0. 0.
      0. 0. 0. 0. 0. 0. 0. 0. 0. 0. 0. 0. 0. 0. 0. 0. 0. 0. 0. 0. 0. 0.
      0. 0. 0. 0. 0. 0. 0. 0. 0. 0. 0. 0. 0. 0. 0. 0. 0. 0. 0. 0. 0. 0.
      0. 0. 0. 0. 0. 0. 0. 0. 0. 0. 0. 0. 0. 0. 0. 0. 0. 0. 0. 0. 0. 0.
      0. 0. 0. 0. 0. 0. 0. 0. 0. 0. 0. 0. 0. 0. 0. 0. 0. 0. 0. 0. 0. 0.
      0. 0. 0. 0. 0. 0. 0. 0. 0. 0. 0. 0. 0. 0. 0. 0. 0. 0. 0. 0. 0. 0.
      0. 0. 0. 0. 0. 0. 0. 0. 0. 0. 0. 0. 0. 0. 0. 0. 0. 0. 0. 0. 0. 0.
      0. 0. 0. 0. 0. 0. 0. 0. 0. 0. 0. 0. 0. 0. 0. 0. 0. 0. 0. 0. 0. 0.
      0. 0. 0. 0. 0. 0. 0. 0. 0. 0. 0. 0. 0. 0. 0. 0. 255. 255. 0. 0. 0.
      0. 0. 0. 0. 0. 0. 0. 0. 0. 0. 0. 0. 0. 0. 0. 0. 0. 0. 0. 0. 255.
      255. 255. 255. 255. 255. 255. 255. 255. 0. 0. 0. 0. 0. 0. 0. 0. 0.
      0. 0. 0. 0. 0. 0. 0. 255. 255. 255. 255. 255. 255. 255. 255. 255.
      255. 255. 255. 255. 255. 255. 0. 0. 0. 0. 0. 0. 0. 0. 0. 0. 255.
      255. 255. 255. 255. 255. 255. 255. 255. 255. 255. 255. 255. 255.
      255. 255. 255. 255. 255. 255. 255. 255. 0. 0. 0. 255. 255. 255.
      255. 255. 255. 255. 255. 255. 255. 255. 255. 255. 255. 255. 255.
      255. 255. 255. 255. 255. 255. 255. 255. 255.</_>
    <_>
      0. 0. 0. 0. 0. 0. 0. 0. 0. 0. 0. 0. 0. 0. 0. 0. 0. 0. 0. 0. 255.
      255. 255. 255. 255. 0. 0. 0. 0. 0. 0. 0. 0. 0. 0. 0. 0. 0. 0. 0.
      0. 0. 0. 0. 0. 255. 255. 255. 255. 255. 0. 0. 0. 0. 0. 0. 0. 0. 0.
      0. 0. 0. 0. 0. 0. 0. 0. 0. 0. 0. 255. 255. 255. 255. 255. 0. 0. 0.
      0. 0. 0. 0. 0. 0. 0. 0. 0. 0. 0. 0. 0. 0. 0. 0. 255. 255. 255.
      255. 255. 255. 0. 0. 0. 0. 0. 0. 0. 0. 0. 0. 0. 0. 0. 0. 0. 0. 0.
      0. 0. 255. 255. 255. 255. 255. 255. 255. 255. 255. 255. 255. 0. 0.
      0. 0. 0. 0. 0. 0. 0. 0. 0. 0. 0. 255. 255. 255. 255. 255. 255.
      255. 255. 255. 255. 255. 255. 255. 255. 255. 255. 255. 255. 255.
      0. 0. 0. 0. 0. 0. 255. 255. 255. 255. 255. 255. 255. 255. 255.
      255. 255. 255. 255. 255. 255. 255. 255. 255. 255. 255. 255. 0. 0.
      0. 255. 255. 255. 255. 255. 255. 255. 255. 255. 255. 255. 255.
      255. 255. 255. 255. 255. 255. 255. 255. 255. 255. 255. 255. 255.
      255. 255. 0. 0. 255. 255. 255. 255. 255. 255. 255. 255. 255. 255.
      255. 255. 255. 255. 255. 255. 255. 255. 255. 255. 255. 255. 255.
      255. 0. 0. 0. 0. 0. 255. 255. 255. 255. 255. 255. 255. 255. 255.
      255. 255. 255. 255. 255. 255. 255. 255. 255. 255. 255. 0. 0. 0. 0.
      0. 255. 255. 255. 255. 255. 255. 255. 255. 255. 255. 255. 255.
      255. 255. 255. 255. 255. 255. 255. 255. 0. 0. 0. 0. 0. 255. 255.
      255. 255. 255. 255. 255. 255. 255. 255. 255. 255. 255. 255. 255.
      255. 255. 255. 255. 255. 0. 0. 0. 0. 0. 255. 255. 255. 255. 255.
      255. 255. 255. 255. 255. 255. 255. 255. 255. 255. 255. 255. 255.
      255. 0. 0. 0. 0. 0. 0. 255. 255. 255. 255. 255. 255. 255. 255.
      255. 255. 255. 255. 255. 255. 255. 255. 255. 255. 0. 0. 0. 0. 0.
      0. 0. 255. 255. 255. 255. 255. 255. 255. 255. 255. 255. 255. 255.
      255. 255. 255. 255. 255. 255. 255. 0. 0. 0. 0. 0. 0. 255. 255.
      255. 255. 255. 255. 255. 255. 255. 255. 255. 255. 255. 255. 255.
      255. 255. 255. 255. 0. 0. 0. 0. 0. 255. 255. 255. 255. 255. 255.
      255. 255. 255. 255. 255. 255. 255. 255. 255. 255. 255. 255. 255.
      255. 0. 0. 0. 0. 0. 255. 255. 255. 255. 255. 255. 255. 255. 255.
      255. 255. 255. 255. 255. 255. 255. 255. 255. 255. 0. 0. 0. 0. 0.
      0. 255. 255. 255. 255. 255. 255. 255. 255. 255. 255. 255. 255.
      255. 255. 255. 255. 255. 255. 255. 0. 0. 0. 0. 0. 0. 0. 255. 255.
      255. 255. 255. 255. 255. 255. 255. 255. 255. 255. 255. 255. 255.
      255. 255. 0. 0. 0. 0. 0. 0. 0. 0. 255. 255. 255. 255. 255. 255.
      255. 255. 255. 255. 255. 255. 255. 255. 255. 255. 255. 0. 0. 0. 0.
      0. 0. 0. 0. 255. 255. 0. 0. 0. 0. 0. 255. 255. 255. 255. 255. 255.
      255. 255. 255. 255. 0. 0. 0. 0. 0. 0. 0. 0. 0. 0. 0. 0. 0. 0. 0.
      0. 0. 255. 255. 255. 255. 255. 255. 255. 255. 0. 0. 0. 0. 0. 0. 0.
      0. 0. 0. 0. 0. 0. 0. 0. 0. 0. 0. 0. 255. 255. 255. 255. 255. 0. 0.
      0. 0. 0. 0. 0. 0. 0.</_>
    <_>
      0. 0. 0. 0. 0. 0. 0. 0. 0. 0. 0. 0. 0. 0. 0. 0. 0. 0. 0. 0. 0. 0.
      0. 0. 0. 0. 0. 0. 0. 0. 0. 0. 0. 0. 0. 0. 0. 0. 0. 0. 0. 0. 0. 0.
      0. 0. 0. 0. 0. 0. 0. 0. 0. 0. 0. 0. 0. 0. 0. 0. 0. 0. 0. 0. 0. 0.
      0. 0. 0. 0. 0. 0. 0. 0. 0. 0. 0. 0. 0. 0. 0. 0. 0. 0. 0. 0. 0. 0.
      0. 0. 0. 0. 0. 0. 0. 0. 0. 0. 0. 0. 0. 0. 0. 0. 0. 0. 0. 0. 0. 0.
      0. 0. 0. 0. 0. 0. 0. 0. 0. 0. 0. 0. 0. 0. 0. 0. 0. 0. 0. 0. 0. 0.
      0. 0. 0. 0. 0. 0. 0. 0. 0. 0. 0. 0. 0. 0. 0. 0. 0. 0. 0. 0. 0. 0.
      0. 0. 0. 0. 0. 0. 0. 0. 0. 0. 0. 0. 0. 0. 0. 0. 0. 0. 0. 0. 0. 0.
      0. 0. 0. 0. 0. 0. 0. 0. 0. 0. 0. 0. 0. 0. 0. 0. 0. 0. 0. 0. 0. 0.
      0. 0. 0. 0. 0. 0. 0. 0. 0. 0. 0. 255. 255. 0. 0. 0. 0. 0. 0. 0. 0.
      0. 0. 0. 0. 0. 0. 0. 0. 0. 0. 0. 0. 0. 255. 255. 255. 255. 0. 0.
      0. 0. 0. 0. 0. 0. 0. 0. 0. 0. 0. 0. 0. 0. 0. 0. 0. 255. 255. 255.
      255. 255. 255. 0. 0. 0. 0. 0. 0. 0. 0. 0. 0. 0. 0. 0. 0. 0. 0. 0.
      0. 255. 255. 255. 255. 255. 255. 255. 0. 0. 0. 0. 0. 0. 0. 0. 0.
      0. 0. 0. 0. 0. 0. 0. 0. 0. 255. 255. 255. 255. 255. 255. 255. 0.
      0. 0. 0. 0. 0. 0. 0. 0. 0. 0. 0. 0. 0. 0. 0. 0. 0. 255. 255. 255.
      255. 255. 255. 255. 0. 0. 0. 0. 0. 0. 0. 0. 0. 0. 0. 0. 0. 0. 0.
      0. 0. 0. 255. 255. 255. 255. 255. 255. 255. 0. 0. 0. 0. 0. 0. 0.
      255. 255. 0. 0. 0. 0. 0. 0. 0. 0. 0. 255. 255. 255. 255. 255. 255.
      255. 0. 0. 0. 0. 0. 0. 255. 255. 255. 0. 0. 0. 0. 0. 0. 0. 0. 255.
      255. 255. 255. 255. 255. 255. 255. 0. 0. 0. 0. 0. 0. 255. 255.
      255. 255. 0. 255. 255. 255. 0. 0. 0. 255. 255. 255. 255. 255. 255.
      255. 255. 255. 255. 0. 0. 0. 255. 255. 255. 255. 255. 255. 255.
      255. 255. 0. 0. 0. 255. 255. 255. 255. 255. 255. 255. 255. 255.
      255. 0. 0. 0. 255. 255. 255. 255. 255. 255. 255. 255. 255. 0. 0.
      0. 255. 255. 255. 255. 255. 255. 255. 255. 255. 255. 0. 0. 0. 255.
      255. 255. 255. 255. 255. 255. 255. 255. 0. 0. 0. 255. 255. 255.
      255. 255. 255. 255. 255. 255. 255. 0. 0. 0. 255. 255. 255. 255.
      255. 255. 255. 255. 255. 0. 0. 0. 255. 255. 255. 255. 255. 255.
      255. 255. 255. 255. 0. 0. 0. 255. 255. 255. 255. 255. 255. 255.
      255. 255. 0. 0. 255. 255. 255. 255. 255. 255. 255. 255. 255. 255.
      255. 0. 0. 255. 255. 255. 255. 255. 255. 255. 255. 255. 255. 0. 0.
      255. 255. 255. 255. 255. 255. 255. 255. 255. 255. 255. 0. 0. 255.
      255. 255. 255. 255. 255. 255. 255. 255. 255. 0. 255. 255. 255.
      255. 255. 255. 255. 255. 255. 255. 255. 255. 255. 0. 255. 255.
      255. 255. 255. 255. 255. 255. 255. 255.</_>
    <_>
      0. 0. 0. 0. 0. 0. 0. 0. 0. 0. 0. 0. 0. 0. 0. 0. 0. 0. 0. 0. 0. 0.
      0. 0. 0. 0. 0. 0. 0. 0. 0. 0. 0. 0. 0. 0. 0. 0. 0. 0. 0. 0. 0. 0.
      0. 0. 0. 0. 0. 0. 0. 0. 0. 0. 0. 0. 0. 0. 0. 0. 0. 0. 0. 0. 0. 0.
      0. 0. 0. 0. 0. 0. 0. 0. 0. 0. 0. 0. 0. 0. 0. 0. 0. 0. 0. 0. 0. 0.
      0. 0. 0. 0. 0. 0. 0. 0. 0. 0. 0. 0. 0. 0. 0. 0. 0. 0. 0. 0. 0. 0.
      0. 0. 0. 0. 0. 0. 0. 0. 0. 0. 0. 0. 0. 0. 0. 0. 0. 0. 0. 0. 0. 0.
      0. 0. 0. 0. 0. 0. 0. 0. 0. 0. 0. 0. 0. 0. 0. 0. 0. 0. 0. 0. 0. 0.
      0. 0. 0. 0. 0. 0. 0. 0. 0. 0. 0. 0. 0. 0. 0. 0. 0. 0. 0. 0. 0. 0.
      0. 0. 0. 0. 0. 0. 0. 0. 0. 0. 0. 0. 0. 0. 0. 0. 0. 0. 0. 0. 0. 0.
      0. 0. 0. 0. 0. 0. 0. 0. 0. 0. 0. 0. 0. 0. 0. 0. 0. 0. 0. 0. 0. 0.
      0. 0. 0. 0. 0. 0. 0. 0. 0. 0. 0. 0. 0. 0. 0. 0. 0. 0. 0. 0. 0. 0.
      0. 0. 0. 0. 0. 0. 0. 0. 0. 0. 0. 0. 0. 0. 0. 0. 0. 0. 0. 0. 0. 0.
      0. 0. 0. 0. 0. 0. 0. 0. 0. 0. 0. 0. 0. 0. 0. 0. 255. 255. 0. 0. 0.
      0. 0. 0. 0. 0. 0. 0. 0. 0. 0. 0. 0. 0. 0. 0. 0. 0. 0. 0. 255. 255.
      255. 255. 255. 255. 0. 0. 0. 0. 0. 0. 0. 0. 0. 0. 0. 0. 0. 0. 0.
      0. 0. 0. 0. 255. 255. 255. 255. 255. 255. 255. 255. 0. 0. 0. 0. 0.
      0. 0. 0. 0. 0. 0. 0. 0. 0. 0. 0. 0. 255. 255. 255. 255. 255. 255.
      255. 255. 255. 255. 0. 0. 0. 0. 0. 0. 0. 0. 0. 0. 0. 0. 0. 0. 0.
      255. 255. 255. 255. 255. 255. 255. 255. 255. 255. 255. 0. 0. 0. 0.
      0. 0. 0. 0. 0. 0. 0. 0. 0. 0. 0. 255. 255. 255. 255. 255. 255.
      255. 255. 255. 255. 255. 0. 0. 0. 0. 0. 0. 0. 0. 0. 0. 0. 0. 0. 0.
      255. 255. 255. 255. 255. 255. 255. 255. 255. 255. 255. 255. 0. 0.
      0. 0. 0. 0. 0. 0. 0. 0. 0. 0. 0. 255. 255. 255. 255. 255. 255.
      255. 255. 255. 255. 255. 255. 255. 0. 0. 0. 0. 0. 0. 0. 255. 0. 0.
      0. 0. 0. 255. 255. 255. 255. 255. 255. 255. 255. 255. 255. 255.
      255. 255. 0. 0. 0. 0. 0. 0. 255. 255. 0. 0. 0. 0. 0. 255. 255.
      255. 255. 255. 255. 255. 255. 255. 255. 255. 255. 0. 0. 0. 0. 0.
      0. 255. 255. 255. 0. 0. 0. 0. 0. 0. 255. 255. 255. 255. 255. 255.
      255. 255. 255. 0. 0. 0. 0. 0. 0. 0. 255. 255. 255. 255. 0. 0. 0.
      0. 0. 0. 0. 255. 255. 255. 255. 255. 255. 255. 0. 0. 0. 0. 0. 0.
      0. 255. 255. 255. 255. 255. 0. 0. 0. 0. 0. 0. 0. 0. 255. 255. 255.
      255. 0. 0. 0. 0. 0. 0. 0. 0. 255. 255. 255. 255. 255. 0. 0. 0. 0.
      0. 0. 0. 0. 0. 0. 0. 0. 0. 0. 0. 0. 0. 0. 0. 0.</_>
    <_>
      255. 255. 255. 255. 255. 255. 255. 255. 255. 255. 255. 255. 255.
      255. 0. 0. 0. 0. 0. 0. 0. 0. 0. 0. 0. 255. 255. 255. 255. 255.
      255. 255. 255. 255. 255. 255. 255. 255. 255. 0. 0. 0. 0. 0. 0. 0.
      0. 0. 0. 0. 255. 255. 255. 255. 255. 255. 255. 255. 255. 255. 255.
      255. 255. 255. 0. 0. 0. 0. 0. 0. 0. 0. 0. 0. 0. 255. 255. 255.
      255. 255. 255. 255. 255. 255. 255. 255. 255. 255. 255. 0. 0. 0. 0.
      0. 0. 0. 0. 0. 0. 0. 255. 255. 255. 255. 255. 255. 255. 255. 255.
      255. 255. 255. 255. 255. 255. 0. 0. 0. 0. 0. 0. 0. 0. 0. 0. 255.
      255. 255. 255. 255. 255. 255. 255. 255. 255. 255. 255. 255. 255.
      0. 0. 0. 0. 0. 0. 0. 0. 0. 0. 0. 255. 255. 255. 255. 255. 255.
      255. 255. 255. 255. 255. 255. 255. 255. 0. 0. 0. 0. 0. 0. 0. 0. 0.
      0. 0. 255. 255. 255. 255. 255. 255. 255. 255. 255. 255. 255. 255.
      255. 255. 0. 0. 0. 0. 0. 0. 0. 0. 0. 0. 0. 255. 255. 255. 255.
      255. 255. 255. 255. 255. 255. 255. 255. 255. 255. 0. 0. 0. 0. 0.
      0. 0. 0. 0. 0. 0. 255. 255. 255. 255. 255. 255. 255. 255. 255.
      255. 255. 255. 255. 255. 0. 0. 0. 0. 0. 0. 0. 0. 0. 0. 0. 255.
      255. 255. 255. 255. 255. 255. 255. 255. 255. 255. 255. 255. 255.
      255. 0. 0. 0. 0. 0. 0. 0. 0. 0. 0. 255. 255. 255. 255. 255. 255.
      255. 255. 255. 255. 255. 255. 255. 255. 255. 0. 0. 0. 0. 0. 0. 0.
      0. 0. 0. 255. 255. 255. 255. 255. 255. 255. 255. 255. 255. 255.
      255. 255. 255. 255. 255. 0. 0. 0. 0. 0. 0. 0. 0. 0. 255. 255. 255.
      255. 255. 255. 255. 255. 255. 255. 255. 255. 255. 255. 255. 255.
      255. 0. 0. 0. 0. 0. 0. 0. 0. 255. 255. 255. 255. 255. 255. 255.
      255. 255. 255. 255. 255. 255. 255. 255. 255. 255. 0. 0. 0. 0. 0.
      0. 0. 0. 255. 255. 255. 255. 255. 255. 255. 255. 255. 255. 255.
      255. 255. 255. 255. 255. 255. 255. 0. 0. 0. 0. 0. 0. 0. 255. 255.
      255. 255. 255. 255. 255. 255. 255. 255. 255. 255. 255. 255. 255.
      255. 255. 255. 255. 0. 0. 0. 0. 0. 0. 255. 255. 255. 255. 255.
      255. 255. 255. 255. 255. 255. 255. 255. 255. 255. 255. 255. 255.
      255. 255. 0. 0. 0. 0. 0. 255. 255. 255. 255. 255. 255. 255. 255.
      255. 255. 255. 255. 255. 255. 255. 255. 255. 255. 255. 255. 0. 0.
      0. 0. 0. 255. 255. 255. 255. 255. 255. 255. 255. 255. 255. 255.
      255. 255. 255. 255. 255. 255. 255. 255. 255. 0. 0. 0. 0. 0. 255.
      255. 255. 255. 255. 255. 255. 255. 255. 255. 255. 255. 255. 255.
      255. 255. 255. 255. 255. 0. 0. 0. 0. 0. 0. 0. 0. 0. 0. 255. 255.
      255. 255. 255. 255. 255. 255. 255. 255. 255. 255. 255. 255. 255.
      0. 0. 0. 0. 0. 0. 0. 0. 0. 0. 0. 0. 0. 255. 255. 255. 255. 255.
      255. 255. 255. 255. 255. 255. 255. 0. 0. 0. 0. 0. 0. 0. 0. 0. 0.
      0. 0. 0. 0. 0. 255. 255. 255. 255. 255. 255. 255. 255. 255. 0. 0.
      0. 0. 0. 0. 0. 0. 0. 0. 0. 0. 0. 0. 0. 0. 0. 0. 255. 255. 255.
      255. 255. 255. 255. 0. 0. 0. 0. 0. 0. 0.</_>
    <_>
      0. 0. 0. 0. 0. 0. 0. 0. 0. 0. 0. 0. 0. 0. 255. 255. 0. 0. 0. 0. 0.
      0. 0. 0. 0. 0. 0. 0. 0. 0. 0. 0. 0. 0. 0. 0. 0. 0. 0. 255. 255. 0.
      0. 0. 0. 0. 0. 0. 0. 0. 0. 0. 0. 0. 0. 0. 0. 0. 0. 0. 0. 0. 0.
      255. 255. 255. 255. 0. 0. 0. 0. 0. 0. 0. 0. 0. 0. 0. 0. 0. 0. 0.
      0. 0. 0. 0. 0. 0. 255. 255. 255. 255. 0. 0. 0. 0. 0. 0. 0. 0. 0.
      0. 0. 0. 0. 0. 0. 0. 0. 0. 0. 0. 0. 255. 255. 255. 255. 255. 255.
      0. 0. 0. 0. 255. 255. 0. 0. 0. 0. 0. 0. 0. 0. 0. 0. 0. 0. 0. 255.
      255. 255. 255. 255. 255. 255. 255. 255. 255. 255. 255. 0. 0. 0. 0.
      0. 0. 0. 0. 0. 0. 0. 0. 0. 255. 255. 255. 255. 255. 255. 255. 255.
      255. 255. 255. 255. 0. 0. 0. 0. 0. 0. 0. 0. 0. 0. 0. 0. 255. 255.
      255. 255. 255. 255. 255. 255. 255. 255. 255. 255. 255. 0. 0. 0. 0.
      0. 0. 0. 0. 0. 0. 0. 0. 255. 255. 255. 255. 255. 255. 255. 255.
      255. 255. 255. 255. 255. 0. 0. 0. 0. 0. 0. 0. 0. 0. 0. 0. 0. 255.
      255. 255. 255. 255. 255. 255. 255. 255. 255. 255. 255. 255. 0. 0.
      0. 0. 0. 0. 0. 0. 0. 0. 0. 0. 255. 255. 255. 255. 255. 255. 255.
      255. 255. 255. 255. 255. 255. 0. 0. 0. 0. 0. 0. 0. 0. 0. 0. 0. 0.
      255. 255. 255. 255. 255. 255. 255. 255. 255. 255. 255. 255. 255.
      0. 0. 0. 0. 0. 0. 0. 0. 0. 0. 0. 0. 255. 255. 255. 255. 255. 255.
      255. 255. 255. 255. 255. 255. 255. 0. 0. 0. 0. 0. 0. 0. 0. 0. 0.
      0. 0. 255. 255. 255. 255. 255. 255. 255. 255. 255. 255. 255. 255.
      255. 0. 0. 0. 0. 0. 0. 0. 0. 0. 0. 0. 0. 0. 255. 255. 255. 255.
      255. 255. 255. 255. 255. 255. 255. 255. 0. 0. 0. 0. 0. 0. 0. 0. 0.
      0. 0. 0. 0. 0. 255. 255. 255. 255. 255. 255. 255. 255. 255. 255.
      255. 0. 0. 0. 0. 0. 0. 0. 0. 0. 0. 0. 0. 0. 0. 0. 255. 255. 255.
      255. 255. 255. 255. 255. 255. 255. 0. 0. 0. 0. 0. 0. 0. 0. 0. 0.
      0. 0. 0. 0. 0. 0. 255. 255. 255. 255. 255. 255. 255. 255. 255. 0.
      0. 0. 0. 0. 0. 0. 0. 0. 0. 0. 0. 0. 0. 0. 0. 0. 255. 255. 255.
      255. 255. 255. 255. 255. 0. 0. 0. 0. 0. 0. 0. 0. 0. 0. 0. 0. 0. 0.
      0. 0. 0. 0. 0. 0. 255. 255. 255. 255. 255. 0. 0. 0. 0. 0. 0. 0. 0.
      0. 0. 0. 0. 0. 0. 0. 0. 0. 0. 0. 0. 255. 255. 255. 255. 255. 0. 0.
      0. 0. 0. 0. 0. 0. 0. 0. 0. 0. 0. 0. 0. 0. 0. 0. 0. 255. 255. 255.
      255. 255. 255. 0. 0. 0. 0. 0. 0. 0. 0. 0. 0. 0. 0. 0. 0. 0. 0. 0.
      0. 255. 255. 255. 255. 255. 255. 255. 0. 0. 0. 0. 0. 0. 0. 0. 0.
      0. 0. 0. 0. 0. 0. 0. 0. 255. 255. 255. 255. 255. 255. 255. 255. 0.
      0. 0. 0. 0. 0. 0. 0. 0. 0. 0. 0. 0. 0. 0. 255. 255. 255. 255. 255.
      255. 255. 255. 255. 255.</_>
    <_>
      255. 255. 255. 255. 255. 255. 255. 255. 255. 0. 0. 0. 0. 0. 0. 0.
      0. 0. 0. 0. 0. 0. 0. 0. 0. 255. 255. 255. 255. 255. 0. 0. 0. 0. 0.
      0. 0. 0. 0. 0. 0. 0. 0. 0. 0. 0. 0. 0. 0. 0. 255. 255. 255. 0. 0.
      0. 0. 0. 0. 0. 0. 0. 0. 0. 0. 0. 0. 0. 0. 0. 0. 0. 0. 0. 0. 0. 0.
      0. 0. 0. 0. 0. 0. 0. 0. 0. 0. 0. 0. 0. 0. 0. 0. 0. 0. 0. 0. 0. 0.
      0. 0. 0. 0. 0. 0. 0. 0. 0. 0. 0. 0. 0. 0. 0. 0. 0. 0. 0. 0. 0. 0.
      0. 0. 0. 0. 0. 0. 0. 0. 0. 0. 0. 0. 0. 0. 0. 0. 0. 0. 0. 0. 0. 0.
      0. 0. 0. 0. 0. 0. 0. 0. 0. 0. 0. 0. 0. 0. 0. 0. 0. 0. 0. 0. 0. 0.
      0. 0. 0. 0. 0. 0. 0. 0. 0. 0. 0. 0. 0. 0. 0. 0. 0. 0. 0. 0. 255.
      255. 255. 255. 255. 0. 0. 0. 0. 0. 0. 0. 0. 0. 0. 0. 0. 0. 0. 0.
      0. 0. 0. 0. 255. 255. 255. 255. 255. 255. 0. 0. 0. 0. 0. 0. 0. 0.
      0. 0. 0. 0. 0. 0. 0. 0. 255. 255. 255. 255. 255. 255. 255. 255.
      255. 0. 0. 0. 0. 0. 0. 0. 0. 0. 0. 0. 0. 0. 0. 255. 255. 255. 255.
      255. 255. 255. 255. 255. 255. 255. 0. 0. 0. 0. 0. 0. 0. 0. 0. 0.
      0. 0. 0. 0. 255. 255. 255. 255. 255. 255. 255. 255. 255. 255. 255.
      0. 0. 0. 0. 0. 0. 0. 0. 0. 0. 0. 0. 0. 0. 0. 0. 0. 0. 0. 255. 255.
      255. 255. 255. 0. 0. 0. 0. 0. 0. 0. 0. 0. 0. 0. 0. 0. 0. 0. 0. 0.
      0. 0. 0. 255. 255. 255. 255. 255. 0. 0. 0. 0. 0. 0. 0. 0. 0. 0. 0.
      0. 0. 0. 0. 0. 0. 0. 0. 0. 255. 255. 255. 255. 255. 0. 0. 0. 0. 0.
      0. 0. 0. 0. 0. 0. 0. 0. 0. 0. 0. 0. 0. 0. 255. 255. 255. 255. 255.
      255. 0. 0. 0. 0. 0. 0. 0. 0. 0. 0. 0. 0. 0. 0. 0. 0. 0. 0. 0. 255.
      255. 255. 255. 255. 255. 0. 0. 0. 0. 0. 0. 0. 0. 0. 0. 0. 0. 0. 0.
      0. 0. 0. 0. 0. 255. 255. 255. 255. 255. 255. 0. 0. 0. 0. 0. 0. 0.
      0. 0. 0. 0. 0. 0. 0. 0. 0. 0. 0. 0. 255. 255. 255. 255. 255. 255.
      0. 0. 0. 0. 0. 0. 0. 0. 0. 0. 0. 0. 0. 0. 0. 0. 0. 0. 0. 255. 255.
      255. 255. 255. 255. 0. 0. 0. 0. 0. 0. 0. 0. 0. 0. 0. 0. 0. 0. 0.
      0. 0. 0. 0. 255. 255. 255. 255. 255. 255. 0. 0. 0. 0. 0. 0. 0. 0.
      0. 0. 0. 0. 0. 0. 0. 0. 0. 0. 0. 0. 0. 255. 255. 255. 0. 0. 0. 0.
      0. 0. 0. 0. 0. 0. 0. 0. 0. 0. 0. 0. 0. 0. 0. 0. 0. 0. 0. 0. 0. 0.
      0. 0. 0. 0. 0. 0. 0. 0. 0. 0. 0. 0. 0. 0. 0. 0. 0. 0. 0. 0. 0. 0.
      0. 0. 0. 0. 0. 0. 0. 0. 0. 0. 0. 0. 0. 0. 0. 0. 0. 0. 0. 0. 0. 0.
      0. 0. 0. 0. 0. 0. 0. 0. 0. 0. 0. 0. 0. 0. 0. 0. 0.</_>
    <_>
      0. 0. 0. 0. 0. 0. 0. 0. 0. 255. 255. 255. 255. 255. 255. 255. 255.
      255. 255. 255. 255. 255. 255. 255. 255. 0. 0. 0. 0. 0. 0. 0. 0. 0.
      0. 0. 0. 0. 0. 0. 255. 255. 255. 255. 255. 255. 255. 255. 255.
      255. 0. 0. 0. 0. 0. 0. 0. 0. 0. 0. 0. 0. 0. 0. 0. 0. 0. 0. 0. 0.
      255. 255. 255. 255. 255. 0. 0. 0. 0. 0. 0. 0. 0. 0. 0. 0. 0. 0. 0.
      0. 0. 0. 0. 0. 0. 0. 0. 0. 0. 0. 0. 0. 0. 0. 0. 0. 0. 0. 0. 0. 0.
      0. 0. 0. 0. 0. 0. 0. 0. 0. 0. 0. 0. 0. 0. 0. 0. 0. 0. 0. 0. 0. 0.
      0. 0. 0. 0. 0. 0. 0. 0. 0. 0. 0. 0. 0. 0. 0. 0. 0. 0. 0. 0. 0. 0.
      0. 0. 0. 0. 0. 0. 0. 0. 0. 0. 0. 0. 0. 0. 0. 0. 0. 0. 0. 0. 0. 0.
      0. 0. 0. 0. 0. 0. 0. 0. 0. 255. 255. 255. 255. 255. 0. 0. 0. 0. 0.
      0. 0. 0. 0. 0. 0. 0. 0. 0. 0. 0. 0. 0. 0. 255. 255. 255. 255. 255.
      255. 255. 255. 0. 0. 0. 0. 0. 0. 0. 0. 0. 0. 0. 0. 0. 0. 0. 0.
      255. 255. 255. 255. 255. 255. 255. 255. 255. 0. 0. 0. 0. 0. 0. 0.
      0. 0. 0. 0. 0. 0. 0. 255. 255. 255. 255. 255. 255. 255. 255. 255.
      255. 255. 255. 0. 0. 0. 0. 0. 0. 0. 0. 0. 0. 0. 0. 255. 255. 255.
      255. 255. 255. 255. 255. 255. 255. 255. 255. 255. 0. 0. 0. 0. 0.
      0. 0. 0. 0. 0. 255. 255. 255. 255. 255. 255. 255. 0. 0. 0. 0. 255.
      255. 255. 255. 0. 0. 0. 0. 0. 0. 0. 0. 0. 255. 255. 255. 255. 255.
      255. 255. 255. 0. 0. 0. 0. 255. 255. 255. 255. 255. 0. 0. 0. 0. 0.
      0. 0. 255. 255. 255. 255. 255. 255. 255. 255. 255. 255. 255. 255.
      255. 255. 255. 255. 255. 255. 255. 0. 0. 0. 0. 0. 0. 255. 255.
      255. 255. 255. 255. 255. 255. 255. 255. 255. 255. 255. 255. 255.
      255. 255. 255. 255. 255. 255. 0. 0. 0. 0. 0. 0. 255. 255. 255.
      255. 255. 255. 0. 0. 255. 255. 255. 255. 255. 255. 255. 255. 255.
      255. 255. 255. 0. 0. 0. 0. 0. 0. 0. 0. 0. 0. 0. 0. 0. 0. 0. 0.
      255. 255. 255. 255. 255. 255. 255. 0. 0. 0. 0. 0. 0. 0. 0. 0. 0.
      0. 0. 0. 0. 0. 0. 0. 0. 0. 255. 255. 255. 255. 255. 255. 0. 0. 0.
      0. 0. 0. 0. 0. 0. 0. 0. 0. 0. 0. 0. 0. 0. 0. 0. 0. 255. 255. 255.
      255. 255. 0. 0. 0. 0. 0. 0. 0. 0. 0. 0. 0. 0. 0. 0. 0. 0. 0. 0. 0.
      0. 0. 0. 0. 0. 0. 0. 0. 0. 0. 0. 0. 0. 0. 0. 0. 0. 0. 0. 0. 0. 0.
      0. 0. 0. 0. 0. 0. 0. 0. 0. 0. 0. 0. 0. 0. 0. 0. 0. 0. 0. 0. 0. 0.
      0. 0. 0. 0. 0. 0. 0. 0. 0. 0. 0. 0. 0. 0. 0. 0. 0. 0. 0. 0. 0. 0.
      0. 0. 0. 0. 0. 0. 0. 0. 0. 0. 0. 0. 0. 0. 0. 0. 0. 0. 0. 0. 0. 0.
      0. 0. 0. 0. 0. 0. 0. 0. 0. 0. 0. 0. 0. 0. 0. 0. 0. 0. 0. 0. 0.</_>
    <_>
      255. 0. 0. 0. 0. 0. 0. 0. 0. 0. 0. 0. 0. 0. 0. 0. 0. 0. 0. 0. 0.
      0. 0. 0. 0. 0. 0. 0. 0. 0. 0. 0. 0. 0. 255. 0. 0. 0. 0. 0. 0. 0.
      0. 0. 0. 0. 0. 0. 0. 0. 0. 0. 0. 0. 0. 0. 0. 0. 0. 0. 0. 0. 0. 0.
      0. 0. 0. 0. 0. 0. 0. 0. 0. 0. 0. 0. 0. 0. 0. 0. 0. 0. 0. 255. 255.
      255. 255. 255. 0. 0. 0. 0. 0. 0. 0. 0. 0. 0. 0. 0. 0. 0. 0. 0. 0.
      0. 0. 255. 255. 255. 255. 255. 255. 255. 0. 0. 0. 0. 0. 0. 0. 0.
      0. 0. 0. 0. 0. 0. 0. 0. 0. 0. 255. 255. 255. 255. 255. 255. 255.
      255. 0. 0. 0. 0. 0. 0. 0. 0. 0. 0. 0. 0. 0. 0. 0. 0. 0. 255. 255.
      255. 255. 255. 255. 255. 255. 0. 0. 0. 0. 0. 0. 0. 0. 0. 0. 0. 0.
      0. 0. 0. 0. 0. 255. 255. 255. 0. 255. 255. 255. 255. 0. 0. 0. 0.
      0. 0. 0. 0. 0. 0. 0. 0. 0. 0. 0. 0. 0. 0. 0. 0. 0. 255. 255. 255.
      255. 0. 0. 0. 0. 0. 0. 0. 0. 0. 0. 0. 0. 0. 0. 0. 0. 0. 0. 0. 0.
      0. 255. 255. 255. 255. 0. 0. 0. 0. 0. 0. 0. 0. 0. 0. 255. 0. 0. 0.
      0. 0. 0. 0. 0. 0. 0. 255. 255. 255. 255. 0. 0. 0. 0. 0. 0. 0. 0.
      0. 0. 255. 0. 0. 0. 0. 0. 0. 0. 0. 0. 255. 255. 255. 255. 0. 0. 0.
      0. 0. 0. 0. 0. 0. 0. 0. 255. 0. 0. 0. 0. 0. 0. 0. 0. 255. 255.
      255. 255. 255. 0. 0. 0. 0. 0. 0. 0. 0. 0. 0. 0. 255. 0. 0. 0. 0.
      0. 0. 0. 255. 255. 255. 255. 255. 0. 0. 0. 0. 0. 0. 0. 0. 0. 0. 0.
      0. 0. 0. 0. 0. 0. 0. 0. 0. 255. 255. 255. 255. 255. 0. 0. 0. 0. 0.
      0. 0. 0. 0. 0. 0. 0. 0. 0. 0. 0. 0. 0. 0. 255. 255. 255. 255. 255.
      255. 0. 0. 0. 0. 0. 0. 0. 0. 0. 0. 0. 0. 0. 0. 0. 0. 0. 0. 0. 255.
      255. 255. 255. 255. 255. 255. 255. 0. 0. 0. 0. 0. 0. 0. 0. 0. 0.
      0. 0. 0. 0. 0. 0. 0. 255. 255. 255. 255. 255. 255. 255. 255. 255.
      0. 0. 0. 0. 0. 0. 0. 0. 0. 0. 0. 0. 0. 0. 0. 0. 255. 255. 255.
      255. 255. 255. 255. 255. 255. 0. 0. 0. 0. 0. 0. 0. 0. 0. 0. 0. 0.
      0. 0. 0. 0. 255. 255. 255. 255. 255. 255. 255. 255. 255. 0. 0. 0.
      0. 0. 0. 0. 0. 0. 0. 0. 0. 0. 0. 0. 0. 255. 255. 255. 255. 255.
      255. 255. 255. 255. 0. 0. 0. 0. 0. 0. 0. 0. 0. 0. 0. 0. 0. 255.
      255. 255. 255. 255. 255. 255. 0. 0. 255. 255. 255. 0. 0. 0. 0. 0.
      0. 0. 0. 0. 255. 0. 255. 255. 255. 255. 255. 255. 255. 255. 255.
      255. 0. 0. 255. 255. 0. 0. 0. 0. 0. 0. 0. 0. 0. 255. 255. 255.
      255. 255. 255. 255. 255. 255. 255. 255. 255. 255. 255. 255. 255.
      0. 0. 0. 255. 255. 0. 0. 0. 0. 255. 255. 255. 255. 255. 255. 255.
      255. 255. 255. 255. 255. 255. 255. 255. 255. 255. 255. 255. 255.
      255. 255. 255. 255. 255.</_>
    <_>
      0. 0. 0. 0. 0. 0. 0. 0. 0. 0. 0. 0. 0. 0. 0. 0. 0. 0. 0. 0. 0. 0.
      0. 0. 0. 0. 0. 0. 0. 0. 0. 0. 0. 0. 0. 0. 0. 0. 0. 0. 0. 0. 0. 0.
      0. 0. 0. 0. 0. 0. 0. 0. 0. 0. 0. 0. 0. 0. 0. 0. 0. 255. 255. 255.
      0. 0. 0. 0. 0. 0. 0. 0. 0. 0. 0. 0. 0. 0. 0. 0. 0. 0. 0. 0. 255.
      255. 255. 0. 255. 255. 255. 0. 0. 0. 0. 0. 0. 0. 0. 0. 0. 0. 0. 0.
      0. 0. 0. 0. 255. 0. 255. 255. 255. 255. 0. 255. 255. 0. 0. 0. 0.
      0. 0. 0. 0. 0. 0. 0. 0. 0. 0. 0. 255. 0. 255. 255. 0. 0. 255. 255.
      255. 255. 0. 0. 0. 0. 0. 0. 0. 0. 0. 0. 0. 0. 0. 0. 0. 255. 255.
      0. 0. 255. 255. 0. 0. 255. 0. 255. 0. 0. 0. 0. 0. 0. 0. 0. 0. 0.
      0. 0. 0. 255. 255. 255. 0. 255. 255. 255. 255. 255. 0. 255. 255.
      0. 0. 0. 0. 0. 0. 0. 0. 0. 0. 0. 0. 0. 255. 255. 0. 255. 255. 0.
      0. 255. 255. 0. 255. 0. 0. 0. 0. 0. 0. 0. 0. 0. 0. 0. 0. 0. 0. 0.
      255. 255. 255. 255. 255. 255. 255. 255. 255. 255. 0. 255. 0. 0. 0.
      0. 0. 0. 0. 0. 0. 0. 0. 255. 255. 0. 255. 0. 255. 255. 255. 255.
      0. 255. 0. 255. 255. 0. 0. 0. 0. 0. 0. 0. 0. 0. 0. 0. 255. 255. 0.
      255. 255. 255. 255. 255. 255. 0. 255. 0. 255. 255. 0. 0. 0. 0. 0.
      0. 0. 0. 0. 0. 0. 255. 255. 0. 255. 255. 255. 255. 255. 255. 0.
      255. 0. 255. 255. 0. 0. 0. 0. 0. 0. 0. 0. 0. 0. 0. 255. 255. 0.
      255. 255. 255. 255. 255. 255. 0. 255. 0. 255. 255. 0. 0. 0. 0. 0.
      0. 0. 0. 0. 0. 0. 255. 255. 0. 255. 0. 255. 255. 255. 255. 255.
      255. 255. 0. 0. 0. 0. 0. 0. 0. 0. 0. 0. 0. 0. 0. 255. 0. 0. 255.
      255. 255. 255. 255. 0. 255. 0. 255. 0. 0. 0. 0. 0. 0. 0. 0. 0. 0.
      0. 0. 0. 0. 0. 255. 0. 255. 255. 0. 255. 255. 255. 0. 255. 255. 0.
      0. 0. 0. 0. 0. 0. 0. 0. 0. 0. 0. 0. 255. 255. 0. 255. 255. 255.
      255. 255. 0. 255. 0. 255. 0. 0. 0. 0. 0. 0. 0. 0. 0. 0. 0. 0. 0.
      255. 0. 255. 0. 0. 255. 0. 0. 255. 255. 255. 0. 0. 0. 0. 0. 0. 0.
      0. 0. 0. 0. 0. 0. 0. 0. 255. 255. 255. 255. 0. 255. 255. 255. 255.
      0. 0. 0. 0. 0. 0. 0. 0. 0. 0. 0. 0. 0. 0. 0. 0. 0. 255. 0. 255.
      255. 255. 0. 255. 0. 0. 0. 0. 0. 0. 0. 0. 0. 0. 0. 0. 0. 0. 0. 0.
      0. 0. 0. 255. 255. 255. 255. 255. 0. 0. 0. 0. 0. 0. 0. 0. 0. 0. 0.
      0. 0. 0. 0. 0. 0. 0. 0. 0. 0. 0. 0. 0. 0. 0. 0. 0. 0. 0. 0. 0. 0.
      0. 0. 0. 0. 0. 0. 0. 0. 0. 0. 0. 0. 0. 0. 0. 0. 0. 0. 0. 0. 0. 0.
      0. 0. 0. 0. 0. 0. 0. 0. 0. 0. 0. 0. 0. 0. 0. 0. 0. 0. 0. 0. 0. 0.
      0. 0. 0. 0. 0. 0. 255. 255. 255.</_>
    <_>
      0. 0. 0. 0. 0. 0. 0. 0. 0. 0. 0. 0. 0. 0. 0. 0. 0. 0. 0. 0. 0. 0.
      0. 0. 0. 0. 0. 0. 0. 0. 0. 0. 0. 0. 0. 0. 0. 0. 0. 0. 0. 0. 0. 0.
      0. 0. 0. 0. 0. 0. 0. 0. 0. 0. 0. 0. 0. 0. 0. 0. 0. 0. 0. 0. 0. 0.
      0. 0. 0. 0. 0. 0. 0. 0. 0. 0. 0. 0. 0. 0. 0. 0. 0. 0. 0. 0. 0. 0.
      0. 0. 0. 0. 0. 0. 0. 0. 0. 0. 0. 0. 0. 0. 0. 0. 0. 0. 0. 0. 0. 0.
      0. 0. 0. 0. 0. 0. 0. 0. 0. 0. 0. 0. 0. 0. 0. 0. 0. 0. 0. 0. 0. 0.
      0. 0. 0. 0. 0. 0. 0. 0. 0. 0. 0. 0. 0. 0. 0. 0. 0. 0. 0. 0. 0. 0.
      0. 0. 0. 0. 0. 0. 0. 0. 0. 0. 0. 0. 0. 0. 0. 0. 0. 0. 0. 0. 0. 0.
      0. 0. 0. 0. 0. 255. 255. 255. 255. 255. 255. 255. 255. 0. 0. 0. 0.
      0. 0. 0. 0. 0. 0. 0. 0. 0. 0. 0. 0. 255. 255. 255. 255. 255. 255.
      255. 255. 255. 255. 255. 255. 0. 0. 0. 0. 0. 0. 0. 0. 0. 0. 0. 0.
      255. 255. 255. 255. 255. 255. 255. 255. 255. 255. 255. 255. 255.
      255. 255. 255. 0. 0. 0. 0. 0. 0. 0. 0. 0. 0. 255. 255. 255. 255.
      255. 255. 255. 255. 255. 255. 255. 255. 255. 255. 255. 255. 0. 0.
      0. 0. 0. 0. 0. 0. 0. 0. 0. 0. 0. 0. 0. 0. 0. 0. 0. 0. 255. 255.
      255. 255. 255. 255. 0. 0. 0. 0. 0. 0. 0. 0. 0. 0. 0. 0. 0. 0. 0.
      0. 0. 0. 0. 255. 255. 255. 255. 255. 255. 255. 0. 0. 0. 0. 0. 0.
      0. 0. 0. 0. 0. 0. 0. 0. 0. 0. 0. 0. 255. 255. 255. 255. 255. 255.
      255. 0. 0. 0. 0. 0. 0. 0. 0. 0. 0. 0. 255. 255. 255. 255. 255.
      255. 255. 255. 255. 255. 255. 255. 255. 0. 0. 0. 0. 0. 0. 0. 0. 0.
      0. 0. 0. 255. 255. 255. 255. 255. 255. 255. 255. 255. 255. 255.
      255. 0. 0. 0. 0. 0. 0. 0. 0. 0. 0. 0. 0. 0. 0. 255. 255. 255. 255.
      255. 255. 255. 255. 255. 255. 255. 255. 0. 0. 0. 0. 0. 0. 0. 0. 0.
      0. 0. 0. 0. 0. 0. 0. 0. 0. 0. 255. 255. 255. 255. 255. 255. 255.
      255. 0. 0. 0. 0. 0. 0. 0. 0. 0. 0. 0. 0. 0. 0. 0. 0. 0. 0. 0. 255.
      255. 255. 255. 255. 255. 0. 0. 0. 0. 0. 0. 0. 0. 0. 0. 0. 0. 0. 0.
      0. 0. 0. 0. 0. 255. 255. 255. 255. 255. 255. 0. 0. 0. 0. 0. 0. 0.
      0. 255. 255. 255. 255. 0. 0. 0. 0. 0. 0. 255. 255. 255. 255. 255.
      255. 255. 0. 0. 0. 0. 0. 0. 0. 0. 255. 255. 255. 255. 255. 255.
      255. 255. 255. 255. 255. 255. 255. 255. 255. 255. 0. 0. 0. 0. 0.
      0. 0. 0. 0. 255. 255. 255. 255. 255. 255. 255. 255. 255. 255. 255.
      255. 255. 255. 0. 0. 0. 0. 0. 0. 0. 0. 0. 0. 0. 0. 0. 0. 0. 0.
      255. 255. 0. 0. 0. 0. 0. 0. 0. 0. 0. 0. 0. 0. 0. 0. 0. 0. 0. 0. 0.
      0. 0. 0. 0. 0. 0. 0. 0. 0. 0. 0. 0. 0. 0. 0. 0. 0.</_>
    <_>
      0. 0. 0. 0. 0. 0. 0. 0. 0. 0. 0. 0. 0. 0. 0. 0. 0. 0. 0. 0. 0. 0.
      0. 0. 0. 0. 0. 0. 0. 0. 0. 0. 0. 0. 0. 0. 0. 0. 0. 0. 0. 0. 0. 0.
      0. 0. 0. 0. 0. 0. 0. 0. 0. 0. 0. 0. 0. 0. 0. 0. 0. 0. 0. 0. 0. 0.
      0. 0. 0. 0. 0. 0. 0. 0. 0. 0. 0. 0. 0. 0. 0. 0. 0. 0. 0. 0. 255.
      255. 255. 255. 0. 0. 0. 0. 0. 0. 0. 0. 0. 0. 0. 0. 0. 0. 0. 0. 0.
      0. 0. 0. 255. 255. 255. 255. 255. 255. 0. 0. 0. 0. 0. 0. 0. 0. 0.
      0. 0. 0. 0. 0. 0. 0. 0. 0. 0. 255. 255. 255. 255. 255. 255. 255.
      0. 0. 0. 0. 0. 0. 0. 0. 0. 0. 0. 0. 0. 0. 0. 0. 0. 0. 255. 0. 0.
      0. 255. 255. 255. 0. 0. 0. 0. 0. 0. 0. 0. 0. 0. 0. 0. 0. 0. 0. 0.
      0. 0. 0. 0. 0. 0. 255. 255. 255. 0. 0. 0. 0. 0. 0. 0. 0. 255. 0.
      0. 0. 0. 0. 0. 0. 0. 0. 0. 0. 0. 0. 255. 255. 255. 0. 0. 0. 0. 0.
      0. 0. 0. 255. 0. 0. 0. 0. 0. 0. 0. 0. 0. 0. 0. 0. 0. 255. 255.
      255. 0. 0. 0. 0. 0. 0. 0. 0. 255. 0. 0. 0. 0. 0. 0. 0. 0. 0. 0. 0.
      0. 0. 255. 255. 255. 0. 0. 0. 0. 0. 0. 0. 0. 255. 0. 0. 0. 0. 0.
      0. 0. 0. 0. 0. 0. 0. 255. 255. 255. 0. 0. 0. 0. 0. 0. 0. 0. 0.
      255. 0. 0. 0. 0. 0. 0. 0. 0. 0. 0. 0. 0. 255. 255. 255. 0. 0. 0.
      0. 0. 0. 0. 0. 0. 255. 0. 0. 0. 0. 0. 0. 0. 0. 0. 0. 0. 255. 255.
      255. 0. 0. 0. 0. 0. 0. 0. 0. 0. 0. 255. 0. 0. 0. 0. 0. 0. 0. 0. 0.
      0. 255. 255. 255. 255. 0. 0. 0. 0. 0. 0. 0. 0. 0. 0. 255. 0. 0. 0.
      0. 0. 0. 0. 0. 0. 255. 255. 255. 255. 0. 0. 0. 0. 0. 0. 0. 0. 0.
      0. 0. 255. 0. 0. 0. 0. 0. 0. 0. 0. 0. 255. 255. 255. 0. 0. 0. 0.
      0. 0. 0. 0. 0. 0. 0. 0. 0. 0. 0. 0. 0. 0. 0. 0. 0. 0. 255. 255.
      255. 0. 0. 0. 0. 0. 0. 0. 0. 0. 0. 0. 0. 0. 0. 0. 0. 0. 0. 0. 0.
      0. 255. 255. 255. 255. 0. 255. 255. 255. 0. 0. 0. 0. 0. 0. 0. 0.
      0. 0. 0. 0. 0. 0. 0. 0. 0. 255. 255. 255. 255. 255. 255. 255. 255.
      0. 0. 0. 0. 0. 0. 0. 0. 0. 0. 0. 0. 0. 0. 0. 0. 0. 255. 255. 255.
      255. 255. 255. 255. 255. 0. 0. 0. 0. 0. 0. 0. 0. 0. 0. 0. 0. 0. 0.
      0. 0. 0. 255. 255. 255. 255. 255. 255. 255. 255. 0. 0. 0. 0. 0. 0.
      0. 0. 0. 0. 0. 0. 0. 0. 0. 0. 0. 0. 0. 0. 0. 0. 0. 0. 0. 0. 0. 0.
      0. 0. 0. 0. 0. 0. 0. 0. 0. 0. 0. 0. 0. 0. 0. 0. 0. 0. 0. 0. 0. 0.
      0. 0. 0. 0. 0. 0. 0. 0. 0. 0. 0. 0. 0. 0. 0. 0. 0. 0. 0. 0. 0.
      255. 0. 0. 0. 0. 0. 0. 0. 0. 0. 0. 255.</_>
    <_>
      0. 0. 0. 0. 0. 0. 0. 255. 255. 255. 255. 255. 255. 255. 255. 255.
      255. 255. 0. 0. 0. 0. 0. 0. 0. 0. 0. 0. 0. 0. 0. 255. 255. 255.
      255. 255. 255. 255. 255. 255. 0. 0. 0. 0. 0. 0. 0. 0. 0. 0. 0. 0.
      0. 0. 0. 0. 255. 255. 255. 255. 255. 255. 0. 0. 0. 0. 0. 0. 0. 0.
      0. 0. 0. 0. 0. 0. 0. 0. 0. 0. 0. 255. 255. 255. 255. 0. 0. 0. 0.
      0. 0. 0. 0. 0. 0. 0. 0. 0. 0. 0. 0. 0. 0. 0. 0. 0. 255. 255. 255.
      0. 0. 0. 0. 0. 0. 0. 0. 0. 0. 0. 0. 0. 0. 0. 0. 0. 0. 0. 0. 0. 0.
      255. 255. 255. 0. 0. 0. 0. 0. 0. 0. 0. 0. 0. 0. 0. 0. 0. 0. 0. 0.
      0. 0. 0. 0. 0. 255. 255. 255. 0. 0. 0. 0. 0. 0. 0. 0. 0. 0. 0. 0.
      0. 0. 0. 0. 0. 0. 0. 0. 0. 0. 255. 255. 255. 0. 0. 0. 0. 0. 0. 0.
      0. 0. 0. 0. 0. 0. 0. 0. 0. 0. 0. 0. 0. 0. 0. 255. 255. 255. 255.
      255. 255. 255. 255. 255. 255. 0. 0. 0. 0. 0. 0. 0. 0. 0. 0. 0. 0.
      0. 0. 0. 255. 255. 255. 255. 255. 255. 255. 255. 255. 255. 255. 0.
      0. 0. 0. 0. 0. 0. 0. 255. 0. 0. 0. 0. 255. 255. 255. 255. 255.
      255. 255. 255. 255. 255. 255. 255. 255. 0. 0. 0. 0. 0. 0. 0. 255.
      0. 0. 0. 0. 255. 255. 255. 255. 255. 255. 255. 255. 255. 255. 255.
      255. 255. 0. 0. 0. 0. 0. 0. 0. 255. 0. 0. 0. 0. 255. 255. 255.
      255. 0. 0. 0. 255. 255. 255. 255. 255. 255. 255. 0. 0. 0. 0. 0. 0.
      255. 0. 0. 0. 0. 0. 0. 0. 0. 0. 0. 0. 0. 255. 255. 255. 255. 255.
      255. 0. 0. 0. 0. 0. 0. 255. 0. 0. 0. 0. 0. 0. 0. 0. 0. 0. 0. 0.
      255. 255. 255. 255. 255. 255. 0. 0. 0. 0. 0. 0. 255. 0. 0. 0. 0.
      0. 0. 0. 0. 0. 0. 0. 0. 255. 255. 255. 255. 255. 0. 0. 0. 0. 0. 0.
      0. 0. 0. 0. 0. 0. 0. 0. 0. 0. 0. 0. 0. 0. 255. 255. 255. 255. 255.
      0. 0. 0. 0. 0. 0. 0. 0. 0. 0. 0. 0. 0. 0. 0. 0. 0. 0. 0. 255. 255.
      255. 255. 255. 255. 0. 0. 0. 0. 0. 0. 0. 0. 0. 0. 0. 0. 0. 0. 0.
      0. 0. 0. 255. 255. 255. 255. 255. 255. 0. 0. 0. 0. 0. 0. 0. 0. 0.
      0. 0. 0. 0. 255. 255. 0. 255. 255. 255. 255. 255. 255. 255. 255.
      0. 0. 0. 0. 0. 0. 0. 0. 0. 0. 0. 0. 0. 0. 255. 255. 255. 255. 255.
      255. 255. 255. 255. 255. 255. 0. 0. 0. 0. 0. 0. 0. 0. 0. 0. 0. 0.
      0. 0. 255. 255. 255. 255. 255. 255. 255. 255. 255. 0. 0. 0. 0. 0.
      0. 0. 0. 0. 0. 0. 0. 0. 0. 0. 0. 255. 255. 255. 255. 255. 255.
      255. 255. 0. 0. 0. 0. 0. 0. 0. 0. 0. 0. 0. 0. 0. 0. 0. 0. 0. 0. 0.
      0. 0. 0. 0. 0. 0. 0. 0. 0. 0. 0. 0. 0. 0. 0. 0. 0. 0. 0. 0. 0. 0.
      0. 0. 0. 0. 0. 0. 0. 0. 0. 0. 0. 0. 0. 0. 0. 0. 0. 0. 0. 0. 0.</_>
    <_>
      0. 255. 255. 0. 255. 255. 255. 255. 0. 0. 0. 0. 0. 0. 0. 0. 0. 0.
      0. 0. 0. 0. 0. 255. 0. 0. 255. 0. 0. 255. 255. 255. 255. 0. 0. 0.
      0. 0. 0. 0. 0. 0. 0. 0. 0. 0. 0. 0. 0. 0. 0. 255. 0. 255. 255.
      255. 255. 255. 0. 0. 0. 0. 0. 0. 0. 0. 0. 0. 0. 0. 0. 0. 0. 0. 0.
      0. 0. 0. 255. 255. 255. 255. 0. 0. 0. 0. 0. 0. 0. 0. 0. 0. 0. 0.
      0. 0. 0. 0. 0. 0. 255. 0. 255. 0. 255. 255. 255. 0. 0. 0. 0. 0. 0.
      0. 0. 0. 0. 0. 0. 0. 0. 0. 0. 0. 0. 255. 255. 255. 0. 255. 255.
      255. 0. 0. 0. 0. 0. 0. 0. 0. 0. 0. 0. 0. 0. 0. 0. 0. 0. 0. 0. 255.
      255. 255. 255. 255. 255. 0. 0. 0. 0. 0. 0. 0. 0. 0. 0. 0. 0. 0. 0.
      0. 0. 0. 0. 0. 255. 255. 255. 255. 255. 0. 0. 0. 0. 0. 0. 0. 0. 0.
      0. 0. 0. 0. 0. 0. 0. 0. 0. 0. 0. 255. 255. 255. 255. 255. 0. 0. 0.
      0. 0. 0. 0. 0. 0. 0. 0. 0. 0. 0. 0. 0. 0. 0. 0. 0. 255. 255. 255.
      255. 255. 0. 0. 0. 0. 0. 0. 0. 0. 0. 0. 255. 0. 0. 0. 0. 0. 0. 0.
      0. 0. 255. 255. 255. 0. 0. 0. 0. 0. 0. 0. 0. 0. 0. 0. 0. 0. 0. 0.
      0. 0. 0. 0. 0. 0. 0. 255. 255. 0. 0. 0. 0. 0. 0. 0. 0. 0. 0. 0. 0.
      0. 0. 0. 0. 0. 0. 0. 0. 0. 0. 0. 255. 0. 0. 0. 0. 0. 0. 0. 0. 0.
      0. 0. 0. 0. 0. 0. 0. 0. 0. 0. 0. 0. 0. 0. 0. 0. 0. 0. 0. 0. 0. 0.
      0. 0. 0. 0. 0. 0. 0. 0. 0. 0. 0. 0. 0. 0. 0. 0. 0. 0. 0. 0. 0. 0.
      0. 0. 0. 0. 0. 0. 0. 0. 0. 0. 0. 0. 0. 0. 0. 0. 0. 0. 0. 0. 0. 0.
      0. 0. 0. 0. 0. 0. 0. 0. 0. 0. 0. 0. 255. 255. 255. 255. 0. 0. 0.
      0. 0. 0. 0. 0. 0. 0. 0. 0. 0. 0. 0. 0. 0. 0. 0. 0. 255. 255. 255.
      255. 255. 255. 0. 0. 0. 0. 0. 0. 0. 0. 0. 0. 0. 0. 0. 0. 0. 0. 0.
      0. 0. 255. 255. 255. 255. 255. 255. 0. 0. 0. 0. 0. 0. 0. 0. 0. 0.
      0. 0. 0. 0. 0. 0. 0. 0. 255. 255. 0. 0. 0. 255. 255. 0. 0. 0. 0.
      0. 0. 0. 0. 0. 0. 0. 0. 0. 0. 0. 0. 0. 255. 255. 0. 255. 255. 0.
      255. 255. 0. 0. 0. 0. 0. 0. 0. 0. 0. 0. 0. 0. 0. 0. 0. 0. 0. 0. 0.
      255. 255. 255. 255. 255. 255. 0. 0. 0. 0. 0. 0. 0. 0. 0. 0. 0. 0.
      0. 0. 0. 0. 0. 255. 255. 0. 0. 0. 255. 255. 255. 0. 0. 0. 0. 0. 0.
      0. 0. 0. 0. 0. 0. 0. 0. 0. 0. 255. 0. 255. 255. 255. 0. 255. 255.
      255. 0. 0. 0. 0. 0. 0. 0. 0. 0. 0. 0. 0. 0. 0. 0. 0. 255. 255. 0.
      255. 255. 0. 255. 255. 255. 0. 0. 0. 0. 0. 0. 0. 0. 0. 0. 0. 0. 0.
      0. 0. 255. 255. 255. 255. 255. 255. 0. 255. 255. 255. 0. 0. 0. 0.
      0. 0.</_>
    <_>
      0. 0. 0. 0. 0. 0. 0. 0. 0. 0. 0. 0. 0. 0. 0. 0. 0. 0. 0. 0. 0. 0.
      0. 0. 0. 0. 0. 0. 0. 0. 0. 0. 0. 0. 0. 0. 0. 0. 0. 0. 0. 0. 0. 0.
      0. 0. 0. 0. 0. 0. 0. 0. 0. 0. 0. 0. 0. 0. 0. 0. 0. 0. 0. 0. 0. 0.
      0. 0. 0. 0. 0. 0. 0. 0. 0. 0. 0. 0. 0. 0. 0. 0. 0. 0. 0. 0. 0. 0.
      0. 0. 0. 0. 0. 0. 0. 0. 0. 0. 255. 255. 0. 0. 0. 0. 0. 0. 0. 0. 0.
      0. 0. 0. 0. 0. 0. 0. 0. 0. 0. 0. 0. 255. 255. 255. 255. 0. 0. 0.
      0. 0. 0. 0. 0. 0. 0. 0. 0. 0. 0. 0. 0. 0. 0. 255. 255. 255. 255.
      255. 255. 255. 0. 0. 0. 0. 0. 0. 0. 0. 0. 0. 0. 0. 0. 255. 255.
      255. 255. 255. 255. 255. 255. 255. 255. 255. 255. 0. 0. 0. 0. 0.
      0. 0. 0. 0. 0. 0. 255. 255. 255. 255. 255. 255. 255. 255. 255.
      255. 255. 255. 255. 255. 0. 0. 0. 0. 0. 0. 0. 0. 0. 0. 255. 255.
      255. 255. 255. 255. 255. 255. 255. 255. 255. 255. 255. 255. 0. 0.
      0. 0. 0. 0. 0. 0. 0. 0. 255. 255. 255. 255. 255. 255. 255. 255.
      255. 255. 255. 255. 0. 0. 0. 0. 0. 0. 0. 0. 0. 0. 0. 0. 255. 255.
      255. 255. 255. 255. 255. 0. 0. 255. 0. 0. 0. 0. 0. 0. 0. 0. 0. 0.
      0. 0. 0. 0. 255. 255. 255. 255. 255. 255. 255. 0. 0. 0. 0. 0. 0.
      0. 0. 0. 0. 0. 0. 0. 0. 0. 0. 0. 0. 255. 255. 255. 255. 255. 255.
      255. 0. 255. 255. 255. 255. 0. 0. 0. 0. 0. 0. 255. 0. 0. 0. 0. 0.
      255. 255. 255. 255. 255. 255. 255. 255. 255. 255. 255. 255. 255.
      255. 255. 0. 0. 0. 0. 255. 0. 0. 0. 0. 255. 255. 255. 255. 255.
      255. 255. 255. 255. 255. 255. 255. 255. 255. 255. 255. 0. 0. 0. 0.
      255. 0. 0. 0. 0. 255. 255. 255. 255. 255. 255. 255. 255. 255. 255.
      255. 255. 255. 255. 255. 255. 0. 0. 0. 0. 255. 0. 0. 0. 0. 255.
      255. 255. 255. 0. 0. 255. 255. 255. 255. 255. 255. 255. 255. 255.
      0. 0. 0. 0. 0. 0. 0. 0. 0. 0. 0. 0. 0. 0. 0. 0. 0. 255. 255. 255.
      255. 255. 255. 255. 0. 0. 0. 0. 0. 0. 0. 0. 0. 0. 0. 0. 0. 0. 0.
      0. 0. 255. 255. 255. 255. 255. 255. 0. 0. 0. 0. 0. 0. 0. 0. 0. 0.
      0. 0. 0. 0. 255. 255. 255. 255. 255. 255. 255. 255. 255. 255. 0.
      0. 0. 0. 0. 0. 0. 0. 0. 0. 0. 255. 255. 255. 255. 255. 255. 255.
      255. 255. 255. 255. 255. 0. 0. 0. 0. 0. 0. 0. 0. 0. 0. 0. 0. 255.
      255. 255. 255. 255. 255. 255. 255. 255. 255. 0. 0. 0. 0. 0. 0. 0.
      0. 0. 0. 0. 0. 0. 0. 0. 255. 255. 255. 255. 255. 255. 255. 0. 0.
      0. 0. 0. 0. 0. 0. 0. 0. 0. 0. 0. 0. 0. 0. 0. 0. 0. 0. 0. 0. 0. 0.
      0. 0. 0. 0. 0. 0. 0. 0. 0. 0. 0. 0. 0. 0. 0. 0. 0. 0. 0. 0. 0. 0.
      0. 0. 0. 0. 0. 0. 0. 0. 0. 0. 0. 0. 0. 0. 0. 0. 0. 0. 0. 0. 0.</_>
    <_>
      0. 0. 0. 0. 0. 0. 0. 0. 0. 0. 0. 0. 0. 0. 0. 0. 0. 0. 0. 0. 0. 0.
      0. 0. 0. 0. 0. 0. 0. 0. 0. 0. 0. 0. 0. 0. 0. 0. 0. 0. 0. 0. 0. 0.
      0. 0. 0. 0. 0. 0. 0. 0. 0. 0. 0. 0. 0. 0. 0. 0. 0. 0. 0. 0. 0. 0.
      0. 0. 0. 0. 0. 0. 0. 0. 0. 0. 0. 0. 0. 0. 0. 0. 0. 0. 255. 255.
      255. 255. 255. 0. 0. 0. 0. 0. 0. 0. 0. 0. 0. 0. 0. 0. 0. 0. 0. 0.
      0. 0. 255. 255. 255. 255. 255. 0. 255. 0. 0. 0. 0. 0. 0. 0. 0. 0.
      0. 0. 0. 0. 0. 0. 0. 0. 255. 0. 255. 255. 255. 255. 255. 0. 255.
      0. 0. 0. 0. 0. 0. 0. 0. 0. 0. 0. 0. 0. 0. 0. 0. 255. 255. 0. 0. 0.
      0. 0. 255. 0. 255. 0. 0. 0. 0. 0. 0. 0. 0. 0. 0. 0. 0. 0. 0. 255.
      255. 0. 255. 255. 255. 255. 0. 0. 255. 255. 0. 0. 0. 0. 0. 0. 0.
      0. 0. 0. 0. 0. 0. 0. 255. 255. 255. 255. 0. 0. 255. 255. 0. 255.
      255. 0. 0. 0. 0. 0. 0. 0. 0. 0. 0. 0. 0. 0. 255. 255. 0. 255. 0.
      255. 255. 0. 255. 255. 255. 255. 255. 0. 0. 0. 0. 0. 0. 0. 0. 0.
      0. 0. 0. 255. 255. 0. 255. 0. 255. 255. 255. 0. 255. 0. 255. 255.
      0. 0. 0. 0. 0. 0. 0. 0. 0. 0. 0. 0. 255. 255. 255. 255. 255. 255.
      255. 255. 0. 255. 0. 255. 255. 0. 0. 0. 0. 0. 0. 0. 0. 0. 0. 0. 0.
      255. 255. 255. 255. 255. 255. 255. 255. 0. 255. 0. 255. 255. 0. 0.
      0. 0. 0. 0. 0. 0. 0. 0. 0. 0. 255. 255. 255. 255. 255. 255. 255.
      255. 0. 255. 0. 255. 255. 0. 0. 0. 0. 0. 0. 0. 0. 0. 0. 0. 0. 255.
      255. 0. 255. 0. 255. 255. 255. 0. 255. 0. 255. 255. 0. 0. 0. 0. 0.
      0. 0. 0. 0. 0. 0. 0. 255. 255. 0. 255. 0. 255. 255. 0. 255. 255.
      255. 255. 255. 0. 0. 0. 0. 0. 0. 0. 0. 0. 0. 0. 0. 0. 255. 255.
      255. 255. 0. 0. 255. 255. 0. 255. 255. 255. 0. 0. 0. 0. 0. 0. 0.
      0. 0. 0. 0. 0. 0. 255. 255. 0. 255. 255. 255. 255. 255. 0. 255.
      255. 0. 0. 0. 0. 0. 0. 0. 0. 0. 0. 0. 0. 0. 0. 255. 255. 255. 0.
      0. 0. 0. 0. 255. 255. 255. 0. 0. 0. 0. 0. 0. 0. 0. 0. 0. 0. 0. 0.
      0. 0. 255. 0. 255. 255. 0. 255. 255. 255. 255. 0. 0. 0. 0. 0. 0.
      0. 0. 0. 0. 0. 0. 0. 0. 0. 0. 0. 255. 0. 255. 255. 255. 255. 255.
      0. 0. 0. 0. 0. 0. 0. 0. 0. 0. 0. 0. 0. 0. 0. 0. 0. 0. 0. 255. 255.
      255. 255. 255. 0. 0. 0. 0. 0. 0. 0. 0. 0. 0. 0. 0. 0. 0. 0. 0. 0.
      0. 0. 0. 0. 0. 0. 0. 0. 0. 0. 0. 0. 0. 0. 0. 0. 0. 0. 0. 0. 0. 0.
      0. 0. 0. 0. 0. 0. 0. 0. 0. 0. 0. 0. 0. 0. 0. 0. 0. 0. 0. 0. 0. 0.
      0. 0. 0. 0. 0. 0. 0. 0. 0. 0. 0. 0. 0. 0. 0. 0. 0. 0. 0. 0. 0. 0.
      0. 0. 0.</_>
    <_>
      0. 0. 0. 0. 0. 0. 0. 0. 0. 0. 0. 0. 0. 0. 0. 0. 0. 0. 0. 0. 0. 0.
      0. 0. 0. 0. 0. 0. 0. 0. 0. 0. 0. 255. 255. 255. 255. 255. 255.
      255. 0. 0. 0. 0. 0. 0. 0. 0. 0. 0. 0. 0. 0. 0. 0. 0. 0. 255. 255.
      255. 255. 255. 255. 255. 255. 255. 255. 0. 0. 0. 0. 0. 0. 0. 0. 0.
      0. 0. 0. 0. 0. 0. 255. 255. 255. 255. 255. 255. 255. 255. 255.
      255. 255. 0. 0. 0. 0. 0. 0. 0. 0. 0. 0. 0. 0. 0. 0. 255. 255. 255.
      255. 255. 255. 255. 255. 255. 255. 255. 255. 0. 0. 0. 0. 0. 0. 0.
      0. 0. 0. 0. 0. 0. 255. 0. 0. 0. 0. 0. 0. 255. 255. 255. 255. 255.
      0. 0. 0. 0. 0. 0. 0. 0. 0. 0. 0. 0. 0. 0. 0. 0. 0. 0. 0. 0. 255.
      255. 255. 255. 255. 0. 0. 0. 0. 0. 0. 0. 0. 0. 0. 0. 0. 0. 0. 0.
      0. 0. 0. 0. 0. 0. 255. 255. 255. 255. 0. 0. 0. 0. 0. 0. 0. 0. 0.
      0. 0. 0. 0. 0. 0. 0. 0. 0. 0. 0. 0. 255. 255. 255. 255. 0. 0. 0.
      0. 0. 0. 0. 0. 0. 0. 0. 0. 0. 0. 0. 0. 0. 0. 0. 0. 255. 255. 255.
      255. 255. 0. 0. 0. 0. 0. 0. 0. 0. 0. 0. 0. 0. 0. 0. 0. 255. 255.
      255. 255. 255. 255. 255. 255. 255. 0. 0. 0. 0. 0. 0. 0. 0. 0. 0.
      0. 0. 0. 0. 0. 0. 255. 255. 255. 255. 255. 255. 255. 255. 0. 0. 0.
      0. 0. 0. 0. 0. 0. 0. 0. 0. 0. 0. 0. 0. 0. 255. 255. 255. 255. 255.
      255. 255. 0. 0. 0. 0. 0. 0. 0. 0. 0. 0. 0. 0. 0. 0. 0. 0. 0. 0.
      255. 255. 255. 255. 255. 255. 255. 255. 255. 0. 0. 0. 0. 0. 0. 0.
      0. 0. 0. 0. 0. 0. 0. 0. 0. 0. 0. 0. 0. 0. 255. 255. 255. 255. 255.
      0. 0. 0. 0. 0. 0. 0. 0. 0. 0. 0. 0. 0. 0. 0. 0. 0. 0. 0. 0. 0.
      255. 255. 255. 255. 255. 0. 0. 0. 0. 0. 0. 0. 0. 0. 0. 0. 0. 0. 0.
      0. 0. 0. 0. 0. 0. 0. 255. 255. 255. 255. 0. 0. 0. 0. 0. 0. 0. 0.
      0. 0. 0. 0. 0. 0. 0. 0. 0. 0. 0. 0. 0. 255. 255. 255. 255. 0. 0.
      0. 0. 0. 0. 0. 0. 255. 0. 0. 0. 0. 0. 0. 0. 0. 0. 0. 0. 255. 255.
      255. 255. 255. 0. 0. 0. 0. 0. 0. 0. 0. 255. 255. 255. 255. 0. 0.
      0. 255. 255. 0. 0. 0. 255. 255. 255. 255. 255. 0. 0. 0. 0. 0. 0.
      0. 0. 255. 255. 255. 255. 255. 255. 255. 255. 255. 255. 255. 255.
      255. 0. 255. 255. 255. 0. 0. 0. 0. 0. 0. 0. 0. 0. 255. 255. 255.
      255. 255. 255. 255. 255. 255. 255. 255. 0. 0. 0. 0. 0. 0. 0. 0. 0.
      0. 0. 0. 0. 0. 0. 0. 255. 255. 255. 255. 255. 255. 255. 0. 0. 0.
      0. 0. 0. 0. 0. 0. 0. 0. 0. 0. 0. 0. 0. 0. 0. 0. 0. 0. 0. 0. 0. 0.
      0. 0. 0. 0. 0. 0. 0. 0. 0. 0. 0. 0. 0. 0. 0. 0. 0. 0. 0. 0. 0. 0.
      0. 0. 0. 0. 0. 0. 0. 0. 0. 0. 0. 0. 0. 0. 0.</_>
    <_>
      0. 0. 0. 0. 0. 0. 0. 0. 255. 255. 255. 0. 0. 0. 0. 0. 0. 0. 0. 0.
      0. 0. 0. 0. 0. 0. 0. 0. 0. 0. 0. 0. 255. 255. 255. 255. 255. 255.
      0. 0. 0. 0. 0. 0. 0. 0. 0. 0. 0. 0. 0. 0. 0. 0. 0. 0. 0. 0. 255.
      255. 255. 255. 255. 0. 0. 0. 0. 0. 0. 0. 0. 0. 0. 0. 0. 0. 0. 0.
      0. 0. 0. 0. 0. 0. 0. 0. 0. 0. 0. 0. 0. 0. 0. 0. 0. 0. 0. 0. 0. 0.
      0. 0. 255. 255. 255. 255. 255. 255. 255. 0. 0. 0. 0. 0. 0. 0. 0.
      0. 0. 0. 0. 0. 0. 0. 0. 0. 255. 255. 255. 255. 255. 255. 255. 255.
      255. 255. 255. 255. 0. 0. 0. 0. 0. 0. 0. 0. 0. 0. 0. 0. 0. 255.
      255. 255. 255. 255. 255. 255. 255. 255. 255. 255. 255. 255. 255.
      255. 0. 0. 0. 0. 0. 0. 0. 0. 0. 0. 0. 0. 0. 255. 255. 255. 255.
      255. 255. 255. 255. 255. 255. 255. 255. 255. 0. 0. 0. 0. 0. 0. 0.
      0. 0. 0. 0. 0. 0. 0. 0. 0. 0. 0. 255. 255. 255. 255. 255. 255.
      255. 255. 0. 0. 0. 0. 0. 0. 0. 0. 0. 0. 0. 0. 0. 0. 0. 0. 0. 0.
      255. 255. 255. 255. 255. 255. 255. 255. 0. 0. 0. 0. 0. 0. 0. 0. 0.
      0. 0. 0. 0. 0. 0. 0. 255. 255. 255. 255. 255. 255. 255. 255. 255.
      0. 0. 0. 0. 0. 0. 0. 0. 0. 0. 0. 0. 255. 255. 255. 255. 255. 255.
      255. 255. 255. 255. 255. 255. 255. 0. 0. 0. 0. 0. 0. 0. 0. 0. 0.
