<?xml version="1.0"?>
<opencv_storage>
<opencv_ml_svm>
  <format>3</format>
  <svmType>C_SVC</svmType>
  <kernel>
    <type>LINEAR</type></kernel>
  <C>1.</C>
  <term_criteria><iterations>20000</iterations></term_criteria>
  <var_count>625</var_count>
  <class_count>6</class_count>
  <class_labels type_id="opencv-matrix">
    <rows>6</rows>
    <cols>1</cols>
    <dt>i</dt>
    <data>
      1 2 3 4 5 7</data></class_labels>
  <sv_total>15</sv_total>
  <support_vectors>
    <_>
      0. 0. 0. 0. 0. 0. 0. 5.10470563e-05 5.10470563e-05 1.53488145e-05
      4.26876104e-05 8.02412542e-05 -8.35944684e-06 1.91910258e-05
      1.91910258e-05 -8.14777195e-06 -8.14777195e-06 0. 0. 0. 0.
      2.21402661e-05 0. 0. 0. 0. 0. 0. 0. 0. 0. -2.75504717e-05
      1.53488145e-05 1.53488145e-05 1.53488145e-05 8.02412542e-05
      8.02412542e-05 8.02412542e-05 4.26876104e-05 -8.35944684e-06
      -3.56982455e-05 -8.14777195e-06 0. 0. 0. 0. 0. 0. 0. 0. 0. 0. 0.
      0. 0. -2.75504717e-05 1.53488145e-05 4.18065656e-06 4.18065656e-06
      4.17342962e-05 6.21456129e-05 6.21456129e-05 6.21456129e-05
      2.45919691e-05 2.45919691e-05 -2.64550890e-05 -3.56982455e-05
      -8.14777195e-06 0. 0. 0. 0. 0. 0. 0. 0. 0. 0. 0. 0.
      -1.11681575e-05 4.18065656e-06 -2.96947678e-06 2.48051219e-05
      2.48051219e-05 5.21439215e-05 7.42841876e-05 5.08172016e-05
      1.35747650e-05 -8.56550105e-06 -8.56550105e-06 -8.69513606e-05
      -8.44110036e-05 -1.93159285e-05 -8.14777195e-06 0. 0. 0. 0. 0.
      2.21402661e-05 0. 0. 0. 0. -4.42092023e-05 -8.46004787e-06
      1.93145515e-05 1.93145515e-05 -1.43320840e-05 7.80818300e-06
      -2.28089357e-05 -2.38125849e-05 -2.38125849e-05 -2.59459048e-05
      -5.56569685e-05 -7.17010698e-05 -1.20303608e-04 -8.99015722e-05
      -8.14777195e-06 0. 0. 0. 0. 0. 2.21402661e-05 0. 0. 0.
      -4.42092023e-05 -5.13593332e-05 -3.37472375e-05 -1.41204091e-05
      -1.41204091e-05 4.25087892e-05 4.25087892e-05 2.58417749e-05
      1.87578698e-05 -1.87957721e-05 -1.87957721e-05 -3.95848037e-05
      -7.77972309e-05 -1.53738569e-04 -9.24419292e-05 -7.18059309e-05
      -8.14777195e-06 0. 0. 0. 0. 2.21402661e-05 2.21402661e-05 0. 0.
      -1.11681575e-05 -4.42092023e-05 -2.65971030e-05 8.10498022e-06
      -7.76533780e-05 -5.29727586e-05 -2.56339627e-05 7.87801109e-05
      9.45410720e-05 -1.18016226e-06 -1.18682874e-05 -3.24346729e-05
      -4.81956304e-05 -1.02380305e-04 -1.53427362e-04 -7.18059309e-05
      -7.18059309e-05 0. 0. 0. 0. 1.95999128e-05 2.21402661e-05 0. 0.
      -1.11681575e-05 -1.11681575e-05 -2.65971030e-05 -7.51130283e-05
      -3.05099074e-05 -8.36964136e-06 3.26080553e-05 3.73136645e-05
      1.00425554e-04 -1.18016226e-06 6.67104250e-05 -3.24346729e-05
      -4.81956304e-05 -5.29012395e-05 -1.53427362e-04 -8.12737708e-05
      -7.18059309e-05 -3.06171169e-05 0. 0. 4.34209278e-06
      -1.36025956e-05 2.21402661e-05 0. 0. 0. 0. 1.76120975e-05
      2.53113581e-06 -3.05099074e-05 -8.36964136e-06 3.26080553e-05
      1.07744600e-04 1.86366742e-04 1.37644951e-04 7.35928697e-05
      4.23383608e-05 -5.53457648e-05 -6.03625776e-05 -1.60888696e-04
      -9.27531291e-05 -7.18059309e-05 -3.87648906e-05 0. 0.
      2.64823593e-05 6.47832567e-05 2.39420060e-05 0. 0. 0. 0. 0.
      -3.50225055e-05 -3.50225055e-05 6.20612991e-05 7.57001981e-05
      8.45362229e-05 6.27435438e-05 5.15753818e-05 -1.24766948e-05
      3.51882263e-05 -5.56569685e-05 -6.03625776e-05 -8.77013736e-05
      -8.58256462e-05 -7.18059309e-05 -3.06171169e-05 0. 0.
      -1.36025956e-05 6.94888658e-05 2.39420060e-05 2.21402661e-05 0. 0.
      0. -8.60695654e-05 -3.50225055e-05 -3.50225055e-05 6.20612991e-05
      8.00422858e-05 7.98306137e-05 4.68697726e-05 1.81404230e-05
      -3.72424365e-05 -5.11925427e-05 -6.69535002e-05 -1.46432139e-04
      -8.77013736e-05 -8.58256462e-05 -7.18059309e-05 -3.06171169e-05 0.
      -2.54035376e-06 1.37362013e-05 6.94888658e-05 2.39420060e-05
      2.21402661e-05 0. 0. 0. 0. -8.60695654e-05 2.36738879e-06
      6.64033869e-05 3.88529188e-05 7.98306137e-05 4.68697726e-05
      3.02164239e-07 -3.75536401e-05 -5.11925427e-05 -6.69535002e-05
      -1.46432139e-04 -1.46220467e-04 -1.58186696e-04 -6.36581608e-05
      -3.06171169e-05 0. 1.80173924e-06 2.56804401e-06 6.94888658e-05
      -6.67511176e-06 2.21402661e-05 0. -3.30410439e-05 -3.30410439e-05
      -3.30410439e-05 -1.19110606e-04 -7.18880474e-05 1.67126509e-05
      3.88529188e-05 3.52274947e-05 -4.71464909e-06 -3.75536401e-05
      -3.75536401e-05 -3.75536401e-05 -5.11925427e-05 -1.46432139e-04
      -7.85192242e-05 -1.24834449e-04 -8.60695654e-05 0. 0.
      4.34209278e-06 3.31851625e-05 3.64478256e-05 -6.67511176e-06
      -1.09007779e-05 -3.30410439e-05 -3.30410439e-05 -3.30410439e-05
      -3.30410439e-05 -6.05915156e-05 -7.18880474e-05 -6.77693679e-05
      -3.24189059e-05 -4.70560917e-06 -4.22592493e-05 -3.75536401e-05
      -3.75536401e-05 -5.11925427e-05 -2.83476784e-05 -5.24056632e-05
      -2.43083305e-05 -8.60695654e-05 -8.60695654e-05 0. 0.
      2.64823593e-05 3.31851625e-05 2.52796672e-05 -6.67511176e-06
      -1.09007779e-05 -3.30410439e-05 -3.30410439e-05 -3.30410439e-05
      -6.05915156e-05 -6.05915156e-05 -6.10387215e-05 -3.31755655e-05
      5.40251567e-05 5.40251567e-05 4.38103125e-05 4.85159217e-05
      -3.75536401e-05 -1.77575803e-05 1.22374158e-05 -4.15884169e-05
      6.30878640e-06 -8.60695654e-05 -8.60695654e-05 0. 0.
      2.64823593e-05 7.07388026e-05 2.52796672e-05 -9.09903792e-06
      -1.09007779e-05 -1.09007779e-05 -3.30410439e-05 -6.05915156e-05
      -6.05915156e-05 -1.35811759e-04 -7.10404129e-05 -4.85620258e-05
      5.40251567e-05 5.40251567e-05 4.38103125e-05 4.85159217e-05
      8.19508859e-05 8.91706295e-05 6.38017300e-05 -2.67322575e-05
      -1.85844856e-05 -1.19110606e-04 -1.19110606e-04 -1.19110606e-04 0.
      2.64823593e-05 4.88659171e-05 6.23593369e-05 -6.55868462e-06
      -1.09007779e-05 -1.09007779e-05 -6.05915156e-05 -6.05915156e-05
      -9.40264799e-05 -8.23099908e-05 -4.85620258e-05 -4.85620258e-05
      -1.91621675e-05 5.40251567e-05 4.38103125e-05 9.16413701e-05
      9.88800602e-05 1.27026433e-04 3.19091669e-05 -1.85844856e-05
      -1.85844856e-05 -9.69703397e-05 -1.19110606e-04 -1.19110606e-04
      -3.30410439e-05 -2.86989507e-05 1.13122751e-05 -9.09903792e-06
      2.21402661e-05 -1.09007779e-05 -1.09007779e-05 -6.05915156e-05
      -9.40264799e-05 -1.52429726e-04 -1.60888696e-04 -4.85620258e-05
      -4.85620258e-05 -1.91621675e-05 5.40251567e-05 5.35008003e-05
      9.88800602e-05 1.10048219e-04 4.47625498e-05 -3.03739998e-05
      -4.61349591e-05 -1.85844856e-05 -9.69703397e-05 -1.19110606e-04
      -3.30410439e-05 0. 4.34209278e-06 1.82397598e-05 2.64823593e-05
      2.64823593e-05 2.21402661e-05 -5.41020609e-06 -6.05915156e-05
      -1.49889369e-04 -1.60888696e-04 -1.60888696e-04 -4.85620258e-05
      -4.85620258e-05 -3.49231268e-05 5.40251567e-05 5.38120039e-05
      5.85176131e-05 -9.45630836e-06 -1.92895295e-05 -9.44260755e-05
      -1.10187037e-04 -7.95699161e-05 -1.30405300e-04 -8.60695654e-05 0.
      0. 4.34209278e-06 5.38211571e-05 2.64823593e-05 2.64823593e-05
      2.21402661e-05 -5.41020609e-06 -3.44779583e-05 -1.16679497e-04
      -1.60888696e-04 -2.46958254e-04 -2.05062533e-04 -1.20992692e-04
      -1.20992692e-04 -5.41846748e-05 -4.22592493e-05 -3.75536401e-05
      -4.18957352e-05 -2.24935902e-05 -8.94823679e-05 -7.46262085e-05
      -6.34580501e-05 -1.56834038e-04 0. 0. 0. 4.34209278e-06
      6.40360013e-05 2.64823593e-05 2.21402661e-05 2.21402661e-05
      2.21402661e-05 -2.75504717e-05 -5.26274198e-05 -9.72305352e-05
      -2.13917214e-04 -1.72021479e-04 -1.58382580e-04 -8.79516447e-05
      -8.79516447e-05 -3.65570049e-05 -8.85469035e-06 -2.24935902e-05
      -6.23074084e-05 -6.70130175e-05 -6.70130175e-05 -8.27739786e-05
      -1.49865140e-04 -4.56461130e-05 0. 0. 0. 4.18957352e-05 0. 0. 0.
      0. -2.75504717e-05 -5.26274198e-05 -5.01566756e-05 -1.36226241e-04
      -1.07969405e-04 -9.43305058e-05 -9.43305058e-05 -8.13860970e-06
      1.01271405e-06 -1.99391598e-05 -3.35780605e-05 -3.35780605e-05
      -3.35780605e-05 -3.35780605e-05 -1.00386074e-04 -6.37955745e-05
      -5.41050904e-05 0. 0. 0. 4.18957352e-05 0. 0. 0. 0.
      -2.75504717e-05 -5.00870665e-05 -4.76163223e-05 -5.01566756e-05
      -1.26030363e-05 -1.26030363e-05 3.15792295e-06 3.15792295e-06
      -1.17924930e-04 -4.47376042e-05 -5.83765031e-05 -3.10377072e-05
      -3.10377072e-05 5.50318582e-05 -1.17761592e-05 -3.91149551e-05
      -4.26257284e-05 -2.75504717e-05 0. 0. 0. 0. 0. 0. 0. 0.
      -3.56982455e-05 -2.20593447e-05 -2.23705483e-05 1.54942973e-05
      1.54942973e-05 2.00870982e-05 -1.74665438e-05 -1.74665438e-05
      3.35805162e-05 3.51543968e-05 3.51543968e-05 3.51543968e-05
      4.67322352e-05 -2.04854623e-05 -1.35579776e-05 -3.56982455e-05
      -2.75504717e-05 -2.28448625e-05 4.70560917e-06 4.70560917e-06 0.
      0. 0. 0. -2.54035376e-06 1.10985457e-05 2.95077416e-06
      -2.45996980e-05 1.29539430e-05 1.29539430e-05 2.87149014e-05
      -8.83873963e-06 -8.83873963e-06 -8.83873963e-06 2.85694186e-05
      5.07096847e-05 5.07096847e-05 -1.35579776e-05 -1.35579776e-05
      -1.35579776e-05 -5.41020609e-06 -2.28448625e-05 -2.28448625e-05
      4.70560917e-06 0.</_>
    <_>
      -1.15318398e-05 -1.15318398e-05 -1.15318398e-05 -1.15318398e-05
      -1.15318398e-05 0. -3.42785779e-06 7.52474298e-05 -1.03220373e-05
      -1.03220373e-05 1.06866377e-04 1.14210954e-04 2.81910870e-05
      2.02925294e-05 2.02925294e-05 -2.28582558e-05 -4.33135137e-05
      -3.98856537e-05 -3.19870960e-05 -3.19870960e-05 -3.92489237e-05
      -3.46350535e-05 -3.92489237e-05 -3.08716772e-05 -3.08716772e-05 0.
      0. 0. 0. 0. 0. -7.94413208e-05 -7.66029189e-07 -2.63716879e-06
      -2.63716879e-06 4.78581933e-05 4.67427708e-05 3.88442131e-05
      3.14996360e-05 2.68619769e-05 -1.33022477e-05 -1.33022477e-05
      -1.13264159e-05 -1.94303975e-05 0. 0. -2.04552562e-05
      -2.04552562e-05 -1.93398355e-05 -1.93398355e-05 0. 0. 0. 0. 0.
      -7.60134644e-05 -3.75258992e-06 -7.75502667e-06 -7.75502667e-06
      -4.29432794e-06 2.89221407e-05 2.89221407e-05 2.78067182e-05
      1.76814410e-05 3.21089356e-05 -5.71099699e-05 -2.62231260e-05
      -1.33022477e-05 -1.13264159e-05 -7.89855858e-06 0. 0. 0.
      1.11542113e-06 1.11542113e-06 0. 0. 0. 0. 0. -7.90000195e-05
      -4.32716888e-06 -2.15732216e-05 -4.19457319e-05 -5.34775718e-05
      -1.03267857e-05 -5.71291275e-06 4.83070426e-06 -3.62929359e-06
      1.22120900e-05 -6.23008509e-06 -1.09262488e-04 -3.52248608e-05
      -2.51446108e-05 -1.13264159e-05 -7.89855858e-06 0. 0. 0.
      1.11542113e-06 4.61387299e-06 0. 0. 0. 0. -2.93015273e-05
      -3.17682570e-05 -4.32173510e-05 -4.32173510e-05 -6.65654838e-08
      -6.94903210e-05 -6.23745655e-05 -3.50281916e-05 -3.50281916e-05
      -2.74762624e-05 -7.27108272e-05 -1.28374042e-04 -7.44737845e-05
      -3.02624685e-05 -2.12607338e-05 -7.89855858e-06 0. 0. 0. 0.
      4.61387299e-06 0. 0. 0. 0. -4.58052928e-05 -4.34682370e-05
      -4.32173510e-05 -4.32173510e-05 4.54730753e-06 1.50909245e-05
      -2.90909193e-05 -1.55884081e-05 -2.63608417e-05 -2.74762624e-05
      -6.78756624e-05 -8.52232552e-05 -1.41679047e-04 -7.44737845e-05
      -5.79795524e-05 -1.13264159e-05 0. 0. 0. 0. 4.61387299e-06
      4.61387299e-06 0. 0. 0. -2.14661577e-05 -2.93359699e-05
      -2.92532222e-05 -2.92532222e-05 -2.46393502e-05 3.89893685e-05
      -1.35531309e-05 -1.17045292e-05 -2.63608417e-05 -2.63608417e-05
      -6.78756624e-05 -8.06093885e-05 -6.30037612e-05 -7.44737845e-05
      -6.43935346e-05 -4.17159899e-05 0. 0. 0. 0. 1.12736116e-05
      4.61387299e-06 0. 0. 0. 0. 6.82588725e-05 7.56034497e-05
      7.56034497e-05 8.02173236e-05 1.43312252e-04 7.79419715e-05
      7.20874450e-05 -2.24769647e-05 -4.90043658e-06 -6.78756624e-05
      -8.06093885e-05 -1.52391058e-05 -1.38692500e-04 -7.14872294e-05
      -5.71317069e-05 0. 0. 0. 5.45441844e-06 1.67585517e-06
      4.61387299e-06 0. 0. 0. 0. 7.86752862e-05 8.71352895e-05
      8.71352895e-05 1.77115307e-05 9.33631600e-05 1.20063058e-04
      8.81171509e-05 1.15914763e-05 -7.34457672e-06 -4.88594014e-05
      -8.06093885e-05 -1.52391058e-05 -1.38692500e-04 -7.14872294e-05
      -6.22495645e-05 -3.88387798e-06 0. 0. 6.18441345e-06
      1.22641519e-04 1.00682910e-05 0. 0. 0. 0. 0. 4.63766037e-06
      4.63766037e-06 3.57440767e-05 3.72460490e-05 7.07625441e-05
      7.87967438e-05 7.70759834e-06 -2.22671883e-06 -4.77439789e-05
      -6.57175542e-06 -1.52391058e-05 -5.54033322e-05 -6.95113922e-05
      -5.88217081e-05 -3.88387798e-06 0. -3.88387798e-06 8.18231456e-06
      6.60794321e-05 4.95043332e-06 4.61387299e-06 0. 0. 0.
      -7.40376272e-05 4.63766037e-06 -4.10256835e-05 -9.58266082e-06
      -4.82608630e-05 -5.11007647e-06 -6.07761012e-06 -7.34457672e-06
      -7.34457672e-06 -4.77439789e-05 2.03430682e-05 -1.22525453e-05
      1.18019361e-05 -6.22495645e-05 -1.38181949e-05 0. 0. 0.
      4.13987837e-05 -7.95819506e-06 -4.98388363e-06 4.61387299e-06 0.
      0. 0. -7.40376272e-05 -8.85560294e-05 -8.87463757e-05
      -8.03352450e-05 -8.71183802e-05 -1.41118117e-05 -1.60119271e-05
      -7.34457672e-06 -7.34457672e-06 -4.77439789e-05 2.44450493e-05
      5.49527213e-05 1.18019361e-05 -4.92331492e-05 0. 0. 0.
      5.45441844e-06 -2.58064847e-05 -9.93402682e-06 -3.74990373e-06
      4.61387299e-06 0. 0. 0. -2.98656073e-06 -9.05318593e-05
      -1.50513733e-04 -9.48834349e-05 -8.91541422e-05 -2.40461286e-05
      -1.60119271e-05 -7.34457672e-06 -7.34457672e-06 -1.78881928e-05
      -4.77439789e-05 -1.22525453e-05 6.00705789e-05 -6.63693718e-05
      -2.77669915e-05 0. 0. 5.45441844e-06 -2.46910640e-05
      -7.95819506e-06 -3.74990373e-06 4.61387299e-06 0. 0. 0. 0.
      -8.84627025e-06 -6.57864148e-05 -7.90658378e-05 -3.88430999e-05
      9.14284738e-06 -8.11336940e-06 5.53981579e-07 -7.34457672e-06
      -4.77439789e-05 -5.64113288e-05 -1.22525453e-05 -1.22525453e-05
      -6.63693718e-05 -4.71973908e-05 -2.77669915e-05 -7.31173532e-06
      2.75655566e-06 4.65166413e-05 6.19774510e-05 -3.74990373e-06
      4.61387299e-06 0. 0. 0. 0. 0. -4.54083020e-05 -4.79980408e-05
      6.61350932e-05 5.88233597e-05 1.96037163e-05 2.10092385e-05
      5.53981579e-07 -3.98454213e-05 -5.75267513e-05 -7.38979579e-05
      -7.57465605e-05 -1.38692500e-04 -5.44592185e-05 -2.77669915e-05
      -2.77669915e-05 2.75655566e-06 4.87433608e-05 6.19774510e-05
      -3.74990373e-06 4.61387299e-06 4.61387299e-06 0. 0. 0. 0.
      2.69148240e-05 3.42593994e-05 1.52239503e-04 1.53354937e-04
      1.17562711e-04 4.43785939e-06 5.53981579e-07 -2.93018038e-05
      -3.79691555e-05 -7.87331155e-05 -8.92767348e-05 -2.12730127e-04
      -6.95113922e-05 -3.92988331e-05 -2.77669915e-05 2.75655566e-06
      4.87433608e-05 1.23501930e-04 4.95043332e-06 4.61387299e-06
      4.61387299e-06 0. 0. -2.04552562e-05 1.00514853e-06 1.38041432e-05
      1.38041432e-05 4.84950906e-05 1.20252414e-04 9.36800279e-05
      9.01231615e-05 4.43785939e-06 -2.93018038e-05 -4.34235735e-05
      -8.81613159e-05 -8.92767348e-05 -1.34078626e-04 -6.95113922e-05
      -3.56655510e-05 -7.31173532e-06 -1.85731722e-06 4.13987837e-05
      5.55973293e-06 4.61387299e-06 4.61387299e-06 4.61387299e-06
      -2.77170857e-05 -3.92489237e-05 -3.92489237e-05 -3.92489237e-05
      -4.98952568e-06 -4.98952568e-06 2.97014212e-05 1.12990587e-04
      8.53027814e-05 2.48937231e-05 7.86571673e-06 -3.08723429e-05
      -6.48839778e-05 -8.81613159e-05 -8.81613159e-05 -1.34078626e-04
      -6.42253945e-05 -3.56655510e-05 -7.31173532e-06 -1.85731722e-06
      3.08551644e-05 5.55973293e-06 1.00682910e-05 4.61387299e-06
      4.61387299e-06 -3.92489237e-05 -1.13286558e-04 -1.13286558e-04
      -1.21185112e-04 -1.28880838e-05 -1.28880838e-05 2.48662600e-05
      1.12990587e-04 1.62263732e-05 2.48937231e-05 9.55571704e-06
      -3.08723429e-05 -8.33261511e-05 -8.81613159e-05 -8.81613159e-05
      -5.96115242e-05 -3.22383021e-05 -1.24295930e-05 -7.31173532e-06
      -1.85731722e-06 5.32190752e-05 1.00682910e-05 1.00682910e-05
      4.61387299e-06 4.61387299e-06 -9.28313020e-05 -1.83478376e-04
      -1.91376937e-04 -1.91376937e-04 -1.78577946e-04 -1.27261752e-04
      -1.27261752e-04 -3.32076888e-05 8.32781552e-06 -3.28410898e-08
      -8.91511718e-06 -4.26547813e-05 -8.33261511e-05 -8.81613159e-05
      -6.04442284e-05 -3.22383021e-05 -3.02624685e-05 -1.24295930e-05
      -7.31173532e-06 5.45441844e-06 1.74128672e-05 1.00682910e-05
      4.61387299e-06 4.61387299e-06 4.61387299e-06 -7.70241895e-05
      -1.51491287e-04 -1.70921689e-04 -1.96494802e-04 -1.99033806e-04
      -1.69178020e-04 -1.37174007e-04 -1.41057884e-04 -5.91627140e-05
      -1.27989952e-05 -4.26547813e-05 -3.63981017e-05 -5.56090672e-05
      -4.40772274e-05 2.12794384e-05 -3.22383021e-05 -2.03281506e-05
      -7.31173532e-06 -3.88387798e-06 0. 1.27989952e-05 0. 0. 0. 0.
      -7.70241895e-05 -7.70241895e-05 -7.55228248e-05 -1.42728095e-04
      -1.63668767e-04 -1.23269361e-04 -1.23269361e-04 -9.69737957e-05
      -2.99820786e-05 -3.67782513e-06 -3.35336117e-05 -3.35336117e-05
      2.31280392e-05 2.61145997e-05 -5.73958496e-05 -2.23039842e-05
      -7.31173532e-06 -3.42785779e-06 0. 0. 1.27989952e-05
      1.11542113e-06 0. 0. 0. 0. -8.04520459e-05 -7.15081478e-05
      -7.94067018e-05 -6.15185127e-05 -6.15185127e-05 -5.66833514e-05
      -5.66833514e-05 -6.40279250e-05 2.03766576e-05 -9.47912849e-06
      3.36716585e-05 2.61145997e-05 3.60489175e-05 -4.23436759e-05
      -2.69786256e-06 -3.42785779e-06 0. 0. 0. 0. 1.11542113e-06
      1.11542113e-06 0. 0. 0. -7.31173532e-06 -6.85215855e-05
      -5.79779698e-05 -5.36199550e-05 -6.15185127e-05 -5.66833514e-05
      -6.40279250e-05 -6.40279250e-05 1.46473631e-05 -2.49013101e-06
      8.55960752e-06 5.91454864e-06 4.81140487e-05 2.30143633e-06
      2.30143633e-06 0. 0. 8.66735081e-06 8.66735081e-06 8.66735081e-06
      1.11542113e-06 0. 0. 0. 0. 2.98557861e-05 3.49957118e-05
      3.49957118e-05 3.84564119e-05 -3.55812190e-05 -3.07460577e-05
      -3.80906313e-05 -3.80906313e-05 -3.80906313e-05 1.46127495e-05
      8.68300503e-06 8.46964685e-05 2.30143633e-06 2.30143633e-06
      5.72929412e-06 5.72929412e-06 8.66735081e-06 8.66735081e-06
      8.66735081e-06 0.</_>
    <_>
      6.50485345e-06 0. 0. 0. -2.24941523e-05 -2.24941523e-05
      -6.96268180e-05 -4.37918425e-05 -4.37918425e-05 -4.37918425e-05
      -4.37918425e-05 -4.37918425e-05 -4.26821680e-05 -4.26821680e-05
      -1.49533071e-05 -4.15202550e-07 -4.15202550e-07 -4.15202550e-07
      4.45049545e-06 4.45049545e-06 4.45049545e-06 9.37625282e-06
      4.45049545e-06 4.45049545e-06 4.45049545e-06 -1.59892988e-05
      -7.40773103e-05 -7.40773103e-05 -7.40773103e-05 -7.40773103e-05
      -7.40773103e-05 -7.40773103e-05 -4.82423384e-05 -2.12976884e-05
      2.58349737e-05 3.02854696e-05 3.02854696e-05 3.02854696e-05
      1.08816666e-05 -1.49533071e-05 -1.49533071e-05 -1.49533071e-05
      -4.15202550e-07 4.45049545e-06 4.45049545e-06 4.45049545e-06 0. 0.
      0. 0. -6.31219591e-05 -7.40773103e-05 -7.40773103e-05
      -7.40773103e-05 -4.71326603e-05 -4.71326603e-05 2.58349737e-05
      2.58349737e-05 2.58349737e-05 2.58349737e-05 2.58349737e-05
      3.02854696e-05 1.08816666e-05 1.08816666e-05 1.08816666e-05
      -1.49533071e-05 -1.49533071e-05 -1.49533071e-05 -4.15202550e-07
      4.45049545e-06 0. 0. 0. 0. 0. -3.61773127e-05 0. 0. 0. 0. 0.
      2.58349737e-05 2.58349737e-05 2.58349737e-05 2.58349737e-05
      2.58349737e-05 1.58074236e-05 1.58074236e-05 3.57091485e-05
      2.79614851e-05 1.08816666e-05 -1.49533071e-05 -2.99510593e-05
      -1.05472573e-05 -1.49977532e-05 -1.49977532e-05 0. 0. 0. 0.
      4.92575691e-06 0. 0. 0. 0. 0. 2.58349737e-05 2.58349737e-05
      2.58349737e-05 2.58349737e-05 1.62226261e-05 2.23122770e-05
      3.57091485e-05 5.28193850e-05 5.28193850e-05 6.74900220e-05
      -4.27309024e-05 -6.85658742e-05 -4.91620740e-05 -1.49977532e-05
      -1.49977532e-05 0. 0. 0. 0. -6.91515525e-05 0. 0. 0. 0. 0.
      2.58349737e-05 2.58349737e-05 2.58349737e-05 1.62226261e-05
      1.58074236e-05 1.70026688e-04 -8.72101373e-05 -3.55275370e-05
      1.24374026e-04 -2.15850378e-05 -2.65107956e-05 -1.15698538e-04
      -9.62947379e-05 -4.19423995e-05 -1.49977532e-05 0. 0. 0. 0.
      -4.22069061e-05 4.92575691e-06 0. 0. 0. 0. 2.58349737e-05
      2.58349737e-05 2.58349737e-05 1.44035308e-04 1.92302236e-04
      -2.55543837e-05 -2.90226853e-05 -5.05252901e-05 -4.03592421e-05
      -2.15850378e-05 -2.15850378e-05 -8.98635626e-05 -1.01160433e-04
      -1.49977532e-05 -1.49977532e-05 0. 0. 0. 0. 4.92575691e-06
      4.92575691e-06 0. 0. 0. 0. 2.58349737e-05 2.58349737e-05
      1.39109557e-04 1.39169613e-04 -3.20592371e-05 -2.90226853e-05
      -4.40204385e-05 -5.05252901e-05 -6.50485345e-06 -3.21712264e-06
      -2.15850378e-05 -8.49378048e-05 -1.01160433e-04 -1.49977532e-05
      -1.49977532e-05 0. 0. 0. 0. 4.92575691e-06 4.92575691e-06 0. 0. 0.
      0. 2.58349737e-05 2.58349737e-05 6.43117073e-06 -1.28642903e-04
      -3.55275370e-05 6.39112623e-05 6.39112623e-05 6.75724586e-05
      -6.50485345e-06 1.04714578e-04 -2.15850378e-05 -8.49378048e-05
      -1.01160433e-04 -1.49977532e-05 0. 0. 0. 0. 4.92575691e-06
      4.17160809e-05 4.92575691e-06 0. 0. 0. 0. 0. 1.12968692e-05
      -1.53470392e-04 -3.24110661e-05 3.75046802e-05 2.53951803e-05
      4.52969070e-05 -6.50485345e-06 -6.50485345e-06 2.32527265e-04
      -2.15850378e-05 -2.15850378e-05 -8.93883043e-05 -1.49977532e-05
      -1.49977532e-05 0. 0. 0. 4.92575691e-06 2.67183259e-05
      4.92575691e-06 4.92575691e-06 0. 0. -7.40773103e-05
      -1.45381046e-05 6.43117073e-06 -1.53470392e-04 -5.90789859e-05
      8.72427700e-06 1.88903268e-05 1.18474045e-05 5.16531372e-06
      -6.50485345e-06 3.06604576e-04 8.63466630e-05 -2.15850378e-05
      -8.93883043e-05 -1.98634516e-05 -1.49977532e-05 0. 0. 0.
      9.37625282e-06 1.53477758e-05 9.37625282e-06 4.92575691e-06 0. 0.
      -8.86154157e-05 -1.45381046e-05 -1.79305367e-04 -7.22066106e-05
      -5.90789859e-05 1.88903268e-05 1.88903268e-05 -2.36150900e-05
      5.16531372e-06 6.75724586e-05 1.78791888e-04 9.65127110e-05
      -2.15850378e-05 -8.93883043e-05 -1.98634516e-05 -1.49977532e-05 0.
      0. 0. 9.37625282e-06 1.53477758e-05 9.37625282e-06 4.92575691e-06
      0. -1.45381046e-05 -8.86154157e-05 -3.07118054e-04 -1.90975523e-04
      -9.80415862e-05 -6.40047438e-05 1.88903268e-05 -4.35168149e-05
      -2.36150900e-05 3.21099615e-05 6.75724586e-05 1.78791888e-04
      9.65127110e-05 -2.15850378e-05 -8.93883043e-05 -1.98634516e-05
      -1.49977532e-05 0. 0. 0. 1.37188938e-04 9.17681100e-05
      9.37625282e-06 4.92575691e-06 -1.45381046e-05 -1.45381046e-05
      -9.34811105e-05 -3.33785953e-04 -2.05973280e-04 -9.80415862e-05
      -8.98397193e-05 -4.35168149e-05 -2.41130128e-05 -1.87493915e-05
      7.92426217e-05 6.75724586e-05 -1.08922359e-04 9.65127110e-05
      -1.14189870e-05 -8.93883043e-05 -2.95358568e-05 -1.49977532e-05 0.
      0. 4.92575691e-06 1.22191181e-04 2.19580790e-04 9.37625282e-06
      -9.61234764e-06 -1.45381046e-05 -3.44015571e-05 -1.20149030e-04
      -3.33785953e-04 -3.33785953e-04 -9.80415862e-05 -1.72118889e-04
      -5.51869816e-05 -4.35168149e-05 5.53279169e-05 7.92426217e-05
      6.75724586e-05 -1.82999662e-04 -1.91201529e-04 -1.14189870e-05
      -8.93883043e-05 -1.03613165e-04 -1.49977532e-05 -1.49977532e-05 0.
      4.92575691e-06 1.22191181e-04 2.19580790e-04 4.92575691e-06
      -9.61234764e-06 -2.46101008e-05 -3.44015571e-05 -1.20149030e-04
      -3.33785953e-04 -3.33785953e-04 -9.80415862e-05 -1.61952848e-04
      -5.51869816e-05 -5.51869816e-05 -3.52852585e-05 -6.50485345e-06
      -1.34317539e-04 -1.91201529e-04 -1.91201529e-04 -1.58694838e-05
      -8.93883043e-05 -1.20149030e-04 -1.15283336e-04 -1.00745230e-04
      -1.49977532e-05 -1.00719963e-05 1.22191181e-04 1.63023913e-04
      4.92575691e-06 -9.61234764e-06 -2.46101008e-05 -3.44015571e-05
      -1.20149030e-04 -3.33785953e-04 -2.25854266e-04 -9.80415862e-05
      -1.61952848e-04 -8.59477150e-05 -5.51869816e-05 -3.52852585e-05
      -6.50485345e-06 -1.34317539e-04 -1.91201529e-04 9.20622115e-05
      -1.58694838e-05 -8.93883043e-05 -1.15223273e-04 -1.20149030e-04
      -1.15283336e-04 -1.49977532e-05 -1.49977532e-05 9.37625282e-06
      4.92575691e-06 4.92575691e-06 4.92575691e-06 -2.46101008e-05
      -3.44015571e-05 -3.44015571e-05 -3.44015571e-05 -3.22115811e-04
      -8.63714158e-05 2.11508872e-04 -8.40210032e-06 3.05604954e-05
      5.04622185e-05 -4.85700621e-05 -6.02402288e-05 9.65127110e-05
      -1.58694838e-05 -7.92222490e-05 -8.93883043e-05 -1.15223273e-04
      -1.20149030e-04 -6.13462034e-05 -1.49977532e-05 0. 1.58811054e-05
      1.50918077e-05 1.50918077e-05 4.92575691e-06 -1.00719963e-05
      -2.95358568e-05 -3.44015571e-05 -3.44015571e-05 -3.44015571e-05
      7.35301437e-05 2.01342831e-04 2.15959371e-04 2.23586303e-05
      -7.73504653e-05 -4.85700621e-05 -6.84420957e-05 1.66139522e-04
      -7.92222490e-05 -8.93883043e-05 -8.93883043e-05 -2.94757992e-05
      -3.44015571e-05 -1.94038021e-05 -1.45381046e-05 0. 1.14306104e-05
      1.50918077e-05 1.50918077e-05 1.50918077e-05 4.92575691e-06
      -1.49977532e-05 -2.95358568e-05 -3.44015571e-05 -3.44015571e-05
      -3.44015571e-05 7.35301437e-05 7.35301437e-05 9.93651192e-05
      -1.63521647e-04 -1.34741247e-04 1.41302837e-04 6.56760603e-05
      -8.93883043e-05 -8.93883043e-05 -8.93883043e-05 -3.44015571e-05
      -1.94038021e-05 -4.86569797e-06 0. 6.50485345e-06 1.14306104e-05
      1.50918077e-05 1.50918077e-05 1.50918077e-05 4.92575691e-06 0. 0.
      0. 0. 0. -4.86569797e-06 1.03065999e-04 8.85278932e-05
      1.39190350e-04 1.52973007e-04 1.41302837e-04 -1.53109922e-05
      -8.93883043e-05 -8.93883043e-05 -8.93883043e-05 -1.94038021e-05
      -4.86569797e-06 -4.86569797e-06 6.50485345e-06 6.50485345e-06
      1.66709033e-05 1.01660507e-05 1.01660507e-05 1.01660507e-05 0. 0.
      0. 0. 0. 0. 0. 0. 1.07931701e-04 1.19228564e-04 6.00390558e-05
      2.79614851e-05 -3.64082507e-06 -3.64082507e-06 -3.64082507e-06
      -1.44780461e-05 -4.86569797e-06 -4.86569797e-06 1.63915536e-06
      6.50485345e-06 1.66709033e-05 1.66709033e-05 1.01660507e-05
      1.01660507e-05 1.01660507e-05 0. 0. 0. 0. 0. 0. 0. 0. 0. 0.
      1.62226261e-05 1.13569276e-05 1.13569276e-05 1.13569276e-05
      1.13569276e-05 -1.44780461e-05 6.00587171e-08 1.63915536e-06
      6.50485345e-06 6.50485345e-06 1.66709033e-05 1.66709033e-05
      1.01660507e-05 1.01660507e-05 1.01660507e-05 1.01660507e-05
      1.01660507e-05 1.01660507e-05 0. 0. 0. 0. 0. 0. 0. 1.12968692e-05
      1.62226261e-05 1.13569276e-05 1.13569276e-05 1.13569276e-05
      6.00587171e-08 6.56491238e-06 6.50485345e-06 6.50485345e-06
      6.50485345e-06 1.66709033e-05 1.66709033e-05 1.01660507e-05
      1.01660507e-05 1.01660507e-05 1.01660507e-05 1.01660507e-05
      1.01660507e-05 1.01660507e-05 0. 0. 0. 0. 0. 0. 0. 1.12968692e-05
      1.62226261e-05 1.13569276e-05 6.00587171e-08 6.00587171e-08
      1.14306104e-05 1.14306104e-05 6.50485345e-06 6.50485345e-06
      1.66709033e-05 1.66709033e-05</_>
    <_>
      0. 0. 0. 0. 6.78621655e-06 6.78621655e-06 -2.61055338e-05
      6.09845010e-05 2.57315078e-05 2.57315078e-05 4.58492650e-05
      7.49572428e-05 -4.71321073e-05 -4.71321073e-05 -4.71321073e-05
      -6.72498645e-05 -6.72498645e-05 -6.35921315e-05 -5.77007959e-05
      -2.48090437e-05 -2.48090437e-05 2.32086149e-05 1.04439478e-05
      1.42748349e-05 1.06171037e-05 6.78621655e-06 0. 0. 0. 0.
      -3.28917486e-05 -3.28917486e-05 4.83069452e-05 1.68848401e-05
      1.68848401e-05 7.28967862e-05 6.90658999e-05 6.90658999e-05
      3.99579258e-05 -9.52812770e-05 -1.15399031e-04 -1.15399031e-04
      -6.72498645e-05 -4.46241611e-05 -3.50750925e-05 -2.48090437e-05
      -3.15952602e-05 3.65773076e-06 7.48861839e-06 3.83088764e-06
      6.78621655e-06 0. 0. 0. 0. -3.28917486e-05 5.41982845e-05
      5.21378315e-05 -1.55342525e-06 2.75545499e-05 4.76723071e-05
      5.44585237e-05 5.06276374e-05 -2.66295065e-05 -1.89102266e-05
      -1.13719543e-04 -1.33837297e-04 -1.33837297e-04 -4.46241611e-05
      -3.43581160e-05 -3.15952602e-05 3.65773076e-06 3.65773076e-06
      7.48861839e-06 3.83088764e-06 6.78621655e-06 0. 0. 0. 0.
      -3.28917486e-05 5.80291708e-05 5.21378315e-05 2.75545499e-05
      2.46040199e-05 4.75840534e-05 6.71349408e-05 3.18046950e-05
      -2.28555946e-05 -3.94606977e-05 -4.84391894e-05 -1.48243213e-04
      -1.25617502e-04 -7.74683358e-05 -5.36912557e-05 -3.52529933e-05
      3.65773076e-06 3.65773076e-06 3.65773076e-06 -1.64368303e-05
      1.64223984e-05 0. 0. 0. -2.26257034e-05 -5.90508062e-05
      1.17084471e-06 5.60686158e-06 -4.80843955e-05 -2.51043602e-05
      1.67375019e-05 -1.54047643e-06 -2.70213204e-05 -2.70213204e-05
      -3.46926427e-05 -7.63754579e-05 -8.94944606e-05 -1.56316775e-04
      -1.56316775e-04 -2.13887961e-05 -2.32182483e-05 -1.66099871e-05
      -1.66099871e-05 -1.66099871e-05 -2.02677184e-05 1.64223984e-05 0.
      0. 0. -3.28917486e-05 -5.90508062e-05 -1.77968582e-06
      -1.28314032e-05 -5.88892690e-05 1.33363983e-05 3.29415416e-05
      1.79357392e-06 2.08665529e-06 -2.70213204e-05 -3.46926427e-05
      -5.58146603e-05 -1.38559935e-05 -1.21063786e-04 -1.21063786e-04
      -2.72801353e-05 -4.16565126e-05 -1.66099871e-05 -1.66099871e-05
      -1.66099871e-05 -2.02677184e-05 1.64223984e-05 1.64223984e-05 0.
      -1.02660470e-05 -3.28917486e-05 -5.31594669e-05 -1.77968582e-06
      -2.64985538e-05 7.21689787e-07 1.85860026e-05 5.06009019e-06
      8.39414042e-06 2.23543720e-05 1.16846622e-05 1.37355673e-05
      3.76793400e-06 2.32382790e-05 -9.64414630e-06 -6.60349106e-05
      -2.95053042e-06 -2.32182483e-05 -1.95605171e-05 3.65773076e-06 0.
      0. 2.41416801e-05 1.64223984e-05 0. -1.02660470e-05
      -3.87830878e-05 -5.90508062e-05 -1.77968582e-06 -2.64985538e-05
      -2.98120740e-05 -6.00969288e-05 8.39414042e-06 6.67061759e-05
      8.06664102e-05 5.15584325e-05 6.59068101e-05 3.77503675e-05
      6.00829881e-05 5.72207136e-05 -4.43134813e-05 -2.32182483e-05
      -2.02677184e-05 -2.02677184e-05 -1.66099871e-05 -2.02677184e-05
      -2.02677184e-05 -4.16450748e-05 1.64223984e-05 0. -1.02660470e-05
      -5.31594669e-05 -5.90508062e-05 -4.57702663e-05 -2.64985538e-05
      -2.98120740e-05 -6.39373611e-05 4.71921157e-06 5.87359318e-05
      6.49203503e-05 6.97472424e-05 6.59068101e-05 4.97633810e-05
      6.00829881e-05 5.72207136e-05 -4.13629532e-05 -2.02677184e-05
      -2.02677184e-05 -2.02677184e-05 -1.66099871e-05 -2.02677184e-05
      -7.50304889e-06 5.77415522e-05 1.64223984e-05 0. -1.02660470e-05
      -5.31594669e-05 -8.97500795e-05 -1.32860296e-04 -5.94374178e-05
      -1.10900110e-04 -4.70077612e-05 -3.32297641e-05 3.56509590e-05
      1.96549918e-05 3.58123762e-05 5.22396622e-05 3.99271194e-05
      1.76143385e-05 2.49182503e-05 5.17055341e-05 -2.02677184e-05
      -2.02677184e-05 -2.02677184e-05 -1.66099871e-05 0. 2.04839489e-05
      5.18502129e-05 1.64223984e-05 2.49862137e-06 -1.02660470e-05
      -5.90508062e-05 -8.97500795e-05 -1.14422037e-04 -1.07586588e-04
      -1.10900110e-04 -5.08386511e-05 -3.32297641e-05 -1.31120069e-05
      -3.27657071e-05 -3.27657071e-05 1.43608468e-05 2.04830394e-06
      3.58031502e-05 -8.51232653e-06 -1.98403122e-05 -5.55207080e-05
      -2.02677184e-05 -2.02677184e-05 3.65773076e-06 0. 4.73879227e-05
      6.21162617e-05 2.32086149e-05 1.27646681e-05 -1.02660470e-05
      -3.05337635e-05 -6.71243761e-05 -1.62571203e-04 -1.94676613e-04
      -9.27112924e-05 -5.08386511e-05 -3.65638152e-05 7.15571014e-06
      -1.24979888e-05 -1.24979888e-05 -1.24979888e-05 -2.86509658e-05
      -1.57274699e-05 -3.02337558e-05 -3.82785765e-05 -9.18135629e-05
      -5.55207080e-05 -2.02677184e-05 3.65773076e-06 0. 3.12305383e-05
      5.91657299e-05 2.32086149e-05 1.27646681e-05 0. 0. -1.15273542e-04
      -1.39945507e-04 -1.81009469e-04 -1.47410610e-04 -3.96778705e-05
      -1.62960987e-05 7.15571014e-06 -3.27657071e-05 -3.27657071e-05
      -3.27657071e-05 -4.55846312e-05 -2.86509658e-05 -6.97748910e-05
      -3.98822485e-05 -1.10251829e-04 -6.91878595e-05 -5.55207080e-05 0.
      0. 4.09527638e-05 1.69079012e-05 2.32086149e-05 1.27646681e-05 0.
      -4.81491697e-05 -4.81491697e-05 -8.17989712e-05 -1.20504948e-04
      -1.06130690e-04 -7.63940479e-05 2.15881437e-06 2.25696531e-05
      -1.10442779e-05 -3.27657071e-05 -3.66061395e-05 -4.89186823e-05
      -4.89186823e-05 -8.00409398e-05 -7.94233856e-05 -1.34923786e-04
      -9.18135629e-05 -5.55207080e-05 0. 1.27646681e-05 3.71218775e-05
      1.30770140e-05 2.32086149e-05 1.27646681e-05 0. -4.81491697e-05
      -4.81491697e-05 -5.10996979e-05 -5.10996979e-05 -2.22719573e-05
      -1.29274076e-05 6.84041588e-05 6.84041588e-05 6.85751365e-05
      3.78758632e-05 3.78758632e-05 -1.36656909e-05 -3.24818539e-05
      -7.20285825e-05 -7.60788171e-05 -1.93339001e-04 -9.18135629e-05
      -6.91878595e-05 0. 1.27646681e-05 8.01536298e-05 6.12261792e-05
      1.64223984e-05 1.27646681e-05 -3.53844989e-05 -4.81491697e-05
      -4.81491697e-05 -4.81491697e-05 -5.10996979e-05 -3.83369161e-06
      2.81365610e-05 1.15778908e-04 8.68424249e-05 8.70133954e-05
      6.85751365e-05 3.78758632e-05 7.72074054e-06 -2.09316840e-05
      -7.91078783e-05 -8.96894344e-05 -2.24038275e-04 -1.53179310e-04
      -6.91878595e-05 -2.02677184e-05 1.27646681e-05 7.64958968e-05
      6.12261792e-05 1.64223984e-05 1.27646681e-05 1.27646681e-05
      -4.81491697e-05 -4.81491697e-05 -4.81491697e-05 -2.99603562e-05
      2.82248147e-05 1.08193735e-05 2.12327213e-05 1.21087425e-04
      8.70133954e-05 6.85751365e-05 3.40354309e-05 7.72074054e-06
      7.53509084e-06 -8.58585481e-05 -8.96894344e-05 -1.64744240e-04
      -1.53179310e-04 -1.39962736e-04 -2.02677184e-05 -2.02677184e-05
      2.71202061e-05 -3.13790297e-05 -3.84531813e-06 1.27646681e-05
      1.27646681e-05 -4.81491697e-05 -4.81491697e-05 -4.81491697e-05
      -6.84168845e-05 -2.11200986e-05 4.92803383e-06 1.53413821e-05
      1.15196082e-04 1.05808213e-04 5.63141293e-05 1.23140026e-05
      -5.94641006e-06 -3.97309159e-05 -8.58585481e-05 -8.58585481e-05
      -1.38585194e-04 -1.61351534e-04 -1.17337026e-04 -2.02677184e-05
      -2.02677184e-05 1.94009244e-05 -3.50367591e-05 -7.50304889e-06
      -7.50304889e-06 -1.33943886e-05 -2.61590576e-05 -1.39275842e-04
      -1.39275842e-04 -1.08576576e-04 -6.12797885e-05 -2.93403191e-05
      -2.51113925e-05 6.47703419e-05 1.91049676e-05 1.61544358e-05
      -1.35314849e-06 7.53509084e-06 -4.74501976e-05 -7.99672052e-05
      -5.82457797e-05 -1.28319138e-04 -1.42913268e-04 -5.55207080e-05
      -2.02677184e-05 -2.02677184e-05 1.26147088e-05 -6.24383756e-06
      -7.50304889e-06 -7.50304889e-06 -2.36604355e-05 -2.61590576e-05
      -7.85797529e-05 -9.70180190e-05 -1.10685171e-04 -8.15771928e-05
      -4.12431837e-05 -3.83809092e-05 -1.40533839e-05 -1.34840070e-06
      -4.29893134e-06 1.21283529e-05 -2.15421042e-05 -5.03124720e-05
      -6.41371153e-05 -2.31718022e-05 -1.22645550e-04 -4.89201411e-05
      -3.52529933e-05 0. 0. 2.16049266e-05 -6.24383756e-06
      -6.24383756e-06 -7.50304889e-06 -1.77690963e-05 -3.64251027e-05
      -8.88458017e-05 -1.10234600e-04 -1.23901744e-04 -9.47937733e-05
      -6.23825254e-05 -5.91001372e-05 -5.91001372e-05 -7.01124782e-06
      1.31065099e-05 -2.31451686e-05 -4.25931939e-05 -6.38440397e-05
      -3.31447663e-05 -2.31718022e-05 -1.22645550e-04 -3.52529933e-05
      -3.52529933e-05 0. 0. 2.91079759e-05 -1.90085066e-05
      -1.90085066e-05 -1.90085066e-05 -2.92745535e-05 -3.51658928e-05
      -3.51658928e-05 -8.39199056e-05 -7.85785523e-05 -5.28046257e-05
      -6.43769963e-05 -8.60984292e-05 -6.76165364e-05 -1.80759398e-05
      -4.76910609e-05 -1.82749354e-05 -1.95341472e-05 -2.72534289e-05
      -2.72534289e-05 -8.59322317e-05 -3.52529933e-05 -3.52529933e-05 0.
      0. 0. 2.91079759e-05 5.09009897e-06 1.25921144e-06 -1.90085066e-05
      -2.92745535e-05 -9.00683517e-06 -9.00683517e-06 -9.88252668e-06
      -3.42121311e-05 -1.10520259e-05 -1.10520259e-05 -6.47972047e-05
      -6.47972047e-05 -9.26459688e-05 -3.71095484e-05 -4.04435996e-05
      -1.56937131e-05 -4.97472956e-06 -4.97472956e-06 -5.31144578e-05
      -1.86478901e-05 -3.14125573e-05 3.84043369e-06 3.84043369e-06 0.
      0. 8.93053311e-06 8.93053311e-06 5.09964548e-06 -5.16640148e-06
      -5.16640148e-06 -5.16640148e-06 -1.83235136e-06 -1.55018661e-05
      1.23468981e-05 1.23468981e-05 -4.52387139e-05 -7.43466881e-05
      -9.39051824e-05 -6.81514803e-06 -2.89160162e-05 2.18701771e-05
      1.41508972e-05 3.39755752e-05 -2.50830490e-05 -1.48170020e-05
      3.84043369e-06 3.84043369e-06 3.84043369e-06 0. 0. -3.92186339e-05
      5.09964548e-06 5.09964548e-06 5.09964548e-06 5.09964548e-06
      -1.83235136e-06 5.88692956e-06 4.62771777e-06 3.37356942e-05
      -1.51729830e-06 -4.17474757e-06 -3.32827221e-05 -3.32827221e-05
      -3.32827221e-05 5.34237915e-05 5.84691770e-05 5.84691770e-05
      -2.50830490e-05 -1.48170020e-05 2.04359894e-05 2.04359894e-05
      3.84043369e-06 3.84043369e-06 3.84043369e-06 3.84043369e-06</_>
    <_>
      0. 0. 0. 0. 1.35622022e-05 1.35622022e-05 1.35622022e-05
      1.60471845e-05 1.60471845e-05 1.60471845e-05 3.69639420e-05
      5.70035663e-05 1.35622022e-05 4.55324262e-05 4.55324262e-05
      3.49507900e-05 1.35622022e-05 1.35622022e-05 1.35622022e-05
      1.35622022e-05 1.35622022e-05 1.35622022e-05 -8.08838086e-05
      -8.08838086e-05 -8.08838086e-05 1.35622022e-05 0. 0. 0. 0. 0. 0.
      2.48498282e-06 2.48498282e-06 2.48498282e-06 3.60868107e-05
      3.60868107e-05 1.08860506e-04 8.88208815e-05 4.55324262e-05
      3.49507900e-05 1.35622022e-05 1.35622022e-05 1.35622022e-05
      1.35622022e-05 1.35622022e-05 0. 0. 0. 0. 1.35622022e-05 0. 0. 0.
      0. 0. 2.48498282e-06 -4.89370177e-05 -4.89370177e-05
      -2.88973915e-05 -2.88973915e-05 6.51589362e-05 6.51589362e-05
      4.51193118e-05 3.73988805e-05 -5.88957482e-06 1.35622022e-05
      1.35622022e-05 1.35622022e-05 1.35622022e-05 0. 0. 0. 0. 0.
      1.35622022e-05 0. 0. 0. 0. -5.14220010e-05 -4.89370177e-05
      -4.89370177e-05 -2.88973915e-05 -1.23343401e-04 -7.79246693e-05
      -1.58385647e-05 4.20361794e-05 2.44093426e-05 1.02088934e-05
      -3.30073708e-05 -1.32305810e-04 -3.78597979e-05 -3.78597979e-05 0.
      0. 0. 0. 0. 0. 0. 0. 0. 0. 0. -5.14220010e-05 -4.89370177e-05
      -2.88973915e-05 -2.88973915e-05 -2.60886562e-04 -2.14307962e-04
      -1.42871009e-04 -1.41668032e-04 -8.80629595e-05 -4.37702220e-05
      -1.78096991e-04 -2.77323241e-04 -3.78597979e-05 -3.78597979e-05
      -5.14220010e-05 0. 0. 0. 0. 0. 0. 0. 0. 0. -5.14220010e-05
      -5.14220010e-05 -4.89370177e-05 -2.88973915e-05 2.53545895e-05
      -2.25361422e-04 -1.42871009e-04 -1.23639489e-04 -1.40177349e-06
      -3.60497907e-05 -4.37702220e-05 -1.53030080e-04 -2.77323241e-04
      -3.78597979e-05 -3.78597979e-05 0. 0. 0. 0. 0. 0. 3.19702231e-05
      0. 0. 0. -5.14220010e-05 -5.14220010e-05 -4.89370177e-05
      -2.88973915e-05 4.76834102e-05 -9.39574238e-05 2.22012495e-05
      -2.02315914e-05 -1.40177349e-06 -3.60497907e-05 -4.23684469e-05
      -1.53030080e-04 -2.77323241e-04 -3.53748146e-05 -3.78597979e-05
      -5.14220010e-05 0. 0. 0. 0. 0. 3.19702231e-05 0. 0. 0.
      -5.14220010e-05 -5.14220010e-05 -4.89370177e-05 -1.42890012e-05
      6.87993861e-06 1.07970947e-04 2.21716822e-04 2.73729995e-04
      2.92559824e-04 2.57911801e-04 -6.32852025e-05 -1.51628308e-04
      -2.63874739e-04 -3.53748146e-05 -3.78597979e-05 -5.14220010e-05
      -5.14220010e-05 0. 0. 0. 0. 3.19702231e-05 0. 0. 0. 0. 0.
      2.48498282e-06 2.25246094e-05 5.05815078e-05 1.32995410e-04
      2.41168600e-04 2.93181773e-04 3.43981810e-04 2.59313587e-04
      -6.32852025e-05 -1.51628308e-04 3.00868651e-05 -3.53748146e-05
      -3.78597979e-05 -5.14220010e-05 -5.14220010e-05 -5.14220010e-05 0.
      0. 0. 4.80174094e-05 2.13885887e-05 0. 0. 0. 0. 0. 2.48498282e-06
      1.59334923e-05 5.27918455e-05 1.32357163e-04 2.55212770e-04
      3.25343979e-04 1.67739836e-05 -6.32852025e-05 -1.51628308e-04
      3.00868651e-05 -3.53748146e-05 -4.89370177e-05 -5.14220010e-05
      -5.14220010e-05 -5.14220010e-05 0. 0. 0. 4.63880424e-05
      3.19702231e-05 0. 0. 0. 0. 0. 2.48498282e-06 1.59334923e-05
      3.59731166e-05 8.09624398e-05 1.51804867e-04 2.00547482e-04
      1.67739836e-05 -6.32852025e-05 -1.09104752e-04 3.00868651e-05
      -2.19263075e-05 -4.89370177e-05 -5.14220010e-05 -5.14220010e-05
      -5.14220010e-05 0. 0. 1.35622022e-05 6.32067677e-05 4.55324262e-05
      0. 0. 0. 0. 0. 0. 1.59334923e-05 3.59731166e-05 8.23642113e-05
      1.51804867e-04 2.00547482e-04 -3.46480192e-05 -6.32852025e-05
      7.26716871e-06 3.14886383e-05 -2.19263075e-05 -4.89370177e-05
      -5.14220010e-05 -5.14220010e-05 -5.14220010e-05 0. 0.
      1.35622022e-05 2.48160868e-05 4.55324262e-05 0. 0. 0. 0. 0. 0. 0.
      3.59731166e-05 8.23642113e-05 1.00382873e-04 -2.90015105e-05
      -3.46480192e-05 -1.00243196e-04 5.03184565e-05 5.03184565e-05
      -2.19263075e-05 -4.89370177e-05 -5.14220010e-05 -5.14220010e-05 0.
      0. 0. 1.35622022e-05 2.24032974e-05 4.55324262e-05 0. 0. 0. 0. 0.
      0. 0. 3.34881370e-05 1.41234841e-05 1.19212687e-04 -7.20527969e-05
      -3.46480192e-05 -1.00243196e-04 5.27312477e-05 -1.69471582e-06
      -2.05245342e-05 -4.89370177e-05 -5.14220010e-05 0. 0. 0. 0.
      1.35622022e-05 2.24032974e-05 4.55324262e-05 0. 0. 0. 0. 0. 0.
      -5.14220010e-05 -1.79338658e-05 4.97720321e-05 1.19212687e-04
      -7.20527969e-05 -3.46480192e-05 9.92723872e-05 5.03184565e-05
      -1.69471582e-06 -1.69471582e-06 -4.89370177e-05 0. 0. 0. 0. 0.
      3.36018275e-05 4.63880424e-05 3.19702231e-05 0. 0. 0. 0. 0.
      -5.14220010e-05 -5.14220010e-05 -1.65320926e-05 4.97720321e-05
      4.80145864e-05 -7.20527969e-05 -3.46480192e-05 4.16501825e-05
      5.03184565e-05 -1.69471582e-06 1.73352655e-05 2.48498282e-06 0. 0.
      0. 0. 0. 3.36018275e-05 -4.64286022e-05 2.13885887e-05 0. 0. 0. 0.
      -5.14220010e-05 -5.14220010e-05 -3.13823730e-05 -1.65320926e-05
      4.72870488e-05 -8.03028888e-05 -7.20527969e-05 -3.46480192e-05
      1.36096191e-04 5.03184565e-05 3.61650818e-05 3.88675653e-06
      2.48498282e-06 0. 0. 0. 0. 0. 1.35622022e-05 3.19702231e-05
      2.13885887e-05 0. 0. 0. 0. -5.14220010e-05 -5.14220010e-05
      -3.13823730e-05 -1.65320926e-05 4.72870488e-05 -1.74748900e-04
      -7.20527969e-05 -3.46480192e-05 1.76899674e-04 5.03184565e-05
      3.61650818e-05 3.88675653e-06 2.48498282e-06 0. 0. 0. 0. 0.
      1.35622022e-05 3.33719981e-05 1.40177349e-06 0. 0. 0. 0.
      -5.14220010e-05 -5.14220010e-05 -3.13823730e-05 -1.79338658e-05
      3.61776620e-05 -1.64167272e-04 -7.20527969e-05 6.08577648e-06
      1.36096191e-04 3.67562534e-05 3.61650818e-05 2.48498282e-06
      2.48498282e-06 0. 0. 0. 0. 0. 0. 3.33719981e-05 1.40177349e-06
      1.40177349e-06 0. 0. 0. 0. 0. -3.13823730e-05 -3.13823730e-05
      -3.32547506e-06 -1.79131239e-04 -8.70167714e-05 1.84506862e-04
      1.72554224e-04 8.67764829e-05 2.13148014e-05 2.48498282e-06
      2.48498282e-06 0. 0. 0. 0. 0. 2.00396262e-05 2.27903620e-05
      1.40177349e-06 1.40177349e-06 0. 0. 0. 0. 0. 2.00396262e-05
      2.00396262e-05 -2.88296542e-05 -1.79291281e-04 -6.58620120e-05
      2.65504350e-04 1.48524079e-04 7.33279740e-05 2.13148014e-05
      2.13148014e-05 2.48498282e-06 0. 0. 0. 0. 0. 2.14413994e-05
      2.27903620e-05 1.40177349e-06 1.40177349e-06 0. 0. 0. 0. 0.
      2.00396262e-05 2.00396262e-05 -2.29045054e-05 -1.60461466e-04
      -6.58620120e-05 1.92574429e-04 4.51161795e-05 2.13148014e-05
      2.13148014e-05 2.13148014e-05 0. 0. 0. 0. 0. 1.40177349e-06
      2.14413994e-05 1.60101645e-05 1.40177349e-06 1.40177349e-06 0. 0.
      0. 0. 0. 2.00396262e-05 2.00396262e-05 -3.65410710e-06
      -3.89945817e-05 -3.76456192e-05 1.01808932e-04 4.27033883e-05
      2.13148014e-05 2.13148014e-05 2.13148014e-05 0. 0. 0. 0. 0.
      1.40177349e-06 1.40177349e-06 1.60101645e-05 1.60101645e-05
      1.60101645e-05 1.40177349e-06 1.40177349e-06 1.40177349e-06 0. 0.
      2.00396262e-05 2.00396262e-05 3.88694461e-05 -6.50345610e-05
      -2.84249791e-06 9.40885002e-05 4.27033883e-05 2.13148014e-05
      2.13148014e-05 2.48498282e-06 0. 0. 0. 0. 5.20131725e-05
      5.34149440e-05 5.34149440e-05 1.60101645e-05 1.60101645e-05
      1.60101645e-05 1.60101645e-05 1.60101645e-05 1.60101645e-05
      1.60101645e-05 1.46083912e-05 2.00396262e-05 2.00396262e-05
      3.88694461e-05 3.80084657e-06 5.08000412e-05 2.51894344e-05
      1.79837727e-07 2.13148014e-05 2.13148014e-05 0. 0. 0. 0.
      5.20131725e-05 -1.91849322e-05 5.34149440e-05 1.40177349e-06</_>
    <_>
      -1.34799029e-05 -1.34799029e-05 -1.34799029e-05 -1.34799029e-05
      -1.34799029e-05 8.91691707e-06 8.91691707e-06 2.85608076e-05
      -5.73085163e-05 -3.23428721e-05 3.05088433e-05 3.11296280e-05
      3.11296280e-05 -3.01641903e-05 -2.88080919e-05 -2.88080919e-05
      -8.71114244e-05 -1.21498430e-04 -4.92298059e-05 -4.98701629e-05
      -4.98701629e-05 -4.99455491e-05 -8.02166905e-05 -8.02166905e-05
      -8.02166905e-05 8.91691707e-06 8.91691707e-06 8.91691707e-06
      8.91691707e-06 -2.15220844e-05 -2.21428691e-05 -2.45127085e-05
      -4.15372642e-06 -3.67026109e-06 -4.31061744e-06 1.70436015e-05
      1.07873811e-05 -5.88052135e-05 -5.88052135e-05 -2.44475887e-05
      -2.44475887e-05 -3.68822512e-05 -4.25839971e-05 -8.57485284e-05
      8.91691707e-06 8.91691707e-06 -4.89029517e-05 -4.89029517e-05
      -4.89029517e-05 -5.78198669e-05 8.91691707e-06 8.91691707e-06
      -2.15220844e-05 -1.58866478e-05 -1.58866478e-05 -5.11162471e-05
      -3.70134840e-05 6.82711834e-05 6.82711834e-05 2.88101346e-05
      -2.94360743e-05 -1.63201712e-05 -3.74465799e-06 -6.12973308e-05
      -5.97580947e-05 -6.52394665e-05 -3.62221763e-05 -5.61812230e-05
      -6.08129958e-05 -6.33517047e-05 8.91691707e-06 8.91691707e-06
      8.91691707e-06 8.91691707e-06 0. 8.91691707e-06 -2.15220844e-05
      -2.15220844e-05 -1.52658631e-05 -1.58866478e-05 -1.79585932e-05
      1.31618535e-05 -1.14928307e-05 -6.87808570e-05 -7.97063331e-05
      -3.47567511e-05 -3.40410079e-05 -9.75097864e-05 -9.75097864e-05
      -9.25091535e-06 -6.29916176e-05 -9.84789149e-05 -5.19660534e-06
      -7.40114265e-05 -5.56271516e-05 -6.95925919e-05 0. 0. 0. 0.
      8.91691707e-06 8.91691707e-06 8.91691707e-06 -2.15220844e-05
      -1.31507807e-06 2.12136783e-05 -1.85041408e-05 -5.01799259e-05
      -6.14057280e-05 -5.10263126e-05 -9.42145707e-05 -9.42145707e-05
      -9.42145707e-05 -9.42145707e-05 -9.42145707e-05 -9.48882443e-05
      -1.12887821e-04 -7.08727430e-06 -8.10192705e-06 -6.62310777e-05
      -5.40818328e-05 0. 0. 0. 0. 8.91691707e-06 8.91691707e-06
      8.91691707e-06 8.91691707e-06 1.07528111e-04 1.21487710e-05
      -3.25090514e-05 -3.92030634e-05 -3.03459401e-05 -6.14057280e-05
      -6.18891936e-05 -1.25361694e-04 -1.14982278e-04 -9.42145707e-05
      -9.42145707e-05 -9.42145707e-05 -1.66483194e-04 -1.03010687e-04
      -6.71493544e-05 -6.70161317e-05 -1.95336015e-05 3.29606955e-05 0.
      0. 0. 0. 0. 0. 0. 5.08275261e-05 6.49000358e-05 -3.57232625e-06
      -8.31666548e-05 7.25546415e-05 9.53908893e-05 1.53179091e-04
      -1.05540443e-04 -1.35295675e-04 -1.28464249e-04 -9.46980363e-05
      -9.42145707e-05 -1.66483194e-04 -1.03010687e-04 -6.06826434e-05
      -4.54908477e-05 -6.67473505e-05 4.75091692e-05 3.20546155e-06 0.
      0. 3.13558703e-05 0. 0. 0. 1.54740906e-06 1.54740906e-06
      -2.01336679e-05 1.46349528e-04 1.56352995e-04 2.02570052e-04
      1.30042696e-04 6.00919811e-05 -4.82183277e-05 -1.71506763e-04
      -1.11571782e-04 -9.35937860e-05 -1.66483194e-04 -1.03010687e-04
      -1.03010687e-04 -2.85093429e-05 -1.22772935e-05 5.76264138e-05
      2.10689504e-05 0. -1.85191930e-05 -3.77534561e-05 -6.40356120e-07
      0. 0. 0. 0. 6.73679438e-07 1.67156875e-04 1.67156875e-04
      7.32453700e-05 -1.75424484e-05 3.13506353e-05 -1.87752885e-04
      -2.02666735e-04 -1.98648297e-04 -1.48412480e-04 -1.66483194e-04
      -1.03010687e-04 -7.25716891e-05 -3.60366757e-05 -4.16417970e-05
      6.41239312e-05 1.78196042e-05 1.78634891e-05 -2.47387106e-05
      -3.39288526e-05 3.88370936e-05 0. 0. 0. 0. 0. 7.25716891e-05
      7.32453700e-05 5.47261770e-05 -1.08717890e-04 -8.03720905e-05
      -2.12696905e-05 -6.65155385e-05 -8.85809495e-05 -2.08981583e-04
      -1.03010687e-04 -1.03010687e-04 -7.25716891e-05 -3.73301846e-05
      -3.46698325e-05 7.03390688e-05 7.39416864e-05 1.00680281e-05
      1.44969090e-06 -1.04047431e-05 5.07403456e-05 0. 0.
      -3.04390014e-05 -3.04390014e-05 7.25716891e-05 7.25716891e-05
      -5.95197635e-05 -1.84828841e-05 -1.06616630e-04 -1.26798812e-04
      -1.31367633e-04 -1.20398610e-04 -4.24983991e-05 -3.35814802e-05
      6.34725002e-05 6.34725002e-05 -6.06826434e-05 -1.35001364e-05
      1.44836129e-04 1.23652178e-04 7.39416864e-05 6.50247748e-05
      4.90142247e-06 -4.03648664e-05 4.82641153e-05 0. 0. 0.
      -3.04390014e-05 -9.39115052e-05 2.58191794e-05 -8.51869772e-05
      -1.52100634e-04 -2.07059944e-04 -1.25985141e-04 -1.20398610e-04
      -5.56143023e-05 -4.24983991e-05 -7.82658443e-18 6.34725002e-05
      1.05800551e-04 1.00007514e-04 1.86386111e-04 1.00760415e-04
      1.10791763e-04 7.12809924e-05 3.91819995e-05 -8.21557987e-05
      -2.67850628e-05 3.25197871e-05 2.70837118e-05 0. 4.49495819e-05
      1.45105814e-05 4.09735076e-05 2.25047752e-05 -6.96811912e-05
      -1.43984566e-04 -7.86070086e-05 -1.19682867e-04 -5.56143023e-05
      -4.24983991e-05 -3.35814802e-05 -7.82658443e-18 -7.82658443e-18
      6.34725002e-05 7.21834076e-05 9.70386282e-06 1.33062757e-04
      1.77770307e-05 2.23634142e-05 -1.46929460e-05 -9.67264132e-05
      -5.11469225e-05 6.23177039e-05 8.95565972e-05 8.95565972e-05
      4.49495819e-05 7.59767936e-05 8.56438928e-05 5.50317745e-05
      2.93791127e-05 7.25209320e-05 1.04056235e-05 6.97266078e-05
      3.86871434e-05 7.22686236e-05 -7.82658443e-18 -7.82658443e-18
      -1.03794146e-05 2.32575148e-05 -1.71411120e-05 -9.70650581e-05
      -3.71333772e-05 -4.84590819e-05 -3.68770161e-05 -5.60698863e-05
      -5.05250209e-05 8.78244373e-06 6.84301922e-05 9.79302567e-05
      8.95565972e-05 8.95565972e-05 9.86039304e-05 1.15239571e-04
      1.05768580e-04 1.22857367e-04 8.57795967e-05 1.35732451e-04
      1.03517763e-04 1.62045380e-05 -1.71510346e-05 9.15122873e-05
      4.31487970e-05 -6.04992310e-05 -1.03753824e-04 -1.46475519e-04
      -1.58439594e-04 -8.00462221e-05 -7.74541768e-05 -9.53176641e-05
      -2.85033584e-05 -6.38510392e-05 5.01785735e-06 8.21864523e-05
      9.79302567e-05 9.79302567e-05 9.86039304e-05 1.15239571e-04
      1.15955314e-04 2.05070217e-04 2.29417681e-04 2.82738154e-04
      3.25236557e-04 3.25236557e-04 2.15665350e-04 3.41782361e-05
      -1.00220088e-04 -1.24584956e-04 5.31846763e-06 -1.21704528e-04
      -1.44724210e-04 -1.45397891e-04 -1.24940008e-04 2.77157633e-05
      -8.23807495e-05 -1.55443395e-05 -4.28828607e-05 3.75552554e-05
      9.23006155e-05 9.79302567e-05 9.79302567e-05 1.15239571e-04
      1.15239571e-04 1.13021044e-04 1.56105729e-04 2.00479626e-04
      2.67416675e-04 2.67416675e-04 2.45019852e-04 1.28956846e-04
      6.28741909e-05 -3.57484496e-05 -1.16911768e-04 -1.03985840e-05
      -1.36350543e-04 -1.44724210e-04 -1.32696674e-04 -7.18494339e-05
      -6.15707831e-05 -1.49271009e-05 -2.90507724e-05 -1.57991490e-05
      3.65310334e-05 6.88486980e-05 9.79302567e-05 9.79302567e-05
      6.26068004e-06 4.29852007e-05 1.00993544e-04 1.45367449e-04
      1.78948918e-04 2.11664286e-04 2.10948536e-04 1.92429346e-04
      8.57377963e-05 3.95851530e-05 -4.22432022e-05 4.11781093e-06
      -4.29843385e-06 -1.28012034e-04 -1.58675684e-04 -9.52031842e-05
      -3.84938612e-05 -1.25023638e-04 6.43103112e-06 -2.97345396e-05
      -6.41338120e-05 -4.68110411e-05 4.00745485e-05 9.79302567e-05
      1.08309672e-04 -4.65751400e-05 -7.93940708e-05 1.94334461e-05
      -2.95804457e-05 6.43310559e-05 6.43310559e-05 1.36599687e-04
      1.51595887e-04 2.65516701e-05 -3.73146395e-05 4.26652514e-05
      1.79494582e-05 -1.14180380e-04 -1.14180380e-04 -1.14180380e-04
      -3.90434943e-05 9.30479582e-05 1.20729396e-06 7.28896737e-07
      1.87996138e-05 2.26515749e-05 9.04733679e-06 9.04733679e-06
      3.94008712e-05 5.10971149e-05 -3.74839037e-05 -5.36885054e-05
      -1.28835876e-04 7.31915352e-05 9.06414716e-05 9.39343445e-05
      4.67291757e-05 1.96454657e-05 1.63525929e-05 -1.92882526e-05
      -4.68986909e-05 -5.46941519e-05 -5.16901600e-05 -5.16901600e-05
      -5.82654029e-05 9.49138775e-05 -4.91591600e-05 -9.47404078e-06
      6.55527174e-07 9.07177218e-06 9.07177218e-06 6.73679438e-07
      6.73679438e-07 3.10272117e-05 2.82071578e-05 -3.05316607e-05
      -6.25640496e-06 -1.00014797e-04 -5.04799391e-05 -7.59912145e-05
      -3.71541209e-05 -6.42378363e-05 -7.20332973e-05 -7.20332973e-05
      -8.56130937e-05 -8.95565972e-05 -3.17367303e-05 -3.17367303e-05
      4.25348553e-05 8.94766854e-05 1.78257586e-04 1.14329014e-05
      8.16979518e-05 3.41841114e-05 -3.04390014e-05 -3.04390014e-05
      6.73679438e-07 0. 3.10272117e-05 1.35772789e-05 -3.63563122e-05
      3.88769367e-05 -7.30503962e-05 4.07780026e-05 3.36562225e-05
      5.89135161e-05 5.43271308e-05 5.43271308e-05 2.72434190e-05
      2.26262400e-05 2.26262400e-05 1.42525832e-05 9.43434861e-05
      9.89298715e-05 1.32920992e-04 7.55435976e-05 1.47331011e-04
      8.11972786e-05 2.10059679e-05 -3.04390014e-05 0. 0. 0.
      3.94350036e-06 3.10272117e-05 3.60331069e-05 2.46365998e-05
      1.50496234e-07 -9.02628744e-05 -9.02628744e-05 -1.04483035e-04
      -6.56459379e-05 -8.41651345e-05 8.23180599e-05 5.12908482e-05
      5.19312052e-05 5.19312052e-05 1.03498503e-04 1.20710984e-05
      2.22006656e-05 1.50490509e-04 1.41136843e-04 7.64786964e-05
      -3.04390014e-05 0. 0. 0. 0. 3.94350036e-06 3.10272117e-05
      3.41867089e-05 5.08734229e-05 3.23215099e-05 2.39204965e-05
      4.17839838e-05 -7.15400965e-05 -4.09111308e-05 -4.09111308e-05
      -6.47019697e-05 -6.86454732e-05 -5.85159032e-05 -5.14888998e-05
      2.07797257e-05 2.91959695e-05 4.50973566e-05 4.24213285e-05
      2.10671078e-05 -1.38033656e-05 -1.38033656e-05 0. 0. 0. 0. 0.
      3.94350036e-06 6.61953027e-06 3.41867089e-05 4.37030867e-05
      7.43667479e-05 3.88667904e-05 9.86441228e-06 1.46119964e-05
      -6.12143822e-06 -1.00649386e-05 -5.34913852e-05 -4.56959242e-05
      -4.56959242e-05 -8.69105037e-08 -8.69105037e-08 -2.76294054e-06
      3.22624437e-05 1.76762169e-05 -2.60802994e-06 -8.86425096e-06
      8.91691707e-06 8.91691707e-06</_>
    <_>
      0. 0. -1.89005423e-05 -1.89005423e-05 -2.95880091e-05
      -2.95880091e-05 -5.57125713e-05 -3.30184012e-05 -3.30184012e-05
      5.46327738e-06 5.46327738e-06 5.46327738e-06 1.61507432e-05
      -2.23309362e-05 -8.64281028e-05 -6.88503678e-06 -2.97767638e-05
      -5.24709358e-05 -3.00984775e-05 -2.28917270e-05 0. 0. 0. 0. 0.
      -2.95880091e-05 -5.57125713e-05 -5.57125713e-05 -5.57125713e-05
      -5.57125713e-05 -5.57125713e-05 5.46327738e-06 5.46327738e-06
      1.61507432e-05 6.11758514e-05 6.11758514e-05 6.11758514e-05
      6.11758514e-05 -4.07396728e-05 -4.79464215e-05 -8.48907948e-05
      -1.23372476e-04 -4.38294082e-05 -4.41511183e-05 -4.41511183e-05 0.
      0. 0. 0. 0. -5.57125713e-05 -5.57125713e-05 -5.57125713e-05
      -5.57125713e-05 -2.61245641e-05 1.23571162e-05 3.84816813e-05
      6.11758514e-05 6.11758514e-05 6.11758514e-05 6.11758514e-05
      6.11758514e-05 -4.07396728e-05 -6.19990678e-05 -8.48907948e-05
      -8.48907948e-05 -8.48907948e-05 -1.23372476e-04 -6.65235784e-05
      -4.41511183e-05 -2.28917270e-05 0. 0. 0. 0. -3.33313110e-05 0. 0.
      0. 0. 0. 3.84816813e-05 3.84816813e-05 6.11758514e-05
      6.11758514e-05 1.54435591e-04 5.25200667e-05 -1.31112902e-05
      -1.31112902e-05 -4.84807169e-05 -4.84807169e-05 -4.84807169e-05
      -1.08618602e-04 -9.40725367e-05 -1.16766707e-04 -9.55073119e-05 0.
      0. 0. 0. -2.61072928e-05 0. 0. 0. 0. 5.85088310e-05 1.66777449e-04
      1.73153632e-04 1.73153632e-04 2.11635313e-04 1.54786423e-04
      1.59870004e-04 1.38610616e-04 1.02598417e-04 1.02598417e-04
      1.02598417e-04 1.92953630e-05 1.29191676e-05 -1.04838628e-05
      -1.01757832e-04 -9.55073119e-05 0. 0. 0. 0. -6.29193237e-05 0. 0.
      0. 1.51768574e-04 1.58144772e-04 1.73153632e-04 1.73153632e-04
      1.73153632e-04 9.96654053e-05 7.72929416e-05 7.74347573e-05
      2.75481161e-05 3.71218157e-05 8.27529366e-05 -2.66746774e-05
      -4.55752197e-05 -4.55752197e-05 1.78586215e-05 4.05109859e-05
      -7.44436111e-05 1.50088690e-05 0. 0. 0. -3.33313110e-05 0. 0. 0.
      9.32597395e-05 1.58144772e-04 1.64199591e-04 1.64199591e-04
      2.64914677e-04 1.85371609e-04 1.62999146e-04 -5.98213373e-05
      -7.77784153e-05 -7.80334158e-05 -5.53392456e-05 -4.55752197e-05
      -4.55752197e-05 -4.55752197e-05 3.39678445e-05 8.02688155e-05
      1.11203866e-04 2.10636990e-05 0. 0. 0. -7.20674916e-06 0. 0. 0. 0.
      0. 5.85088310e-05 1.71654930e-04 9.21118626e-05 1.62999146e-04
      5.49463766e-05 7.92778519e-06 -1.26921193e-04 -7.03481128e-05
      -8.18145272e-05 -3.52384741e-05 -3.52384741e-05 -3.52384741e-05
      4.43045901e-05 6.77911230e-05 7.64751894e-05 5.49426040e-05
      1.50088690e-05 1.50088690e-05 0. 2.66721563e-05 0. 0. 0. 0. 0. 0.
      1.00715071e-04 5.08855119e-05 -3.83133665e-05 -8.53319580e-05
      -6.46877961e-05 -1.26921193e-04 -7.88814068e-05 -1.00715071e-04
      -3.52384741e-05 -3.52384741e-05 -3.52384741e-05 4.43045901e-05
      9.06055648e-05 1.71982509e-04 6.13188022e-05 2.10636990e-05
      1.50088690e-05 1.50088690e-05 4.16810253e-05 0. 0. 0. 0. 0.
      -1.24776980e-05 8.69430824e-06 -1.02046470e-04 -8.46425100e-05
      -1.70378567e-04 -3.22609485e-05 -3.22609485e-05 -1.49783627e-05
      1.38913403e-19 -3.52384741e-05 -3.52384741e-05 -3.52384741e-05
      -3.52384741e-05 9.06055648e-05 1.09703666e-04 6.13188022e-05
      2.13850653e-05 1.50088690e-05 4.16810253e-05 -3.09345596e-05 0. 0.
      0. 0. -5.57125713e-05 -1.02062349e-05 -1.36781491e-05
      -1.43151337e-04 -7.71188279e-05 -7.71188279e-05 -2.36282758e-05
      1.11462004e-05 -1.35516875e-05 7.20674916e-06 1.02288628e-04
      6.54765972e-05 6.54765972e-05 -3.52384741e-05 6.82331083e-05
      1.13419563e-04 6.13188022e-05 1.50088690e-05 1.50088690e-05
      4.16810253e-05 -3.65940759e-05 0. 0. 0. 0. -1.35255643e-04
      -1.30766784e-04 -4.98916015e-05 -7.71188279e-05 -7.71188279e-05
      -2.36282758e-05 9.40264090e-06 -2.71346325e-05 -1.35516875e-05
      4.40187796e-05 1.21189172e-04 6.54765972e-05 6.54765972e-05
      2.69949160e-05 1.33776310e-04 2.01598214e-05 6.13188022e-05
      1.50088690e-05 1.50088690e-05 4.16810253e-05 -3.65940759e-05
      4.88877740e-05 0. 0. 7.22255063e-05 -1.58102412e-05
      -1.10998386e-04 1.05056279e-05 -2.36282758e-05 -2.36282758e-05
      9.40264090e-06 -1.42889194e-05 -2.07584362e-05 3.10146861e-05
      6.29193237e-05 1.21189172e-04 6.54765972e-05 6.54765972e-05
      2.69949160e-05 -2.83290083e-05 2.84871549e-05 6.37619587e-06 0. 0.
      -7.20674916e-06 4.42872151e-05 5.52639722e-05 1.51768574e-04
      7.22255063e-05 7.47566810e-05 -4.60655574e-05 -1.81725569e-04
      -1.24343351e-04 9.40264090e-06 1.54574700e-05 2.56448166e-05
      1.15035989e-04 5.83846559e-05 7.60397888e-05 6.29193237e-05
      5.57125713e-05 2.69949160e-05 -4.18506606e-05 -7.05996645e-05
      -3.21736115e-05 -1.91068866e-05 0. 0. 0. -7.98223336e-05
      4.42872151e-05 1.42147517e-04 8.72343735e-05 6.12873991e-05
      -5.65923729e-05 -1.40629971e-04 -1.30812870e-04 -7.88814068e-05
      -4.50025000e-05 -8.18145272e-05 -1.00715071e-04 -8.75945989e-05
      8.53425718e-06 -1.78293849e-05 5.57125713e-05 1.89005423e-05
      -7.75674271e-05 -1.20908308e-05 -1.04478568e-04 -8.39945133e-05
      -4.19986136e-05 -1.06513704e-04 0. 0. -7.98223336e-05
      4.42872151e-05 1.46931969e-04 6.73889008e-05 -3.42199164e-05
      -7.06450155e-05 -1.02148297e-04 -1.20476121e-04 -4.50025000e-05
      -4.50025000e-05 -1.00715071e-04 -1.00715071e-04 -1.00715071e-04
      -1.00715071e-04 -1.00715071e-04 -1.00715071e-04 -1.17106647e-04
      -8.87521601e-05 -4.59697367e-05 -6.09786039e-05 -6.09786039e-05
      -3.86061474e-05 -2.33295941e-05 -1.06513704e-04 -7.26155849e-05
      -6.30463273e-06 7.35177018e-05 1.46931969e-04 6.73889008e-05
      -3.57948593e-05 -3.33152566e-05 -9.18115547e-05 -9.77819509e-05
      -4.50025000e-05 -4.50025000e-05 -1.00715071e-04 -1.00715071e-04
      -1.00715071e-04 -1.00715071e-04 -1.00715071e-04 -1.11051821e-04
      -1.44930716e-04 1.52061129e-05 -4.59697367e-05 -4.59697367e-05
      -4.59697367e-05 -6.09786039e-05 -1.25764389e-04 -5.52116217e-05
      9.02116540e-07 6.63109531e-05 7.35177018e-05 1.08268607e-04
      1.46931969e-04 -2.97400311e-05 -2.29785092e-05 -1.91848831e-05
      3.35945660e-05 -3.18820275e-05 -3.18820275e-05 3.35945660e-05
      -3.18820275e-05 -3.18820275e-05 -3.18820275e-05 -3.18820275e-05
      -5.53392456e-05 2.12609430e-05 2.12609430e-05 2.12609430e-05
      -4.59697367e-05 -4.59697367e-05 -3.34920405e-05 -7.60615367e-05
      -9.87115855e-05 9.56225563e-07 6.63109531e-05 1.50088690e-05 0.
      7.64228462e-05 2.33996871e-05 1.90783958e-05 3.35945660e-05
      3.35945660e-05 3.35945660e-05 3.35945660e-05 5.34400460e-05
      5.34400460e-05 -1.20365512e-05 -3.18820275e-05 -3.18820275e-05
      5.57125713e-05 1.21189172e-04 6.54765972e-05 6.54765972e-05
      3.15976904e-05 1.00175921e-05 -2.31678277e-05 -3.14218378e-05
      -7.94173902e-05 1.50088690e-05 1.50088690e-05 0. 0. 0.
      2.16447825e-05 3.85730418e-05 2.97813694e-05 6.59177458e-05
      1.66632817e-04 1.66632817e-04 1.66632817e-04 1.66632817e-04
      1.54155117e-04 8.86785201e-05 6.88330401e-05 1.21189172e-04
      5.19928690e-05 6.96776442e-06 -2.69111424e-05 -2.69111424e-05
      2.30213573e-05 -4.38995339e-05 -2.22467861e-05 1.25671917e-07
      2.13850653e-05 6.37619587e-06 0. 0. 0. 0. 5.48732569e-05
      5.46757001e-05 3.34163051e-05 1.89395345e-04 1.89395345e-04
      1.67022896e-04 1.67022896e-04 8.74798279e-05 8.74798279e-05
      -1.74589350e-05 -3.05794056e-05 -6.44583124e-05 -1.20170880e-04
      -1.20170880e-04 -1.35179755e-04 3.85920503e-05 -1.56108727e-05
      -3.72556533e-05 6.37619587e-06 6.37619587e-06 6.37619587e-06 0. 0.
      0. 0. 4.88184269e-05 7.15125934e-05 7.15125934e-05 1.72227665e-04
      1.72227665e-04 1.78603863e-04 1.78603863e-04 1.55712129e-04
      7.61690681e-05 4.13189155e-05 -5.25560608e-05 -5.25560608e-05
      -5.25560608e-05 -5.25560608e-05 3.25372202e-05 1.13652140e-05
      2.39201945e-05 -1.59962619e-05 6.37619587e-06 6.37619587e-06
      6.37619587e-06 0. 0. 0. 0. 3.84816813e-05 4.88184269e-05
      7.15125934e-05 7.15125934e-05 7.15125934e-05 7.15125934e-05
      7.15125934e-05 7.15125934e-05 1.49335945e-04 6.97928772e-05
      4.13189155e-05 2.00595223e-05 2.00595223e-05 -6.81778474e-05
      -6.81778474e-05 3.42569401e-05 2.39201945e-05 3.84816813e-05 0. 0.
      0. 0. 0. 0. 0. 0. 3.84816813e-05 6.11758514e-05 7.15125934e-05
      7.15125934e-05 7.15125934e-05 7.15125934e-05 7.15125934e-05
      4.86208701e-05 -3.09221978e-05 -3.09221978e-05 -7.45540456e-05
      -7.45540456e-05 -7.45540456e-05 4.98901818e-06 1.75440000e-05
      3.99164564e-05 3.84816813e-05 3.84816813e-05 0. 0. 0. 0. 0. 0. 0.
      0. 0. 6.11758514e-05 6.11758514e-05 6.11758514e-05 6.11758514e-05
      6.11758514e-05 6.11758514e-05 3.82841208e-05 -4.12589434e-05
      -5.53115860e-05 -8.48907948e-05 -5.34772835e-06 1.75440000e-05
      3.99164564e-05 6.11758514e-05 3.84816813e-05 3.84816813e-05 0. 0.</_>
    <_>
      0. 0. 0. 0. 0. 0. -9.47763147e-06 -9.47763147e-06 -9.47763147e-06
      6.75284355e-06 6.75284355e-06 6.75284355e-06 6.75284355e-06
      2.56114532e-07 2.56114532e-07 2.56114532e-07 3.48493404e-06
      3.48493404e-06 3.48493404e-06 1.29625651e-05 1.29625651e-05
      1.29625651e-05 0. 0. 0. 0. 0. 0. 0. 0. -9.47763147e-06
      6.75284355e-06 3.52402390e-06 3.52402390e-06 3.52402390e-06
      1.64865887e-05 1.64865887e-05 3.15789111e-05 3.15789111e-05
      -1.06227068e-04 -1.06227068e-04 -1.37549869e-04 -1.27064504e-05
      -9.47763147e-06 -9.47763147e-06 0. 0. 0. 0. 0. 0. 0. 0. 0. 0.
      3.52402390e-06 -3.25249785e-05 2.17486668e-05 -1.03491993e-05
      -2.26118500e-05 1.16181263e-05 -2.01579110e-06 2.55994983e-05
      -8.01086135e-05 -4.67565296e-05 -6.08585869e-05 -1.16050622e-04
      -1.45243670e-04 -9.05646993e-06 -9.00574014e-06 -1.36339168e-05 0.
      0. 0. 0. 0. 0. 0. 0. -3.92778202e-05 -9.06315745e-06
      2.17486668e-05 -3.79912417e-05 1.47601404e-05 1.12622297e-06
      4.53150678e-05 4.63043762e-05 -1.36679751e-04 -1.36679751e-04
      -1.36679751e-04 -1.47658880e-04 -1.55924863e-04 -1.55924863e-04
      -4.02767510e-05 3.66257046e-18 6.08658274e-06 -9.00574014e-06
      -9.00574014e-06 0. -5.98529841e-05 0. 0. 0. 0. -1.31753777e-05
      4.43022363e-05 3.27543821e-05 1.48134886e-05 1.48134886e-05
      1.74100460e-05 1.74100460e-05 -1.10918299e-04 -1.10918299e-04
      -1.10918299e-04 -1.10918299e-04 -1.37020746e-04 -1.33791924e-04
      -7.66358571e-05 -1.55855538e-04 -4.54573128e-05 -2.27133369e-05
      -6.88587243e-05 -6.88587243e-05 -6.88587243e-05 -5.98529841e-05 0.
      0. 0. 0. 1.51956978e-04 4.60294068e-05 3.27543821e-05
      1.48134886e-05 -3.24181921e-04 -3.28338210e-04 -3.28338210e-04
      -1.23919948e-04 -1.07689484e-04 -1.07689484e-04 -1.07689484e-04
      -4.78364964e-05 -4.78364964e-05 -4.78364964e-05 -9.28663285e-05
      8.15230596e-05 -2.37026470e-05 -3.78056611e-05 -6.13086886e-05
      -6.88587243e-05 -5.52248093e-05 -1.36339168e-05 -1.36339168e-05 0.
      -1.92759512e-06 8.27418407e-05 6.85384657e-05 2.56254752e-05
      -3.57990764e-04 1.70731189e-04 1.74294662e-04 5.83729270e-05
      -4.34370479e-04 -9.53750859e-05 -4.46101440e-05 -4.46101440e-05
      -1.79302042e-05 -1.33020267e-05 -4.53998946e-05 -2.79013875e-05
      2.10016966e-04 9.32879193e-05 -2.41717426e-05 3.40624574e-05
      1.21782141e-05 4.62817752e-06 -7.08189691e-06 -1.36339168e-05
      -6.08388109e-06 -4.58239356e-06 5.73533689e-05 -3.51130038e-05
      -4.07748739e-05 1.99079041e-05 1.47384571e-05 -9.07421781e-05
      -1.48595427e-05 4.69030092e-05 1.38133400e-05 1.65102592e-05
      5.13570703e-05 9.47481167e-05 9.47481167e-05 9.47481167e-05
      1.13010210e-04 1.82656586e-04 1.45986836e-04 -9.12504129e-06
      -2.41717426e-05 -5.23029485e-05 -5.23029485e-05 -4.97325746e-05
      -1.36339168e-05 -1.36339168e-05 -1.53612491e-05 -4.88638289e-05
      -8.39138156e-05 -9.76164083e-05 -5.05675525e-05 -3.53865090e-07
      -1.34931019e-04 -1.07702937e-04 -1.96105466e-05 -3.90673580e-04
      1.48026511e-05 1.74995694e-05 9.41186445e-05 9.57374286e-05
      9.57374286e-05 1.00365600e-04 1.95440196e-04 1.43332043e-04
      1.69774012e-05 -2.87999192e-05 -5.23029485e-05 -3.72562499e-05
      -1.03198770e-04 -7.08189691e-06 -1.36339168e-05 -2.63403672e-05
      -7.52142369e-05 -1.27762731e-04 -1.63703182e-04 -1.13999522e-04
      -2.25703057e-04 -1.75489375e-04 -1.90829669e-04 -5.81710265e-05
      2.31408503e-05 4.29325628e-05 1.12772184e-04 -2.66761024e-04
      -2.38629800e-04 1.00365600e-04 1.00365600e-04 1.68760263e-04
      1.62132419e-04 2.08746224e-05 -2.57905267e-05 7.55003612e-06
      4.92766776e-05 -6.62678212e-05 -7.08189691e-06 -2.31115482e-05
      -2.63403672e-05 -8.61933513e-05 -1.74682296e-04 2.52611178e-04
      -2.87854491e-04 -2.87854491e-04 -1.67349528e-04 -1.52302819e-04
      -1.18541211e-04 -8.33834129e-05 -8.06864919e-05 9.95184892e-05
      1.02126585e-04 1.61103759e-04 2.18324931e-04 -2.38629800e-04
      1.68760263e-04 1.43332043e-04 5.82792200e-06 2.20473266e-05
      3.40624574e-05 3.56427590e-05 -3.07187511e-05 9.58358851e-06
      -1.36339168e-05 -2.63403672e-05 -8.61933513e-05 -1.36305243e-04
      -4.08250431e-04 -2.43665650e-04 -1.78405273e-04 -1.78405273e-04
      -1.36072355e-04 -5.08669727e-05 -3.05630856e-05 9.67001688e-06
      3.79687408e-05 5.98529841e-05 6.93306138e-05 9.65587024e-05
      1.20486809e-04 2.60633853e-04 7.10883105e-05 -5.15119700e-06
      2.20473266e-05 2.04285425e-05 1.77462789e-05 -1.65465572e-05
      7.96480435e-06 1.41278394e-06 -1.68627357e-05 7.75397930e-05
      -2.15649139e-04 -2.39088040e-04 1.60590134e-04 -1.62174794e-04
      -7.62193595e-05 -6.96673451e-05 -3.05630856e-05 -5.77330065e-05
      -2.35030293e-05 -2.18842451e-05 -2.24463731e-19 5.98529841e-05
      6.93306138e-05 5.41801892e-05 7.60266703e-05 1.04329360e-04
      -1.17032168e-05 4.81497700e-05 2.04285425e-05 2.23744555e-05
      -9.65888103e-05 2.98490486e-05 9.58153178e-05 9.58153178e-05
      -4.34034446e-05 -2.83567442e-05 -8.83066459e-05 -1.37594572e-04
      2.48654833e-04 2.25805910e-04 2.62213260e-04 3.21576255e-04
      -9.86911255e-06 1.36339168e-05 -2.24463731e-19 -2.24463731e-19
      -1.62304750e-05 -9.28809550e-06 -4.49817562e-05 7.88271136e-05
      2.70850633e-05 -1.17032168e-05 2.00185623e-05 -6.08388109e-06
      2.23744555e-05 -9.77512100e-05 6.91046589e-05 1.09449233e-04
      1.09449233e-04 -2.83567442e-05 -2.25430199e-06 1.39761723e-05
      1.39761723e-05 4.86533318e-05 5.96324498e-05 5.72148747e-05
      1.79370545e-05 2.68168569e-05 -2.23057232e-05 3.71093280e-04
      -2.24463731e-19 4.09255917e-05 -2.25212225e-05 -1.04497842e-04
      -1.68704675e-04 1.14809372e-05 -3.86379863e-04 1.24685257e-05
      1.24685257e-05 5.33263519e-05 3.35027471e-05 1.19318349e-04
      1.09449233e-04 -2.83567442e-05 -2.25430199e-06 1.39761723e-05
      1.39761723e-05 4.86533318e-05 8.22748116e-05 1.26545492e-04
      1.36414601e-04 6.70839872e-05 6.38551646e-05 2.78061671e-05
      -5.82461726e-05 -9.76228330e-05 -7.47452032e-06 -3.92374568e-05
      -6.23947853e-05 -1.49968997e-04 -7.59589093e-05 1.00341356e-04
      -4.73844593e-05 1.24685257e-05 9.69121902e-05 1.58957773e-05
      1.45420781e-04 1.09449233e-04 1.09449233e-04 1.39761723e-05
      1.39761723e-05 4.95755157e-05 9.53208291e-05 1.12911577e-04
      7.65616205e-05 7.65616205e-05 7.65616205e-05 6.70839872e-05
      2.51092479e-05 -8.90703232e-05 -1.16407988e-04 -2.76351584e-05
      -4.54844158e-05 -6.40135695e-05 -1.28252301e-04 -8.25822717e-05
      -2.14286119e-05 1.78759292e-05 2.82922792e-06 5.81897839e-05
      4.13789603e-05 2.54850020e-05 1.09449233e-04 9.58153178e-05
      3.42255476e-07 3.32446798e-05 9.53208291e-05 5.30585894e-05
      7.65616205e-05 7.65616205e-05 7.65616205e-05 7.65616205e-05
      6.11582509e-05 -2.24951091e-05 -1.16407988e-04 -8.97461905e-06
      -2.92539426e-05 -5.86882234e-05 -7.49187020e-05 -6.83993130e-05
      -6.74392140e-05 -4.44233592e-04 -1.21518215e-05 -3.37505444e-05
      1.64631456e-05 -4.73844593e-05 -1.87038422e-05 -6.17440946e-07
      1.97911663e-06 4.97962828e-05 -7.49771643e-05 -7.14793568e-05
      -2.07482408e-05 1.53007604e-05 5.12412116e-05 5.12412116e-05
      -1.02609057e-07 -6.33796953e-05 -9.14345801e-05 -8.97461905e-06
      -8.83478879e-06 -3.23378190e-05 -3.23378190e-05 -5.11381877e-05
      5.27750353e-06 -9.30398674e-05 -5.29524982e-07 -1.96484871e-05
      -1.96484871e-05 -2.71985227e-05 -4.73844593e-05 -4.73844593e-05
      -5.84402005e-05 -7.87869649e-05 1.66517711e-05 -9.65608979e-06
      2.03356576e-05 1.47283616e-04 1.47283616e-04 1.37805982e-04
      1.37805982e-04 -1.50467013e-05 -1.50467013e-05 -1.50467013e-05
      3.18437196e-05 -1.83699685e-05 -5.40740348e-06 8.22651418e-06
      3.72682589e-05 4.02367623e-05 -2.41662055e-04 5.74305814e-05
      5.11836188e-05 4.02045007e-05 -2.71985227e-05 -4.73844593e-05
      -4.27562845e-05 -5.38120257e-05 -9.50174363e-05 -6.09977251e-05
      -8.29152195e-05 -8.35445026e-05 3.68514266e-05 3.68514266e-05
      4.34034446e-05 2.83567442e-05 2.83567442e-05 -4.95962486e-05
      -4.95962486e-05 -3.59623300e-05 -3.59623300e-05 -3.59623300e-05
      2.72062043e-05 4.23492565e-05 5.01407412e-05 1.24567028e-04
      6.61749509e-05 5.32123813e-05 0. 0. -4.27562845e-05
      -6.88587243e-05 -5.38120257e-05 -6.32896554e-05 -6.20758583e-05
      2.14781016e-06 -7.87239696e-05 5.27909106e-05 7.79040420e-05
      8.44560636e-05 9.80899786e-05 9.80899786e-05 8.30432764e-05
      -6.20647697e-05 -8.62581692e-06 1.10376209e-06 3.54036388e-06
      2.96529888e-05 3.91306203e-05 1.52302819e-04 1.34513582e-04
      5.86249116e-05 3.91103240e-05 0. 0. 0. 4.62817752e-06
      -5.52248093e-05 -4.96557368e-05 4.31388289e-05 9.60242323e-05
      7.95656451e-05 1.01062935e-04 -2.97645631e-04 -2.97645631e-04
      -2.80114502e-04 -2.80114502e-04 1.79276845e-04 2.64241698e-05
      2.64241698e-05 2.64241698e-05 8.93661418e-05 -3.41526233e-04
      -2.53082203e-06 1.42055869e-04 1.20335695e-04 5.56458581e-05 0. 0.
      0. 0. 0. 4.62817752e-06 1.01972473e-05 2.52895697e-05
      4.31388289e-05 6.50230722e-05 7.79856418e-05 8.57359410e-05
      8.57359410e-05 9.23637926e-05 9.23637926e-05 -2.61678331e-04
      -2.61678331e-04 -3.05801295e-05 -3.05801295e-05 -3.05801295e-05
      -3.21989137e-05 7.70949628e-05 2.91930392e-05 1.62304750e-05
      1.62304750e-05 1.62304750e-05 0. 0. -1.60689786e-04
      -2.18944951e-05 -1.72663185e-05 -1.72663185e-05 -2.17399520e-06
      3.39507460e-06 5.01385875e-06 2.12443338e-05 6.19763250e-06
      3.01393156e-05 3.01393156e-05 4.57884835e-06 4.57884835e-06
      4.57884835e-06 4.57884835e-06 -4.93292198e-08 -4.93292198e-08
      -4.93292198e-08 -5.66402059e-06 -5.66402059e-06 -5.66402059e-06
      -5.66402059e-06 -5.66402059e-06 0. 0.</_>
    <_>
      1.28592328e-05 1.28592328e-05 1.28592328e-05 1.28592328e-05
      1.28592328e-05 1.28592328e-05 1.28592328e-05 1.28592328e-05
      1.28592328e-05 1.28592328e-05 1.28592328e-05 1.28592328e-05
      1.28592328e-05 1.28592328e-05 1.28592328e-05 1.28592328e-05
      1.28592328e-05 1.28592328e-05 1.28592328e-05 1.28592328e-05
      1.28592328e-05 1.28592328e-05 -3.66946988e-05 -3.66946988e-05
      -3.66946988e-05 1.28592328e-05 1.28592328e-05 1.28592328e-05
      1.28592328e-05 1.28592328e-05 1.28592328e-05 1.28592328e-05
      1.28592328e-05 1.28592328e-05 1.28592328e-05 1.71650045e-05
      1.71650045e-05 1.28592328e-05 1.28592328e-05 1.28592328e-05
      1.28592328e-05 1.28592328e-05 1.28592328e-05 1.28592328e-05
      1.28592328e-05 1.28592328e-05 1.28592328e-05 1.28592328e-05
      1.28592328e-05 0. 1.28592328e-05 1.28592328e-05 1.28592328e-05
      1.28592328e-05 1.28592328e-05 1.28592328e-05 1.28592328e-05
      -9.53810813e-05 -8.22495422e-05 -8.22495422e-05 -8.22495422e-05
      -8.22495422e-05 -8.22495422e-05 -8.22495422e-05 -8.90626980e-05
      -9.08262882e-05 1.71650045e-05 1.28592328e-05 1.28592328e-05
      1.28592328e-05 1.28592328e-05 1.28592328e-05 1.28592328e-05
      1.28592328e-05 0. 1.28592328e-05 1.28592328e-05 1.28592328e-05
      1.28592328e-05 1.28592328e-05 -9.53810813e-05 -8.22495422e-05
      -5.33993480e-05 -5.33993480e-05 -8.25452807e-05 -6.50207294e-05
      -6.50207294e-05 -1.91621730e-05 -1.91621730e-05 -1.91621730e-05
      -3.32303971e-05 -4.07791631e-05 -4.08446476e-06 -1.03957827e-04 0.
      0. 0. 0. 0. 0. 1.28592328e-05 1.28592328e-05 1.28592328e-05
      1.28592328e-05 1.96723850e-05 -5.16745167e-05 -1.93679934e-05
      2.24899622e-06 2.24899622e-06 -5.80823398e-05 -5.80823398e-05
      -8.76745708e-06 -8.76745708e-06 -8.76745708e-06 -8.76745708e-06
      -8.76745708e-06 -3.05748690e-05 3.74956544e-05 3.40393271e-05
      -1.02084319e-04 1.75549098e-06 0. 0. 0. 0. 1.28592328e-05
      1.28592328e-05 1.28592328e-05 1.96723850e-05 -6.74109833e-05
      -4.67306854e-05 2.40564077e-05 2.40564077e-05 2.40564077e-05
      -5.80823398e-05 -5.80823398e-05 -8.76745708e-06 -8.76745708e-06
      -8.76745708e-06 -8.76745708e-06 -8.76745708e-06 -8.76745708e-06
      7.33712950e-05 5.15638785e-05 1.60373980e-04 2.21634891e-05
      1.75549098e-06 0. 0. 0. 0. 0. 0. 0. -9.22008403e-05
      -4.67306854e-05 1.79951458e-05 1.79951458e-05 2.67626037e-05
      -1.86814486e-05 -1.69259565e-05 -6.23881133e-05 -6.23881133e-05
      -1.30732278e-05 -8.76745708e-06 -8.76745708e-06 -8.76745708e-06
      7.33712950e-05 7.33712950e-05 1.18757107e-05 1.42936668e-04
      2.21634891e-05 1.75549098e-06 0. 0. 1.76359686e-06 0. 0. 0.
      -1.15329560e-04 -1.02198021e-04 -3.57473582e-05 -2.69799020e-05
      -8.87477872e-05 -8.52914527e-05 -7.67147067e-05 -7.67147067e-05
      -5.98622210e-05 2.43916093e-05 -1.30732278e-05 -8.76745708e-06
      -8.76745708e-06 7.33712950e-05 7.33712950e-05 1.18757107e-05
      -8.06897424e-06 7.14783746e-05 9.30425540e-06 0. 0. 5.10784812e-05
      0. 0. 0. 0. 0. 2.18074128e-05 8.76745708e-06 3.93424853e-05
      3.93424853e-05 3.93424853e-05 4.27988125e-05 3.57949539e-05
      -8.70833683e-05 -4.17561787e-05 -8.76745708e-06 7.33712950e-05
      7.33712950e-05 7.33712950e-05 5.15638785e-05 -8.06897424e-06
      -7.27141232e-05 9.30425540e-06 7.54876419e-06 0. 5.10784812e-05
      1.76359686e-06 0. 0. 0. 0. 0. 8.76745708e-06 8.76745708e-06
      3.93424853e-05 3.93424853e-05 4.27988125e-05 4.45624100e-05
      -1.19563956e-05 -3.32824093e-05 -2.33821811e-05 7.33712950e-05
      7.33712950e-05 7.33712950e-05 5.15638785e-05 -1.25582324e-06
      -7.09505257e-05 2.21634891e-05 7.54876419e-06 5.68636460e-05
      1.61392745e-05 1.46228303e-05 0. 0. 0. 0. 8.76745708e-06
      8.76745708e-06 8.76745708e-06 4.27988125e-05 4.27988125e-05
      4.45624100e-05 7.01823519e-05 2.29825509e-05 -2.64692590e-05
      8.08926961e-06 8.21387512e-05 8.21387512e-05 7.33712950e-05
      3.74956544e-05 -1.25582324e-06 -6.84431434e-05 2.21634891e-05
      9.30425540e-06 5.68636460e-05 1.61392745e-05 1.76359686e-06 0. 0.
      0. 0. 0. 1.22237861e-05 4.27988125e-05 4.27988125e-05
      4.27988125e-05 4.45624100e-05 8.33138911e-05 -7.57841408e-05
      -1.46147240e-05 4.54440524e-05 8.21387512e-05 8.21387512e-05
      8.21387512e-05 2.06431687e-05 -9.01792282e-06 -8.81155283e-05
      9.30425540e-06 9.30425540e-06 8.24835952e-05 2.72581965e-05
      5.10784812e-05 0. 0. 3.40313563e-05 3.40313563e-05 3.40313563e-05
      4.27988125e-05 4.27988125e-05 4.27988125e-05 4.45624100e-05
      -1.45267695e-05 -2.72349098e-05 -1.46147240e-05 -1.75549098e-06
      8.21387512e-05 8.21387512e-05 8.21387512e-05 4.62631106e-05
      -2.65197214e-05 -1.08990571e-04 9.30425540e-06 1.75549098e-06
      9.30425540e-06 4.63002434e-05 5.35274521e-05 5.28339697e-05
      3.40313563e-05 3.40313563e-05 3.40313563e-05 3.40313563e-05
      3.40313563e-05 3.40313563e-05 4.27988125e-05 6.63698229e-05
      5.56694904e-05 6.75240226e-05 -1.75549098e-06 -6.09863722e-20
      -6.09863722e-20 8.21387512e-05 8.21387512e-05 1.56880851e-05
      -2.30633923e-05 -1.07297841e-04 2.33821811e-05 1.75549098e-06 0.
      0. 4.63002434e-05 7.91473940e-05 5.45267030e-05 3.40313563e-05
      3.40313563e-05 3.40313563e-05 3.40313563e-05 3.40313563e-05
      3.40313563e-05 2.69573466e-05 5.87565664e-05 5.87565664e-05
      7.16158029e-05 -8.76745708e-06 -8.76745708e-06 4.54440524e-05
      4.62631106e-05 1.74129163e-05 -2.13385611e-05 -1.05534244e-04
      1.39792774e-05 1.05229483e-05 0. 0. 0. 4.63002434e-05
      8.34298844e-05 3.57868448e-05 3.40313563e-05 3.40313563e-05
      3.40313563e-05 3.40313563e-05 6.28815542e-05 3.45061126e-05
      5.87565664e-05 5.87565664e-05 7.33712950e-05 3.77720025e-05
      -8.76745708e-06 -8.76745708e-06 8.00957821e-07 -1.69744853e-05
      -7.06534483e-05 7.35390495e-05 4.63179022e-05 4.63179022e-05
      4.27988125e-05 3.93424853e-05 0. 0. 3.05750254e-05 -4.36417986e-06
      3.57868448e-05 3.40313563e-05 3.40313563e-05 3.40313563e-05
      3.40313563e-05 -2.80327949e-05 5.87565664e-05 7.16158029e-05
      7.33712950e-05 7.33712950e-05 2.79272408e-05 -2.28356821e-05
      -4.46430931e-05 -4.48607489e-06 -7.94209045e-05 6.67259010e-05
      4.63179022e-05 4.63179022e-05 4.45624100e-05 4.45624100e-05
      3.93424853e-05 3.05750254e-05 3.05750254e-05 3.05750254e-05
      3.98792836e-05 3.45632884e-06 3.40313563e-05 3.40313563e-05
      3.40313563e-05 1.06397245e-04 5.44507966e-05 7.16158029e-05
      7.33712950e-05 7.33712950e-05 7.33712950e-05 -2.28356821e-05
      -3.59672158e-05 -5.77746287e-05 -4.72710235e-05 -9.46315995e-05
      4.63179022e-05 4.45624100e-05 4.45624100e-05 4.45624100e-05
      4.45624100e-05 3.57949539e-05 1.76359686e-06 0. 3.05750254e-05
      1.28592328e-05 0. 3.45632884e-06 3.45632884e-06 3.40313563e-05
      1.93636704e-04 5.87565664e-05 7.33712950e-05 7.33712950e-05
      7.33712950e-05 7.33712950e-05 -8.76745708e-06 -8.76745708e-06
      -3.22846722e-06 3.25406509e-05 -9.44107978e-06 1.37301700e-04
      1.37301700e-04 8.79868094e-05 6.63698229e-05 1.39873828e-05
      5.21992570e-06 1.76359686e-06 1.76359686e-06 1.76359686e-06 0. 0.
      0. 0. 4.51657579e-05 1.62155498e-04 2.20105954e-04 2.30637015e-04
      8.21387512e-05 8.21387512e-05 8.21387512e-05 -6.09863722e-20
      -6.09863722e-20 1.93942324e-04 2.26331249e-04 1.88943071e-04
      1.60092866e-04 1.10777990e-04 7.48490856e-05 7.48490856e-05
      1.70744606e-05 9.31236082e-06 1.76359686e-06 1.76359686e-06
      1.76359686e-06 0. 0. 0. 0. 5.28283526e-05 8.93323668e-05
      1.36759714e-04 1.94842069e-04 1.94842069e-04 1.96605659e-04
      1.61006363e-04 1.14466908e-04 1.14466908e-04 1.96605659e-04
      1.96605659e-04 1.47290775e-04 1.18440577e-04 1.18440577e-04
      1.18440577e-04 9.66331645e-05 5.38528002e-05 2.06840923e-05
      3.51908784e-06 0. 0. 0. 0. 0. 0. 3.99691162e-05 4.17246083e-05
      8.80248481e-05 1.09651541e-04 1.09651541e-04 1.11415138e-04
      1.01570375e-04 4.33446148e-05 2.92763889e-05 1.11415138e-04
      1.11415138e-04 8.25649404e-05 8.25649404e-05 7.50161780e-05
      7.50161780e-05 6.62487219e-05 5.31171863e-05 1.46380098e-05
      1.75549098e-06 0. 0. 0. 0. 0. 0. 2.39781548e-05 2.57336469e-05
      5.13535888e-05 5.13535888e-05 5.13535888e-05 8.02037830e-05
      4.32724264e-05 6.57772898e-06 1.53451856e-05 6.18846461e-05
      6.18846461e-05 6.18846461e-05 6.18846461e-05 5.31171863e-05
      5.31171863e-05 5.31171863e-05 2.74972426e-05 1.03322391e-05
      6.81315123e-06 0. 0. 0. 0. 0. 0. 4.30577074e-06 1.11189220e-05
      1.28744132e-05 1.28744132e-05 1.28744132e-05 1.28744132e-05
      3.84943560e-05 1.79966003e-06 1.79966003e-06 3.84943560e-05
      3.84943560e-05 3.84943560e-05 3.84943560e-05 3.84943560e-05
      1.11189220e-05 1.11189220e-05 6.81315123e-06 0. 0. 0. 0. 0. 0. 0.
      0. 0. 4.30577074e-06 4.30577074e-06 4.30577074e-06 4.30577074e-06
      4.30577074e-06 1.11189220e-05 1.11189220e-05 1.11189220e-05
      1.11189220e-05 1.27416115e-06 1.11189220e-05 1.11189220e-05
      6.81315123e-06 6.81315123e-06 0. 0. 0. -3.55992925e-05
      1.28592328e-05 1.28592328e-05</_>
    <_>
      1.24808466e-05 1.02391432e-05 1.77475715e-06 1.77475715e-06
      -5.75943977e-06 -1.82402873e-05 -2.04141525e-05 -2.04141525e-05
      -1.53986321e-06 -1.53986321e-06 -7.93330582e-06 -7.93330582e-06
      8.86646012e-06 4.11067522e-05 2.76537412e-05 3.65505548e-05
      3.97675103e-05 2.18153073e-05 -3.73053444e-06 1.56978022e-05
      4.34552858e-05 4.34552858e-05 4.34552858e-05 4.34552858e-05
      4.34552858e-05 -2.75058574e-05 -4.76319256e-05 -4.76319256e-05
      -3.83663573e-05 -3.19651335e-05 -3.19651335e-05 -1.40207103e-05
      -1.40207103e-05 5.02076000e-06 3.36112171e-05 3.36112171e-05
      3.36112171e-05 7.28753730e-05 4.07953448e-05 1.51728937e-05
      -3.34521101e-05 -3.34521101e-05 -2.45552947e-05 -1.63083369e-05
      -5.85884409e-05 0. 3.09744391e-05 3.09744391e-05 3.09744391e-05
      3.09744391e-05 -4.76319256e-05 -4.76319256e-05 -4.12307018e-05
      -4.12307018e-05 -4.45927617e-06 1.93416690e-06 4.00124409e-05
      4.00124409e-05 4.00124409e-05 4.00124409e-05 4.00124409e-05
      4.00124409e-05 1.09960856e-05 9.96438666e-06 -1.77930960e-05
      -1.77930960e-05 -2.41865400e-05 -3.34521101e-05 -2.45552947e-05
      -1.93242849e-05 -2.77574836e-05 0. 0. 0. 0. -3.00895099e-05
      6.40122471e-06 6.40122471e-06 6.40122471e-06 6.40122471e-06
      2.20602378e-05 2.20602378e-05 7.08761436e-05 1.01850579e-04
      1.14331429e-04 1.14331429e-04 9.17162979e-05 5.39480025e-05
      5.39480025e-05 -1.11851450e-05 2.80790118e-05 1.55981652e-05
      -4.24348764e-05 -1.98197467e-05 -1.96204182e-05 -6.74166404e-06 0.
      0. 0. 0. -2.06695277e-05 0. 0. 6.40122471e-06 6.40122471e-06
      3.73756629e-05 9.43966807e-05 1.13481772e-04 1.22747340e-04
      1.22747340e-04 1.20243967e-04 1.15012961e-04 8.41820001e-05
      3.70157613e-05 3.04115183e-05 3.04115183e-05 2.82263463e-05
      -1.79684844e-06 -2.26370048e-05 -1.03548482e-05 -6.74166404e-06 0.
      0. 0. 0. -5.75953673e-05 0. 0. 0. 0. 4.34552858e-05 1.07080545e-04
      1.07080545e-04 1.07080545e-04 1.04584957e-04 9.08666407e-05
      5.69642252e-05 2.80726563e-05 2.66161078e-05 3.70157613e-05
      -1.81584128e-05 1.03996554e-05 4.00621229e-06 2.99159069e-06
      2.65049966e-05 1.12105399e-05 0. 0. 0. 0. -3.00895099e-05 0. 0. 0.
      0. 1.24808466e-05 7.36892835e-05 1.07080545e-04 1.07080545e-04
      9.15794881e-05 7.47974991e-05 1.22028423e-05 -6.01666841e-07
      8.36776962e-06 8.36776962e-06 -2.88645024e-05 1.03996554e-05
      4.00621229e-06 -1.07267251e-05 5.57856110e-05 7.55762449e-05 0. 0.
      0. 0. -9.96343897e-06 0. 0. 0. 0. 0. 1.24808466e-05 1.24808466e-05
      3.58403213e-06 -1.01342839e-05 -2.78165317e-05 -6.16993639e-05
      -6.19954953e-05 8.36776962e-06 -2.85580682e-05 -2.88645024e-05
      1.03996554e-05 4.00621229e-06 1.29030268e-05 5.57856110e-05
      2.38348675e-05 0. 0. 0. 2.52756377e-06 -9.96343897e-06 0. 0. 0. 0.
      0. 0. 0. -2.26151315e-05 -6.74059411e-05 -6.58904901e-05
      -6.61866216e-05 8.13236056e-06 4.76319256e-05 3.38813179e-21
      1.03996554e-05 1.03996554e-05 4.00621229e-06 6.50180255e-06
      5.57856110e-05 7.23682533e-05 0. 0. 0. 2.52756377e-06
      -9.96343897e-06 0. 0. 0. 0. 0. 0. 3.89785282e-06 -5.74424994e-05
      -6.77936914e-05 4.91708352e-06 1.73979297e-05 1.73979297e-05
      1.07060896e-05 3.38813179e-21 1.03996554e-05 4.00621229e-06
      4.00621229e-06 -2.39501219e-06 5.57856110e-05 3.61677121e-05
      2.52756377e-06 0. 0. 1.05163290e-05 -2.05446008e-06 0. 0. 0.
      6.40122471e-06 -4.12307018e-05 -6.80823678e-06 -1.92853622e-05
      6.52529343e-06 -2.18662281e-05 4.76319256e-05 4.76319256e-05
      3.08321614e-05 2.93721914e-05 9.96343897e-06 4.73254913e-05
      4.00621229e-06 4.00621229e-06 -2.62277845e-05 4.20672950e-05
      -2.56842122e-05 0. 0. 0. 7.98876499e-06 -2.64132700e-06 0. 0. 0.
      0. -5.01275172e-05 -6.80823678e-06 -5.73952348e-05 8.36776962e-06
      8.36776962e-06 4.76319256e-05 4.76319256e-05 1.94087534e-05
      2.93721914e-05 4.68892758e-05 5.80315827e-05 4.00621229e-06
      -2.62277845e-05 -2.62277845e-05 -2.58877230e-06 -2.82117762e-05 0.
      0. 2.52756377e-06 3.41460800e-05 -2.64132700e-06 0. 0. 0.
      -8.89681451e-06 -5.01275172e-05 -1.05372994e-04 -7.68039899e-05
      -2.26066695e-05 8.36776962e-06 8.36776962e-06 3.01148430e-05
      1.94087534e-05 4.61719574e-05 5.75953673e-05 5.80315827e-05
      1.03996554e-05 -2.59803164e-06 -2.62277845e-05 3.66753848e-05
      2.07148678e-05 0. 0. 2.52756377e-06 3.41460800e-05 1.36045528e-05
      0. 0. -8.89681451e-06 -8.89681451e-06 -1.07469437e-04
      -1.49431304e-04 -1.22855403e-04 -4.69523184e-05 -2.90001135e-05
      -4.01237558e-05 -1.87498154e-05 2.16203953e-05 3.77399629e-05
      5.75953673e-05 4.76319256e-05 1.03996554e-05 4.00621229e-06
      -2.59803164e-06 5.32900194e-05 5.15923530e-05 4.89266422e-05
      1.79522031e-05 2.04797670e-05 -7.73200918e-06 -2.05446008e-06 0.
      -8.89681451e-06 -8.89681451e-06 -6.86209532e-05 -1.75957495e-04
      -1.49431304e-04 -1.38725212e-04 -1.15095463e-04 -1.42755729e-04
      -1.50934255e-04 -9.75041621e-05 2.70405126e-05 1.76696030e-05
      8.36776962e-06 -2.85580682e-05 3.38813179e-21 1.03996554e-05
      1.03996554e-05 3.99939345e-05 6.39641366e-05 9.81078574e-06
      4.89266422e-05 1.79522031e-05 -7.73200918e-06 -4.58202385e-06 0.
      -8.89681451e-06 -5.49026372e-05 -9.89533728e-05 -1.75957495e-04
      -1.49431304e-04 -1.38725212e-04 -1.38725212e-04 -1.86357138e-04
      -1.86357138e-04 -1.86357138e-04 -1.77436144e-04 -8.57946507e-05
      -4.85297278e-05 -4.85297278e-05 -3.92641596e-05 1.03996554e-05
      1.03996554e-05 1.03996554e-05 -5.57213389e-06 -4.54469155e-05
      9.81078574e-06 -2.96133805e-07 -1.02595723e-05 0. 0.
      -8.89681451e-06 -7.57701564e-05 -1.08916807e-04 -1.75957495e-04
      -8.75931728e-05 -7.68870814e-05 -7.68870814e-05 -1.55382702e-04
      -1.55382702e-04 -1.42901859e-04 -1.03117156e-04 -9.65129075e-05
      -5.49309516e-05 -4.85297278e-05 -2.88645024e-05 1.03996554e-05
      1.03996554e-05 4.00621229e-06 -2.87553485e-05 -4.89166778e-05
      -3.11270924e-05 -2.96133805e-07 7.98876499e-06 0. 0. 0.
      -8.52350568e-05 -4.45511068e-05 -4.27763516e-05 -3.45978224e-05
      -4.49974796e-05 -4.49974796e-05 -3.45978224e-05 -4.49974796e-05
      -4.24699174e-05 -3.60764716e-05 -5.84247618e-06 -2.52512291e-05
      -3.58883699e-05 -2.88645024e-05 1.03996554e-05 1.03996554e-05
      4.00621229e-06 -5.96190475e-05 -1.23940818e-05 -2.47258686e-05
      3.48590879e-06 1.43899897e-05 0. 0. -2.77574836e-05
      -6.68733410e-05 4.61696300e-06 -1.26713485e-05 -1.26713485e-05
      2.65928084e-05 7.19389755e-06 7.19389755e-06 -3.20702602e-05
      -4.24699174e-05 -5.84247618e-06 -5.84247618e-06 -8.97800646e-07
      1.87674250e-05 1.03996554e-05 1.03996554e-05 1.03996554e-05
      3.01068067e-05 -3.60336526e-05 -4.75845736e-05 -1.53743440e-05
      2.43534287e-05 6.40122471e-06 0. 0. 0. -1.86256766e-05
      -1.10672190e-05 2.46767195e-05 5.02225630e-05 5.02225630e-05
      5.02225630e-05 5.02225630e-05 5.02225630e-05 5.02225630e-05
      3.98229058e-05 3.98229058e-05 5.80315827e-05 4.12318150e-05
      1.03996554e-05 1.03996554e-05 -2.05747838e-05 -4.42121782e-05
      -8.32041678e-06 -1.09302764e-05 -6.47752995e-06 6.40122471e-06
      6.40122471e-06 0. 0. 0. 0. 2.19264748e-05 4.86624413e-05
      6.95764902e-05 1.09816501e-04 1.27768697e-04 1.14050388e-04
      1.14050388e-04 9.56886724e-05 9.56886724e-05 7.74403379e-05
      5.80315827e-05 2.70571436e-05 -2.05747838e-05 -6.64468971e-05
      -9.66808875e-05 -8.32041678e-06 5.76397667e-07 -2.01958464e-05
      6.40122471e-06 6.40122471e-06 6.40122471e-06 0. 0. 0. 0.
      6.39344307e-06 1.93989108e-05 8.84084075e-05 1.12038157e-04
      1.12038157e-04 1.12038157e-04 1.12038157e-04 8.42806767e-05
      6.59189609e-05 5.22006449e-05 3.12135035e-06 3.12135035e-06
      -2.96402104e-05 -2.96402104e-05 -1.13918722e-05 5.76397667e-07
      -1.09302764e-05 1.06351126e-05 6.40122471e-06 6.40122471e-06 0. 0.
      0. 0. 0. 0. 2.43456470e-05 3.07468727e-05 7.92766004e-05
      7.92766004e-05 8.58808417e-05 8.58808417e-05 8.84084075e-05
      5.11860235e-05 3.56849669e-05 2.19666508e-05 -8.86430826e-06
      -1.13918722e-05 -1.13918722e-05 -1.92697416e-06 -1.09302764e-05
      -2.01958464e-05 6.40122471e-06 6.40122471e-06 0. 0. 0. 0. 0. 0. 0.
      1.79522031e-05 2.43456470e-05 2.43456470e-05 3.36112171e-05
      7.92766004e-05 7.92766004e-05 7.92766004e-05 5.15191168e-05
      3.31574010e-05 3.31574010e-05 -1.13918722e-05 -5.06560318e-05
      -5.99216000e-05 -4.79533301e-05 -2.01958464e-05 -2.44297335e-05
      6.40122471e-06 6.40122471e-06 0. 0. 0. 0. 0. 0. 0. 0.
      1.79522031e-05 1.79522031e-05 1.79522031e-05 2.43456470e-05
      3.36112171e-05 3.36112171e-05 3.36112171e-05 2.79005917e-06
      -1.53723249e-05 -3.62398459e-05 -6.63150422e-05 -5.74182268e-05
      -2.01958464e-05 -3.08309573e-05 0. 0. 0. 0. 0.</_>
    <_>
      3.81308309e-05 3.81308309e-05 3.81308309e-05 3.81308309e-05
      3.81308309e-05 0. -1.92400730e-05 -2.63160509e-05 9.21706214e-06
      4.66739002e-05 -1.65503498e-05 1.44403521e-06 1.44403521e-06
      3.55105694e-05 3.55105694e-05 3.55105694e-05 5.46004740e-05
      6.22523066e-06 -4.07931293e-05 -1.25842407e-05 1.85635236e-05
      4.42689125e-05 4.42689125e-05 4.42689125e-05 4.42689125e-05 0. 0.
      0. 0. 7.85142329e-05 5.21981819e-05 1.49752697e-04 1.27832056e-04
      1.08435735e-04 1.27931402e-04 1.27931402e-04 1.27931402e-04
      8.00996495e-05 8.00996495e-05 -1.75373043e-05 -5.82103239e-05
      -5.82103239e-05 -2.06146433e-05 -6.75834144e-06 -8.48315540e-05
      -2.57053871e-05 -1.95673056e-05 6.13808061e-06 6.13808061e-06
      6.13808061e-06 0. 0. 7.85142329e-05 7.85142329e-05 1.91358718e-04
      2.12132130e-04 -2.94151978e-04 -2.41097616e-04 5.55941642e-06
      3.29177747e-05 4.50400184e-05 1.38572386e-05 -6.46569970e-05
      -9.44507701e-05 4.11833316e-04 -1.89534712e-05 -1.00172103e-04
      -1.34972986e-04 -4.95310487e-05 -4.99863854e-05 -8.80359294e-05 0.
      0. 0. 0. 0. 7.85142329e-05 7.85142329e-05 7.85142329e-05
      -3.27877206e-04 4.02302867e-05 9.45339052e-05 1.36475282e-04
      5.34469218e-05 1.95879966e-05 7.64773813e-06 7.64773813e-06
      2.28326026e-05 3.47728601e-05 -4.98794543e-05 -2.08554793e-05
      -3.99767232e-05 -5.75533777e-04 -7.09787491e-05 -4.91406136e-05
      -4.10175708e-05 -3.11827789e-05 -3.11827789e-05 0. 0. 0. 0. 0.
      7.85142329e-05 -3.73016737e-05 1.53448509e-05 5.48799471e-05
      1.24097030e-04 1.96281071e-05 -1.15546709e-05 5.16695800e-05
      2.69024877e-05 2.69024877e-05 2.69024877e-05 -4.21602238e-07
      -4.21602238e-07 -1.87351670e-05 -2.12798288e-04 -5.61706896e-04
      -7.96084860e-05 -1.66264381e-05 -6.23305459e-05 -3.11827789e-05
      -3.11827789e-05 0. 0. 0. 0. 1.79943836e-05 -2.65263880e-05
      -1.93729880e-04 -1.30821063e-04 -1.54370195e-04 -2.64098722e-04
      -8.49131829e-05 -8.49131829e-05 2.39747237e-06 1.13662873e-05
      4.88231271e-05 4.88231271e-05 4.88231271e-05 1.21777361e-04
      6.17360856e-05 -5.11084072e-05 6.91646565e-05 -7.13181871e-05
      -2.91468914e-05 -3.11827789e-05 -3.11827789e-05 0. -3.11827789e-05
      -3.11827789e-05 0. -1.90095852e-05 -2.65263880e-05 -4.73413929e-05
      -3.73400144e-05 -8.05103482e-05 -9.12176110e-05 -1.45741476e-04
      2.71160359e-04 -1.23558799e-04 1.25133774e-05 6.72051247e-05
      1.06697851e-04 1.32403235e-04 2.03723874e-04 1.40499615e-04
      3.17330632e-05 1.96575464e-04 1.28243468e-04 -3.53753567e-05
      9.36397191e-06 0. 0. -1.21302228e-05 -3.11827789e-05
      -3.11827789e-05 -5.01923641e-05 -5.47797281e-05 -1.15588853e-04
      -1.32872534e-04 -2.44368392e-04 -3.32404306e-04 -3.63229163e-04
      -1.97422749e-04 3.44399596e-05 -9.91636698e-05 6.26571418e-05
      1.26494619e-04 1.54235895e-04 2.20692236e-04 1.57467992e-04
      2.48206808e-04 2.92138808e-04 1.51770510e-04 4.45043952e-05
      9.36397191e-06 0. 5.89615411e-05 3.64471703e-06 -3.11827789e-05
      -3.11827789e-05 -6.31441872e-05 -7.88865291e-05 -1.46771636e-04
      -2.27587952e-04 -3.13681987e-04 -3.70535156e-04 -2.59621505e-04
      -9.92260320e-05 -4.49386105e-04 -2.60499855e-05 9.22904801e-05
      1.72545537e-04 1.81909505e-04 2.13813619e-04 1.81737123e-04
      1.97613888e-04 2.70274410e-04 2.08728132e-04 1.53322108e-05
      1.53322108e-05 0. 7.03613987e-05 -4.39710493e-05 -3.11827789e-05
      -3.11827789e-05 -6.31441872e-05 -7.88865291e-05 -1.36394694e-04
      -2.58770742e-04 -9.02467800e-05 -1.59728850e-04 -6.33104646e-05
      -4.24753845e-04 -5.68584292e-05 -4.49181716e-05 4.17657538e-05
      7.09344095e-05 1.23997670e-04 6.07734146e-05 1.71659194e-04
      8.47693882e-05 2.26722506e-04 2.08728132e-04 4.31109729e-05 0. 0.
      1.03396858e-04 5.83927476e-06 1.85267902e-06 -5.01923641e-05
      -6.31441872e-05 -2.08649271e-06 5.49640317e-05 4.72846041e-05
      -3.08188115e-04 -1.78812232e-04 -1.60817843e-04 -7.75065782e-05
      -5.45216717e-05 3.50324226e-05 5.03376432e-05 5.89769443e-05
      5.89769443e-05 3.90314162e-05 1.05834435e-04 -3.52864263e-05
      2.01017130e-04 5.13008636e-05 -3.11827789e-05 -3.11827789e-05 0.
      4.03555641e-05 2.91115684e-05 1.39749227e-05 -3.11827789e-05
      -6.31441872e-05 -6.80413577e-05 4.00348763e-05 -2.11970153e-04
      -1.16983778e-04 -1.18556702e-04 -5.91406024e-05 -1.21222438e-05
      -1.21222438e-05 1.12485975e-18 1.12485975e-18 1.12485975e-18
      1.12485975e-18 5.74352862e-06 2.52445916e-05 -3.87362670e-04
      6.87230058e-05 -4.54883084e-05 -3.11827789e-05 -3.11827789e-05
      2.77787622e-05 8.23434093e-05 3.30736924e-07 -9.69656230e-06
      -3.11827789e-05 -4.41346019e-05 -4.90317761e-05 -1.13366907e-04
      -2.69851706e-04 -7.13757181e-05 -8.42553163e-06 -4.70183586e-05
      -4.70183586e-05 1.12485975e-18 1.12485975e-18 1.12485975e-18
      1.12485975e-18 1.12485975e-18 1.12485975e-18 -7.73245920e-05
      -4.06907493e-04 7.67765159e-05 -7.24949932e-05 -4.75241941e-05
      -2.18188070e-05 3.91786198e-05 6.53267343e-05 1.25150254e-05
      -9.69656230e-06 -3.11827789e-05 -3.11827789e-05 -4.37766757e-05
      -4.86738500e-05 -1.63183300e-04 1.17269767e-04 -1.80559786e-04
      3.12732489e-08 3.29376016e-05 3.29376016e-05 -1.58355797e-05
      -1.58355797e-05 1.12485975e-18 1.12485975e-18 1.12485975e-18
      -6.32242518e-05 -6.43727690e-05 2.15604625e-04 1.10771743e-05
      -2.33917290e-05 -2.18188070e-05 3.91786198e-05 3.22912783e-05
      -7.46718506e-05 -9.69656230e-06 0. 0. -4.37766757e-05
      -4.37766757e-05 -9.05518900e-05 -6.31935400e-05 -7.77738460e-05
      -4.28971834e-05 -9.09340201e-07 -1.77883194e-04 -6.03444314e-05
      3.64290245e-05 3.35982877e-05 -2.13129715e-05 1.12485975e-18
      1.12485975e-18 1.12485975e-18 -7.93044164e-05 1.43380923e-04
      -5.48892276e-05 2.31365857e-06 -1.78853588e-06 9.03045584e-05
      -8.98567087e-05 -9.69656230e-06 0. -4.37766757e-05 -4.37766757e-05
      -4.37766757e-05 -4.37766757e-05 -9.05518900e-05 -9.05518900e-05
      -9.05518900e-05 -1.21965160e-04 -1.40974749e-04 2.87809962e-04
      -1.40377058e-04 3.65129781e-05 1.56039041e-05 -4.70183586e-05
      1.12485975e-18 1.12485975e-18 3.18297634e-06 1.76543923e-04
      8.42212321e-05 2.31365857e-06 -2.18188070e-05 3.13430210e-05
      -8.08878976e-05 1.12166508e-05 0. 0. -4.37766757e-05
      -4.37766757e-05 -3.76385942e-05 -6.88213768e-05 -6.88213768e-05
      -6.88213768e-05 -6.88213768e-05 -3.06905422e-05 2.54799579e-05
      -8.06943863e-05 -4.96197754e-05 3.35982877e-05 -2.13129715e-05
      1.12485975e-18 1.12485975e-18 -5.59633336e-05 -4.86665995e-05
      1.40729884e-04 2.14381680e-06 -1.58505682e-05 6.25257962e-05
      1.66860646e-05 9.36397191e-06 0. -2.73261849e-05 -6.00323983e-06
      2.82709971e-05 -8.01190890e-06 -8.01190890e-06 -8.01190890e-06
      -8.01190890e-06 -8.01190890e-06 2.82709971e-05 1.23888909e-04
      4.63350807e-05 -2.98201594e-05 9.83479276e-06 -2.13129715e-05
      1.12485975e-18 1.12485975e-18 -5.59633336e-05 -6.43209569e-05
      -3.40223312e-04 1.11840825e-04 8.44824754e-05 1.31676061e-04
      -2.36649180e-06 0. 0. 8.55183098e-05 -1.75591893e-04
      -1.85159399e-04 -2.34028266e-04 -1.60046431e-04 1.68206272e-04
      1.68206272e-04 1.21187913e-04 1.07220891e-04 -2.27462988e-05
      -6.79018849e-05 -2.32006641e-05 9.83479276e-06 5.68531505e-05
      1.12485975e-18 1.12485975e-18 -2.60919878e-05 -2.40418922e-05
      -2.53152219e-04 1.02476857e-04 7.85142329e-05 7.85142329e-05
      -3.11827789e-05 -3.11827789e-05 -3.11827789e-05 -3.30336450e-04
      1.49089494e-04 1.57854884e-04 1.38956573e-04 1.19056371e-04
      1.16271112e-04 8.93567194e-05 1.01505953e-04 5.74987898e-05
      7.45154612e-05 5.68531505e-05 5.68531505e-05 5.68531505e-05
      2.57053871e-05 3.11827789e-05 9.52868868e-05 2.20942402e-05
      -2.64082599e-04 6.56149423e-05 7.85142329e-05 7.85142329e-05
      7.85142329e-05 -3.11827789e-05 -3.11827789e-05 -3.11827789e-05
      -5.34287887e-04 1.35695853e-04 1.07656924e-04 1.04080638e-04
